tree
version=v3
num_class=1
num_tree_per_iteration=1
label_index=0
max_feature_idx=8
objective=regression
feature_names=Column_0 Column_1 Column_2 Column_3 Column_4 Column_5 Column_6 Column_7 Column_8
feature_infos=[1:30] [98.799999999999997:106.7] [69:125] [4:7] [0:12] [79.400000000000006:291] [0:2] [0:1] [20:79]
tree_sizes=5310 5361 5406 5451 5454 5480 5406 5547 5505 5538 5485 5454 5624 5533 5598 5607 5489 5630 5596 5653 5633 5618 5699 5726 5593 5675 5719 5755 5832 5659 5775 5672 5741 5722 5746 5753 5782 5752 5736 5727 5749 5825 5776 5821 5799 5802 5833 5844 5836 5849 5862 5836 5805 5784 5850 5802 5833 5717 5821 5841 5830 5762 5796 5800 5779 5789 5869 5785 5772 5783 5888 5798 5794 5857 5848 5793 5865 5799 5777 5741 5794 5755 5815 5878 5825 5817 5797 5884 5819 5892 5810 5888 5812 5863 5877 5814 5870 5868 5796 5836 5771 5796 5845 5839 5798 5858 5832 5870 5776 5802 5806 5842 5829 5874 5862 5870 5857 5880 5849 5900 5864 5858 5834 5834 5830 5829 5870 5833 5898 5837 5904 5852 5836 5873 5847 5887 5830 5866 5880 5899 5830 5853 5807 5814 5887 5923 5958 5898 5782 5924 5884 5878 5871 5872 5870 5868 5833 5823 5828 5891 5879 5880 5924 5865 5888 5870 5800 5886 5841 5845 5883 5909 5880 5891 5871 5898 5852 5858 5910 5927 5864 5894 5889 5824 5884 5839 5835 5829 5836 5886 5897 5868 5908 5883 5916 5876 5851 5881 5852 5859 5891 5906 5935 5890 5901 5902 5869 5900 5864 5852 5928 5836 5904 5853 5907 5881 5871 5896 5900 5874 5881 5898 5871 5889 5882 5891 5865 5897 5900 5907 5912 5920 5890 5862 5916 5874 5920 5844 5840 5888 5881 5852 5906 5906 5871 5912 5945 5898 5880 5902 5852 5919 5898 5907 5893 5875 5866 5832 5842 5899 5896 5916 5921 5913 5936 5917 5919 5900 5881 5858 5904 5923 5908 5880 5922 5894 5867 5877 5924 5889 5855 5881 5912 5882 5872 5866 5935 5963 5867 5931 5923 5917 5945 5892 5916 5888 5881 5872 5904 5900 5889 5919 5952 5879 5867 5908 5912 5892 5854 5903 5877 5845 5860 5913 5916 5894 5923 5885 5853 5893 5879 5878 5872 5884 5886 5888 5870 5838 5921 5877 5831 5885 5892 5878 5895 5851 5892 5898 5915 5884 5823 5823 5895 5913 5902 5875 5894 5861 5880 5927 5872 5926 5879 5867 5917 5921 5882 5928 5887 5868 5903 5904 5897 5897 5915 5907 5919 5896 5888 5895 5852 5866 5854 5921 5839 5876 5892 5843 5883 5861 5900 5944 5832 5936 5839 5879 5854 5894 5897 5846 5892 5878 5851 5910 5876 5855 5941 5895 5853 5922 5901 5892 5890 5904 5920 5885 5904 5925 5914 5910 5876 5907 5934 5862 5901 5878 5896 5936 5819 5830 5891 5889 5901 5883 5931 5890 5943 5929 5918 5850 5829 5899 5894 5890 5852 5905 5879 5915 5899 5928 5888 5866 5874 5923 5897 5855 5807 5847 5941 5912 5904 5852 5946 5931 5931 5915 5832 5887 5882 5852 5898 5861 5883 5871 5925 5907 5901 5899 5883 5816 5868 5856 5911 5927 5906 5863 5903 5917 5929 5903 5877 5950 5798 5934 5900 5906 5915 5854 5937 5904 5899 5871 5908 5877 5915 5874 5880 5915 5874 5894 5908 5919 5885 5888 5971 5882 5879 5902 5926 5920 5892 5889 5905 5895 5884 5868 5910 5875 5905 5908 5889 5865 5903 5910 5846 5909 5885 5910 5894 5925 5884 5884 5898 5898 5918 5875 5876 5899 5894 5905 5928 5927 5931 5890 5870 5883 5847 5930 5877 5853 5869 5895 5871 5904 5924 5916 5906 5891 5875 5897 5889 5884 5882 5874 5837 5871 5894 5861 5878 5919 5930 5869 5869 5948 5916 5867 5876 5910 5841 5888 5849 5888 5889 5929 5932 5914 5836 5837 5864 5927 5925 5904 5896 5882 5850 5907 5887 5873 5874 5860 5854 5898 5854 5879 5877 5874 5874 5884 5884 5911 5848 5877 5889 5835 5926 5845 5825 5884 5871 5907 5863 5908 5906 5790 5897 5915 5933 5867 5913 5880 5890 5916 5899 5841 5860 5893 5889 5858 5939 5870 5873 5896 5848 5870 5873 5868 5897 5934 5892 5908 5853 5842 5947 5877

Tree=0
num_leaves=63
num_cat=0
split_feature=2 1 2 1 1 1 2 2 1 2 1 2 2 6 1 1 1 7 2 1 2 2 1 1 1 1 6 2 1 2 1 2 1 3 3 2 2 2 1 2 2 6 1 2 2 6 2 2 2 1 1 1 2 1 1 1 1 7 1 1 1 2
split_gain=4318.9 676.682 466.48 144.637 106.319 74.0886 72.0408 42.6356 34.0136 28.4357 27.9894 19.2388 15.9986 14.9355 12.1805 11.7235 9.6675 8.37873 8.19371 7.95862 7.21658 6.34334 6.12908 5.80973 5.74372 4.35361 4.30478 4.14447 4.11135 3.80688 3.56528 2.91186 2.48755 2.39632 2.34726 2.31497 2.27019 2.11858 2.06257 1.91857 1.91562 2.0448 1.90704 1.67564 1.60268 1.57871 1.57283 1.56072 1.49453 1.48517 1.4107 1.395 1.16654 1.10297 1.09017 1.0726 0.878825 0.858047 0.812346 0.807258 0.776948 0.773023
threshold=98.500000000000014 103.7 105.50000000000001 104.80000000000003 104.80000000000003 102.65000000000002 109.50000000000001 92.500000000000014 104.30000000000003 101.50000000000001 105.00000000000001 93.500000000000014 88.500000000000014 1.0000000180025095e-35 105.35000000000001 104.30000000000003 105.00000000000001 1.0000000180025095e-35 88.500000000000014 101.60000000000001 112.50000000000001 102.50000000000001 105.2 103.2 103.7 104.60000000000001 1.0000000180025095e-35 96.500000000000014 104.30000000000003 90.500000000000014 105.7 107.50000000000001 105.35000000000001 5.5000000000000009 5.5000000000000009 84.500000000000014 96.500000000000014 84.500000000000014 105.50000000000001 87.500000000000014 103.50000000000001 1.0000000180025095e-35 105.2 113.50000000000001 100.50000000000001 1.0000000180025095e-35 93.500000000000014 96.500000000000014 103.50000000000001 105.35000000000001 105.2 105.50000000000001 93.500000000000014 103.2 104.10000000000001 104.10000000000001 105.50000000000001 1.0000000180025095e-35 102.30000000000003 100.85000000000001 105.35000000000001 92.500000000000014
decision_type=2 2 2 2 2 2 2 2 2 2 2 2 2 2 2 2 2 2 2 2 2 2 2 2 2 2 2 2 2 2 2 2 2 2 2 2 2 2 2 2 2 2 2 2 2 2 2 2 2 2 2 2 2 2 2 2 2 2 2 2 2 2
left_child=1 5 3 8 7 19 10 18 24 16 25 29 37 20 34 47 -5 31 35 59 51 26 36 61 -2 -4 -10 52 -20 -6 43 33 -22 -12 48 57 -13 -7 -18 58 -16 -42 -19 60 -28 -27 -25 55 -11 -33 -50 -8 -17 -39 -26 -9 -44 -3 -21 -1 -15 -14
right_child=2 4 6 9 11 12 13 15 21 14 17 22 23 30 40 27 38 42 28 39 32 -23 -24 46 54 45 44 -29 -30 -31 -32 49 -34 -35 -36 -37 -38 53 -40 -41 41 -43 56 -45 -46 -47 -48 -49 50 -51 -52 -53 -54 -55 -56 -57 -58 -59 -60 -61 -62 -63
leaf_value=-0.26524117702955746 -0.082514890389659243 -0.17987076362618615 0.13524836017999645 0.075551920918299764 -0.067559287359883119 -0.20401938553959315 0.28372984384416161 -0.082441827906366713 0.041619841319556511 0.1474271694350765 0.25128477567222995 0.02167212156447542 -0.17970443870244179 0.35222475890630084 0.21497800601009093 -0.050562671449743982 0.13997251519361378 0.21169019074538592 -0.10423852831242839 -0.23814151524831978 0.32686013593788971 0.11766531702665056 0.096368512082335545 -0.13551398692321448 -0.019494712866842748 0.18520671024437771 0.067885109215508041 0.017194636450287602 -0.063967799088649302 0.0033997915743833149 0.44629892521219872 0.29649449254140736 0.38362923595045656 0.30568763735103943 0.20256360787899186 -0.11930812045348232 0.066061020948777832 -0.19026573244764117 0.17747310900150076 -0.20652320986255204 0.23092502720308458 0.27918695462984655 0.24585287552716628 0.41389052375969321 0.11839408166692766 0.23652257998886778 -0.1069494697858494 -0.039804386150621797 0.16378860065216821 0.3441957709628567 0.21026449097136699 0.32269042248592256 -0.018648836211571443 -0.16575628587698951 0.015817132189200302 -0.055445761469296286 0.27333309716767717 -0.1380998944587245 -0.22108979813334725 -0.24925821806101742 0.38586405955715031 -0.15410387019606103
leaf_weight=260 48 42 57 91 49 243 107 134 152 104 57 98 115 57 109 59 220 44 229 260 52 127 156 234 72 65 47 136 182 79 44 42 76 75 94 182 87 157 80 182 89 58 106 46 54 38 115 91 72 69 41 56 205 138 68 105 83 37 196 246 53 80
leaf_count=260 48 42 57 91 49 243 107 134 152 104 57 98 115 57 109 59 220 44 229 260 52 127 156 234 72 65 47 136 182 79 44 42 76 75 94 182 87 157 80 182 89 58 106 46 54 38 115 91 72 69 41 56 205 138 68 105 83 37 196 246 53 80
internal_value=-7.72791e-10 -0.128736 0.198806 0.126734 -0.0400787 -0.203254 0.296393 -0.0676534 0.0467691 0.174146 0.251964 0.0423515 -0.165736 0.353943 0.20276 -0.0341903 0.132652 0.276289 -0.104005 -0.238739 0.325025 0.0811937 0.0671691 -0.141551 -0.0228126 0.179597 0.0628858 -0.0111693 -0.0864057 -0.0237642 0.396019 0.302272 0.360567 0.282195 0.176164 -0.131718 0.0425469 -0.190191 0.149973 -0.223883 0.235069 0.249967 0.249191 0.381837 0.0948899 0.204139 -0.126102 -0.0620946 0.164728 0.326147 0.180652 0.297115 -0.0257811 -0.1788 -0.00234325 -0.0705816 0.257921 -0.160307 -0.230812 -0.257471 0.368433 -0.169202
internal_weight=0 4097 2653 1526 1871 2226 1127 1402 568 958 636 469 1082 491 567 730 391 476 672 1144 291 380 341 544 188 160 253 400 411 128 200 243 128 132 311 261 185 538 300 638 256 147 233 156 101 103 349 330 217 111 113 163 264 295 140 239 189 79 456 506 110 195
internal_count=6750 4097 2653 1526 1871 2226 1127 1402 568 958 636 469 1082 491 567 730 391 476 672 1144 291 380 341 544 188 160 253 400 411 128 200 243 128 132 311 261 185 538 300 638 256 147 233 156 101 103 349 330 217 111 113 163 264 295 140 239 189 79 456 506 110 195
is_linear=0
shrinkage=1


Tree=1
num_leaves=63
num_cat=0
split_feature=0 0 0 2 0 0 8 8 0 8 0 8 0 5 8 8 0 0 2 2 2 8 8 2 2 0 0 2 0 5 5 5 0 2 8 0 8 8 5 2 8 8 8 8 8 0 2 2 0 2 2 8 5 8 2 5 0 8 5 5 2 2
split_gain=3168.03 442.002 310.236 75.4693 42.457 35.7538 34.4128 32.062 31.9246 19.2068 16.7109 15.9323 12.2424 11.0449 11.0069 8.80074 8.19187 7.29985 6.95372 6.30047 5.56377 5.25272 4.24741 4.07942 3.83571 3.76203 3.74175 3.70396 3.34987 3.31699 3.18274 2.96841 2.72282 2.61472 2.52764 2.33222 2.22928 2.21655 2.1779 2.05581 2.02904 2.0273 1.96951 1.71876 1.61131 1.5988 1.46688 1.40577 1.3883 1.24162 1.20758 1.16902 1.1428 1.1036 1.08764 1.08658 1.02873 1.01649 0.991778 0.989935 0.987325 0.896986
threshold=17.500000000000004 23.500000000000004 10.500000000000002 106.50000000000001 5.5000000000000009 14.500000000000002 55.500000000000007 52.500000000000007 20.500000000000004 51.500000000000007 27.500000000000004 46.500000000000007 27.500000000000004 170.90000000000003 39.500000000000007 48.500000000000007 26.500000000000004 8.5000000000000018 102.50000000000001 112.50000000000001 97.500000000000014 34.500000000000007 35.500000000000007 92.500000000000014 94.500000000000014 26.500000000000004 26.500000000000004 95.500000000000014 3.5000000000000004 175.30000000000004 195.10000000000002 170.90000000000003 12.500000000000002 99.500000000000014 49.500000000000007 25.500000000000004 32.500000000000007 35.500000000000007 179.70000000000002 110.50000000000001 31.500000000000004 35.500000000000007 44.500000000000007 66.500000000000014 37.500000000000007 12.500000000000002 99.500000000000014 109.50000000000001 12.500000000000002 102.50000000000001 88.500000000000014 58.500000000000007 177.50000000000003 66.500000000000014 91.500000000000014 195.10000000000002 19.500000000000004 26.500000000000004 164.20000000000002 144.40000000000003 96.500000000000014 100.50000000000001
decision_type=2 2 2 2 2 2 2 2 2 2 2 2 2 2 2 2 2 2 2 2 2 2 2 2 2 2 2 2 2 2 2 2 2 2 2 2 2 2 2 2 2 2 2 2 2 2 2 2 2 2 2 2 2 2 2 2 2 2 2 2 2 2
left_child=2 8 4 7 28 15 10 12 11 18 22 20 21 26 27 23 31 42 37 40 57 33 39 48 53 -15 -8 59 -1 -18 46 -9 54 -3 50 -23 -14 -10 56 -5 -12 -21 -6 61 -20 -25 -11 -24 -4 -33 -19 -40 -42 -16 -17 -27 -13 -2 -48 -7 -34 -26
right_child=1 3 5 6 17 14 13 16 9 30 19 38 36 25 24 32 29 34 44 41 -22 35 47 45 43 55 -28 -29 -30 -31 -32 49 60 -35 -36 -37 -38 -39 51 -41 52 -43 -44 -45 -46 -47 58 -49 -50 -51 -52 -53 -54 -55 -56 -57 -58 -59 -60 -61 -62 -63
leaf_value=-0.20722772217222621 -0.030340954524528403 0.075740884850884593 -0.11884213294113539 0.17505392419795196 -0.16294674858919933 -0.040059525923768304 0.2504420396758289 0.18962650179862978 0.047803528173887111 0.11491303084926173 0.24395395748469295 0.058089049631567927 0.19039039604635125 0.33431052276066375 -0.027657206424101743 -0.085215323220325434 0.26616492008758807 -0.14822350528280615 0.099379061403519972 0.30225705480575565 0.039503036650672459 0.14664280589567411 0.22299433725220819 -0.090891274583490597 0.004748699441837494 0.38656217546174021 0.32831706116276405 -0.021687083180808902 -0.18434177690250861 0.34388013567243303 0.20577779930570853 0.22338956117630007 -0.04288379572009525 0.13140476642140916 -0.101155001380641 0.19129176546887655 0.24203039854764941 0.084410318289883435 0.080345366699621085 0.22327243707009725 0.26891064234077933 0.36354201090963267 -0.14173595756292343 0.058008801698684699 0.13638026093443234 -0.063695938854005332 0.14399807853624225 0.26490327725976204 -0.091169919701647173 0.27883762518564859 -0.1225403564272767 0.12528096478771081 0.31428367740967694 0.01174218103600045 -0.052027786356106678 0.43505852619806928 0.090809712650483113 0.0025807577417670136 0.18587077379226685 -0.072677005553245549 -0.0095507463492039181 0.038913023142958997
leaf_weight=560 55 43 181 96 413 53 41 70 154 44 98 118 83 35 105 79 59 118 136 50 232 109 70 158 102 33 62 170 471 35 46 35 104 157 157 82 56 116 40 56 64 38 304 50 72 191 64 59 121 30 193 55 34 39 79 42 57 118 35 125 54 44
leaf_count=560 55 43 181 96 413 53 41 70 154 44 98 118 83 35 105 79 59 118 136 50 232 109 70 158 102 33 62 170 471 35 46 35 104 157 157 82 56 116 40 56 64 38 304 50 72 191 64 59 121 30 193 55 34 39 79 42 57 118 35 125 54 44
internal_value=0 0.158878 -0.118163 0.232103 -0.167094 -0.0526467 0.275876 0.187234 0.0750127 0.106044 0.25005 0.0443488 0.160214 0.344383 -0.017796 -0.0774422 0.249769 -0.141272 0.0847035 0.284264 0.0192604 0.142091 0.215471 -0.0907354 0.00779682 0.388453 0.297318 -0.0428005 -0.196773 0.295101 0.160017 0.218205 -0.0500565 0.119437 -0.121842 0.165811 0.211195 0.0635309 0.0819812 0.192819 0.264303 0.328721 -0.153954 0.026005 0.112187 -0.0760079 0.145297 0.242162 -0.107755 0.248981 -0.132285 0.106361 0.284652 -0.0169865 -0.0686216 0.41372 0.0687466 -0.00788568 0.158802 -0.0629651 -0.0314915 0.0150448
internal_weight=0 2879 3871 1537 2216 1655 778 759 1342 667 565 675 530 213 688 967 229 1185 478 284 405 391 281 651 340 110 103 348 1031 94 189 135 316 200 468 191 139 270 270 152 196 88 717 196 208 349 143 129 302 65 311 95 98 144 158 75 175 173 99 178 158 146
internal_count=6750 2879 3871 1537 2216 1655 778 759 1342 667 565 675 530 213 688 967 229 1185 478 284 405 391 281 651 340 110 103 348 1031 94 189 135 316 200 468 191 139 270 270 152 196 88 717 196 208 349 143 129 302 65 311 95 98 144 158 75 175 173 99 178 158 146
is_linear=0
shrinkage=0.2


Tree=2
num_leaves=63
num_cat=0
split_feature=0 0 0 8 0 0 8 2 2 0 0 8 6 8 2 2 2 0 2 0 8 2 2 0 0 6 2 2 0 0 8 2 8 3 8 0 0 8 8 2 0 0 0 2 2 8 2 8 3 8 8 2 8 8 8 8 0 8 2 0 8 0
split_gain=2031.89 252.923 228.579 41.0242 38.9696 26.8551 26.5816 23.0276 13.7729 13.7669 10.2538 9.30086 7.81869 7.58925 7.19154 5.63943 5.01731 4.82639 4.76052 4.55043 4.14998 3.74403 3.69308 3.50433 3.2348 2.71558 2.50889 2.46321 2.08723 1.99371 1.96464 1.85564 1.77493 1.75579 1.62202 1.54819 1.38762 1.33559 1.31269 1.2788 1.27314 1.23895 1.10704 1.10695 1.10394 1.08583 1.00884 0.97952 0.912593 0.907837 0.887806 0.878659 0.842266 0.771795 0.714256 0.699476 0.671888 0.652868 0.618853 0.598672 0.593681 0.589663
threshold=18.500000000000004 11.500000000000002 24.500000000000004 46.500000000000007 6.5000000000000009 15.500000000000002 48.500000000000007 108.50000000000001 107.50000000000001 21.500000000000004 21.500000000000004 48.500000000000007 1.0000000180025095e-35 45.500000000000007 103.50000000000001 101.50000000000001 88.500000000000014 26.500000000000004 103.50000000000001 4.5000000000000009 70.500000000000014 99.500000000000014 91.500000000000014 28.500000000000004 27.500000000000004 1.0000000180025095e-35 99.500000000000014 89.500000000000014 13.500000000000002 27.500000000000004 35.500000000000007 94.500000000000014 45.500000000000007 5.5000000000000009 31.500000000000004 28.500000000000004 9.5000000000000018 27.500000000000004 34.500000000000007 99.500000000000014 13.500000000000002 26.500000000000004 2.5000000000000004 95.500000000000014 91.500000000000014 33.500000000000007 102.50000000000001 64.500000000000014 5.5000000000000009 32.500000000000007 55.500000000000007 98.500000000000014 31.500000000000004 32.500000000000007 69.500000000000014 33.500000000000007 22.500000000000004 31.500000000000004 100.50000000000001 27.500000000000004 61.500000000000007 8.5000000000000018
decision_type=2 2 2 2 2 2 2 2 2 2 2 2 2 2 2 2 2 2 2 2 2 2 2 2 2 2 2 2 2 2 2 2 2 2 2 2 2 2 2 2 2 2 2 2 2 2 2 2 2 2 2 2 2 2 2 2 2 2 2 2 2 2
left_child=1 4 6 7 19 13 9 14 20 21 26 22 24 27 39 43 32 -9 -12 42 29 53 -7 37 -10 -20 -8 -3 -15 46 -18 -13 -6 60 51 -19 -32 -16 -17 -4 -29 -14 -1 -11 -30 -23 -5 -43 -33 -37 -21 -24 -41 -2 -46 -45 -40 -42 -36 -22 -28 -34
right_child=2 5 3 8 16 11 10 17 12 15 18 31 41 28 23 38 30 35 25 50 59 45 34 -25 -26 -27 33 40 44 -31 36 48 61 -35 58 49 -38 -39 56 52 57 47 -44 55 54 -47 -48 -49 -50 -51 -52 -53 -54 -55 -56 -57 -58 -59 -60 -61 -62 -63
leaf_value=-0.17111405651868303 0.0019832292786584453 -0.089523989176964983 0.08640665323645981 0.1574384501245287 -0.12571396407385366 -0.052399578256285696 0.062421980197541416 0.17101800717958593 0.21096321772783996 0.026086489307797618 0.12187491003557933 0.0053643946488591615 0.28015287717183435 -0.041628490936607872 0.13222434322039286 0.090943138624596243 -0.10273836948347431 0.20945964341211801 0.14943515292385168 -0.14328458807310385 0.23495100804737637 0.039740710712794683 -0.030747271591153383 0.20058346012948267 0.27678359448909762 0.21475771406422492 0.07157729108159136 -0.066812172020232777 -0.033033900387254699 0.22454043865203857 -0.093702853809703487 0.035806468101368553 -0.1120425229271253 0.13924211801552192 0.00044872547628535585 0.22919744451840721 -0.068539206568091954 0.16305592747835013 0.095615612883721626 0.10761987321280145 -0.054571715529817037 0.30902387003103893 -0.15592701819635207 0.052668939442373809 -0.0089237467276843934 0.067032027750142983 0.19432444777981989 0.35302067177636287 0.067371950395206048 0.26493231438575909 -0.12478354915573792 -0.0012653520037061894 0.13822337457111905 0.02646809809786432 0.026520287853976095 0.080483735510797225 0.13048659323097825 -0.033609116261747361 0.026612895665861364 0.27249911987420283 0.10349850428325158 -0.09043990389296884
leaf_weight=327 104 111 54 45 329 83 96 82 64 36 139 64 30 176 99 136 282 99 57 347 35 144 107 71 56 46 41 246 62 65 165 124 108 41 138 72 187 130 31 74 156 48 465 80 94 98 87 35 52 47 148 65 70 102 30 66 77 96 49 33 54 95
leaf_count=327 104 111 54 45 329 83 96 82 64 36 139 64 30 176 99 136 282 99 57 347 35 144 107 71 56 46 41 246 62 65 165 124 108 41 138 72 187 130 31 74 156 48 465 80 94 98 87 35 52 47 148 65 70 102 30 66 77 96 49 33 54 95
internal_value=0 -0.088054 0.136743 0.196717 -0.128802 -0.0275858 0.0790834 0.168607 0.241761 0.0584007 0.11722 0.00283174 0.277232 -0.0489501 0.142238 0.0841417 -0.102318 0.21238 0.146022 -0.152796 0.210573 0.0339237 -0.0143788 0.161763 0.241679 0.178608 0.0871768 -0.0625823 -0.0260164 0.195868 -0.0902997 0.0345278 -0.11664 0.104651 -0.00558844 0.227938 -0.0803347 0.149727 0.104016 0.112654 -0.0565772 0.314986 -0.162197 0.0574976 -0.0112437 0.0507926 0.18175 0.327577 0.0451326 0.243311 -0.137753 -0.0196058 0.122497 0.0141068 -0.000348577 0.0652428 0.120477 -0.046586 0.00730458 0.253173 0.089722 -0.101933
internal_weight=0 4106 2644 1296 2453 1653 1348 798 498 874 474 682 233 971 498 426 1166 300 242 1287 265 448 442 300 120 103 232 609 362 197 634 240 532 136 359 218 352 229 244 198 498 113 792 182 186 242 132 83 176 119 495 172 144 206 124 146 108 252 187 68 95 203
internal_count=6750 4106 2644 1296 2453 1653 1348 798 498 874 474 682 233 971 498 426 1166 300 242 1287 265 448 442 300 120 103 232 609 362 197 634 240 532 136 359 218 352 229 244 198 498 113 792 182 186 242 132 83 176 119 495 172 144 206 124 146 108 252 187 68 95 203
is_linear=0
shrinkage=0.2


Tree=3
num_leaves=63
num_cat=0
split_feature=0 0 0 2 0 0 0 0 7 2 2 2 2 0 2 0 2 2 2 0 2 0 0 0 2 2 2 0 0 0 2 2 2 2 0 7 2 0 0 7 0 7 0 0 0 2 0 7 2 7 1 1 4 0 0 2 0 7 1 1 7 7
split_gain=1301.41 181.832 128.951 33.1833 20.2369 14.0687 13.2528 11.6811 6.71014 5.25523 4.86285 4.27443 3.69654 3.51423 3.32301 3.27345 3.09701 2.27938 1.83883 1.46409 1.42349 1.42306 1.38968 1.34521 1.24557 1.15307 1.15246 1.11162 1.07383 1.0567 1.00707 0.969841 0.930271 0.732573 0.730507 0.674268 0.594663 0.591103 0.565364 0.550777 0.535527 0.519521 0.490341 0.449747 0.441416 0.433027 0.430851 0.425673 0.424258 0.392529 0.385083 0.38214 0.364057 0.361825 0.357348 0.347095 0.344857 0.335409 0.333483 0.324802 0.32436 0.289313
threshold=17.500000000000004 23.500000000000004 9.5000000000000018 108.50000000000001 13.500000000000002 26.500000000000004 20.500000000000004 5.5000000000000009 1.0000000180025095e-35 103.50000000000001 96.500000000000014 97.500000000000014 101.50000000000001 26.500000000000004 104.50000000000001 26.500000000000004 94.500000000000014 111.50000000000001 84.500000000000014 28.500000000000004 97.500000000000014 16.500000000000004 2.5000000000000004 27.500000000000004 88.500000000000014 86.500000000000014 107.50000000000001 7.5000000000000009 25.500000000000004 16.500000000000004 97.500000000000014 115.50000000000001 91.500000000000014 104.50000000000001 21.500000000000004 1.0000000180025095e-35 81.500000000000014 28.500000000000004 12.500000000000002 1.0000000180025095e-35 11.500000000000002 1.0000000180025095e-35 14.500000000000002 19.500000000000004 19.500000000000004 103.50000000000001 22.500000000000004 1.0000000180025095e-35 114.50000000000001 1.0000000180025095e-35 105.00000000000001 104.30000000000003 4.5000000000000009 28.500000000000004 25.500000000000004 100.50000000000001 4.5000000000000009 1.0000000180025095e-35 104.10000000000001 105.00000000000001 1.0000000180025095e-35 1.0000000180025095e-35
decision_type=2 2 2 2 2 2 2 2 2 2 2 2 2 2 2 2 2 2 2 2 2 2 2 2 2 2 2 2 2 2 2 2 2 2 2 2 2 2 2 2 2 2 2 2 2 2 2 2 2 2 2 2 2 2 2 2 2 2 2 2 2 2
left_child=2 6 7 5 16 12 11 22 13 20 24 32 30 -5 23 54 25 37 57 39 46 45 -1 -7 49 41 59 -20 47 42 -3 53 -2 43 50 -28 -24 -15 -18 -16 -27 -4 -26 -13 -34 -12 -8 -14 -19 -6 -22 -44 -25 -17 -10 -23 -38 -9 -42 -11 -21 -60
right_child=1 3 4 8 10 14 9 18 15 26 21 33 28 17 19 31 38 48 27 60 34 55 36 52 29 40 35 -29 -30 -31 -32 -33 44 -35 -36 -37 56 -39 -40 -41 58 -43 51 -45 -46 -47 -48 -49 -50 -51 -52 -53 -54 -55 -56 -57 -58 -59 61 -61 -62 -63
leaf_value=-0.13689124832094993 -0.018182657956995807 0.059177115676449801 -0.095411072716568457 0.1798609439362871 -0.062036634886559722 0.1114718966294026 0.031123621747068758 -0.11653386599877302 0.12127081427885139 0.091424943642182788 -0.011359191012599966 0.03091643088790328 0.11800140634936802 0.18751175959904989 0.1677875803653584 0.1648281108688664 -0.04801385649314463 0.23832779876769539 -0.098512667888089239 0.19843654812506911 0.060719504760345447 0.0088772163555404411 -0.13024473759928362 0.16079348537656998 -0.039381166051832901 -0.06810628473893672 0.12607378158718349 -0.082414502670856135 0.1314482639163313 -0.0047383013154930348 0.09230359903472754 0.2135762522297521 0.0085536466095125271 0.057421804856593643 0.070973408134854116 0.091374351226148162 -0.12137644242343484 0.22189497881465489 -0.029610025174546951 0.14433714207013448 -0.04853592342210572 -0.070845154921213779 -0.014253289157427296 0.046448172463181746 0.028448835932878686 0.012677525534693685 0.055137146593526358 0.10108435298005741 0.2657911607197353 -0.037179654119191351 0.037294244509190326 -0.030209242690264461 0.13786184108919569 0.18488648022924151 0.14808749471391952 0.030649702453606383 -0.11046612586948899 -0.10221154808052002 -0.07247900275453445 0.072416881801961347 0.1754832957101905 -0.052250251689782513
leaf_weight=327 43 51 66 94 48 69 98 136 46 66 209 197 118 45 86 74 197 63 323 53 64 64 203 45 124 276 48 366 142 88 131 31 166 88 177 42 319 36 101 75 134 72 98 120 61 35 43 120 35 54 50 155 72 70 35 54 182 126 62 79 46 52
leaf_count=327 43 51 66 94 48 69 98 136 46 66 209 197 118 45 86 74 197 63 323 53 64 64 203 45 124 276 48 366 142 88 131 31 166 88 177 42 319 36 101 75 134 72 98 120 61 35 43 120 35 54 50 155 72 70 35 54 182 126 62 79 46 52
internal_value=0 0.10183 -0.0757347 0.148796 -0.0383437 0.127507 0.0480396 -0.111371 0.189362 0.0680334 -0.0173004 0.0282828 0.106459 0.211174 0.154031 0.1661 -0.0587075 0.227618 -0.0953844 0.168632 0.05494 0.000809028 -0.126117 0.13362 -0.0288623 -0.0663291 0.0921032 -0.0899612 0.117684 -0.024472 0.0830209 0.181487 0.00879048 0.0412776 0.0629315 0.109881 -0.121113 0.202793 -0.0417763 0.156863 -0.0620455 -0.0825941 -0.0290783 0.036796 0.0138999 -0.0079113 0.0384469 0.109472 0.248136 -0.0488771 0.0504453 -0.0240287 0.146682 0.174579 0.132858 0.0188409 -0.117413 -0.109646 -0.0553005 0.0810688 0.187771 -0.0632519
internal_weight=0 2879 3871 1537 1889 1008 1342 1982 529 667 929 675 562 273 446 256 960 179 951 260 432 362 1031 186 567 662 235 689 380 465 182 175 270 405 291 90 704 81 298 161 524 138 377 317 227 244 141 238 98 102 114 253 117 144 81 118 501 262 248 145 99 114
internal_count=6750 2879 3871 1537 1889 1008 1342 1982 529 667 929 675 562 273 446 256 960 179 951 260 432 362 1031 186 567 662 235 689 380 465 182 175 270 405 291 90 704 81 298 161 524 138 377 317 227 244 141 238 98 102 114 253 117 144 81 118 501 262 248 145 99 114
is_linear=0
shrinkage=0.2


Tree=4
num_leaves=63
num_cat=0
split_feature=0 0 0 0 0 0 0 6 0 6 0 3 0 3 0 3 0 0 4 0 1 3 0 6 0 1 6 6 3 0 4 1 0 0 0 1 1 0 1 4 1 6 4 6 6 0 0 0 0 1 0 1 0 1 0 4 4 3 0 0 1 0
split_gain=833.045 103.982 94.6712 16.9493 15.2692 11.403 7.27127 3.33138 3.29306 2.87736 2.43707 1.83703 1.80411 1.75688 1.59537 1.20874 0.999184 0.88447 0.845914 0.801247 0.759418 0.744231 0.694363 0.643573 0.620336 0.536097 0.507871 0.503771 0.403764 0.389699 0.359841 0.359738 0.357146 0.331839 0.322966 0.314948 0.314822 0.336597 0.310034 0.308787 0.295011 0.294461 0.293451 0.279594 0.273464 0.263723 0.257681 0.226824 0.218238 0.202196 0.197244 0.191917 0.18177 0.172199 0.168346 0.166045 0.165347 0.164987 0.161187 0.151361 0.149758 0.145894
threshold=18.500000000000004 10.500000000000002 25.500000000000004 22.500000000000004 15.500000000000002 6.5000000000000009 28.500000000000004 1.0000000180025095e-35 12.500000000000002 1.0000000180025095e-35 20.500000000000004 5.5000000000000009 3.5000000000000004 5.5000000000000009 16.500000000000004 5.5000000000000009 8.5000000000000018 27.500000000000004 4.5000000000000009 23.500000000000004 104.30000000000003 5.5000000000000009 29.500000000000004 1.0000000180025095e-35 13.500000000000002 105.2 1.0000000180025095e-35 1.0000000180025095e-35 5.5000000000000009 21.500000000000004 6.5000000000000009 105.00000000000001 26.500000000000004 1.5000000000000002 4.5000000000000009 105.00000000000001 104.80000000000003 24.500000000000004 103.7 5.5000000000000009 104.80000000000003 1.0000000180025095e-35 8.5000000000000018 1.0000000180025095e-35 1.0000000180025095e-35 9.5000000000000018 27.500000000000004 19.500000000000004 23.500000000000004 105.50000000000001 13.500000000000002 104.80000000000003 7.5000000000000009 105.35000000000001 11.500000000000002 8.5000000000000018 6.5000000000000009 5.5000000000000009 19.500000000000004 19.500000000000004 105.35000000000001 21.500000000000004
decision_type=2 2 2 2 2 2 2 2 2 2 2 2 2 2 2 2 2 2 2 2 2 2 2 2 2 2 2 2 2 2 2 2 2 2 2 2 2 2 2 2 2 2 2 2 2 2 2 2 2 2 2 2 2 2 2 2 2 2 2 2 2 2
left_child=1 5 3 10 8 12 7 17 38 19 27 32 33 22 41 48 52 25 -17 -5 24 61 44 -15 -10 -4 51 31 58 35 -24 47 -9 -1 -14 -23 -21 39 57 60 -28 -6 -34 -26 49 -18 -13 -2 -11 -8 -22 -16 -7 -19 -40 -52 -45 -3 -29 -33 -38 -12
right_child=2 4 6 9 14 16 13 11 20 15 21 46 34 23 26 18 45 53 -20 36 50 29 30 -25 43 -27 40 28 -30 -31 -32 59 42 -35 -36 -37 37 -39 54 -41 -42 -43 -44 56 -46 -47 -48 -49 -50 -51 55 -53 -54 -55 -56 -57 -58 -59 -60 -61 -62 -63
leaf_value=-0.11662993101846604 0.021033121878630483 -0.044296841368486641 0.1228270476254133 0.058293896675238321 -0.017129286340606432 -0.079635070156457738 0.1436878212120222 0.11050116542872845 -0.030071502253818123 0.069481180326358694 0.039126450970860913 0.1506376220654416 -0.097548731878913691 0.15664879815919061 0.0073668077605512534 0.10060787331877333 -0.06712558422333155 0.13186986436278134 0.13640853899220626 0.094510991959010859 -0.043331997125299976 0.062897571490341156 0.14677109090905441 0.18963600086839233 -0.020216814447810091 0.10027614802105411 0.022996590891852978 0.01844754443005767 0.046927136293600631 0.072674818625373228 0.17217440627239369 0.0021729900404655685 0.11876076073494068 -0.10415645808963986 -0.088505394561122164 0.037345356322558865 0.083090135940285623 0.081064311946358755 -0.056753600008196119 0.055960589021058951 0.0051491598158867821 -0.0020746105037238679 0.14081516201523217 -0.011892338161571668 0.15320284555598004 -0.057630238311094609 0.1698342724144459 0.034872938535279695 0.08825154848893485 0.12579235137174172 -0.028005146285789592 -0.0035964525268729966 -0.071685565927376349 0.11821995552140052 -0.047614829020070221 -0.039108906328482067 0.0051581644652677443 -0.029289221121488435 0.0362031516738427 0.018978161878339103 0.064854296549193322 0.047782554740707084
leaf_weight=105 100 128 52 145 145 221 46 51 161 37 162 93 232 35 187 99 234 59 36 34 68 43 38 73 121 223 118 43 79 62 54 36 43 455 495 35 43 136 139 58 54 81 55 65 41 234 40 90 75 56 185 97 240 99 192 76 35 38 39 53 31 150
leaf_count=105 100 128 52 145 145 221 46 51 161 37 162 93 232 35 187 99 234 59 36 34 68 43 38 73 121 223 118 43 79 62 54 36 43 455 495 35 43 136 139 58 54 81 55 65 41 234 40 90 75 56 185 97 240 99 192 76 35 38 39 53 31 150
internal_value=0 -0.0563811 0.087557 0.056647 -0.0219181 -0.0857742 0.133893 0.122409 -0.0354253 0.080087 0.03841 0.139325 -0.0979633 0.157831 0.00200674 0.0974112 -0.0688878 0.111392 0.110155 0.0705141 -0.0266948 0.0487243 0.148128 0.178946 -0.0206288 0.10454 0.00881664 0.0278144 0.0367231 0.0608394 0.161682 0.0226736 0.124075 -0.106495 -0.0913913 0.0514318 0.0763814 0.0740814 -0.0479151 0.0668869 0.0173933 -0.0117336 0.131138 -0.0137498 0.139408 -0.0623779 0.156411 0.0275888 0.0820506 0.133863 -0.033738 0.00362231 -0.0754965 0.123317 -0.0514526 -0.0312384 -0.00592466 -0.0408614 0.0268923 0.0121806 0.0754508 0.043288
internal_weight=0 4106 2644 1586 1890 2216 1058 715 1208 694 892 282 1287 343 682 247 929 433 135 447 711 452 235 108 382 275 456 440 161 140 92 279 149 560 727 78 302 268 497 132 172 226 98 221 143 468 133 190 112 102 329 284 461 158 331 261 100 166 82 89 74 312
internal_count=6750 4106 2644 1586 1890 2216 1058 715 1208 694 892 282 1287 343 682 247 929 433 135 447 711 452 235 108 382 275 456 440 161 140 92 279 149 560 727 78 302 268 497 132 172 226 98 221 143 468 133 190 112 102 329 284 461 158 331 261 100 166 82 89 74 312
is_linear=0
shrinkage=0.2


Tree=5
num_leaves=63
num_cat=0
split_feature=0 0 0 0 0 0 0 5 5 5 5 0 0 4 0 0 0 0 5 0 5 4 0 0 5 0 0 0 5 5 5 5 5 6 5 5 6 5 5 5 5 6 5 5 6 5 5 5 6 5 4 0 4 0 5 5 4 6 0 4 4 5
split_gain=534.401 74.9424 52.5361 9.72766 8.13074 8.08007 4.90338 3.67352 3.22042 2.53371 1.68703 1.38606 1.38488 1.2688 0.943056 0.932761 0.907495 0.765531 0.736282 0.681854 0.665879 1.10491 0.594894 0.535321 0.510276 0.440312 0.423254 0.398351 0.362175 0.349774 0.31746 0.315446 0.296777 0.448727 0.288162 0.279959 0.278762 0.545147 0.375806 0.257871 0.248403 0.238357 0.23542 0.230818 0.291199 0.224666 0.215741 0.199444 0.195977 0.341557 0.179589 0.174983 0.170413 0.180271 0.169662 0.368471 0.163747 0.346735 0.162757 0.148015 0.159696 0.14727
threshold=17.500000000000004 24.500000000000004 9.5000000000000018 21.500000000000004 13.500000000000002 27.500000000000004 5.5000000000000009 188.50000000000003 188.50000000000003 197.30000000000004 206.10000000000002 16.500000000000004 19.500000000000004 7.5000000000000009 11.500000000000002 29.500000000000004 25.500000000000004 25.500000000000004 214.95000000000002 7.5000000000000009 219.40000000000003 2.5000000000000004 2.5000000000000004 23.500000000000004 146.60000000000002 14.500000000000002 22.500000000000004 18.500000000000004 197.30000000000004 210.50000000000003 155.40000000000003 208.30000000000004 144.40000000000003 1.0000000180025095e-35 142.20000000000002 203.90000000000003 1.0000000180025095e-35 153.20000000000002 166.45000000000002 148.80000000000004 159.80000000000004 1.0000000180025095e-35 221.60000000000002 126.80000000000003 1.0000000180025095e-35 140.00000000000003 210.50000000000003 173.10000000000002 1.0000000180025095e-35 129.00000000000003 6.5000000000000009 12.500000000000002 5.5000000000000009 22.500000000000004 146.60000000000002 184.10000000000002 9.5000000000000018 1.0000000180025095e-35 4.5000000000000009 6.5000000000000009 9.5000000000000018 195.10000000000002
decision_type=2 2 2 2 2 2 2 2 2 2 2 2 2 2 2 2 2 2 2 2 2 2 2 2 2 2 2 2 2 2 2 2 2 2 2 2 2 2 2 2 2 2 2 2 2 2 2 2 2 2 2 2 2 2 2 2 2 2 2 2 2 2
left_child=2 3 6 10 14 7 22 17 15 23 12 18 24 16 31 36 -9 30 25 -8 21 -10 -1 43 -2 -6 -11 -12 -13 34 -3 40 -27 -34 -16 -18 37 -7 -38 -19 -4 -26 -29 -5 52 -21 -23 -32 49 -25 -17 -36 -45 -54 -14 59 57 -41 -24 -56 -61 -57
right_child=1 5 4 9 11 8 19 13 20 26 27 28 54 -15 29 50 35 39 -20 45 -22 46 58 48 41 32 -28 42 -30 -31 47 -33 33 -35 51 -37 38 -39 -40 56 -42 -43 -44 44 -46 -47 -48 -49 -50 -51 -52 -53 53 -55 55 61 -58 -59 -60 60 -62 -63
leaf_value=-0.087880657444671037 0.019397984836632534 0.073360999357842266 -0.040891118746408273 0.055284723563719607 -0.025000786436337193 0.1073840249455377 -0.066258238430917896 0.082272781154116334 0.16495870516488428 0.062800331693142655 0.025652212093529459 -0.0022725454780057343 0.032433026347581932 0.1467887552515153 -0.025306426317885867 0.11785440766675906 0.10365254836423057 0.088954214992061742 0.0046428043051407889 -0.04868322216412601 0.16999937375386556 0.11570467709326278 -0.079737493927760805 0.071275811574675815 -0.0010038396603492805 -0.0058943903852195952 0.087656982440030451 0.042499888219215257 0.016234039825697742 -0.015745260207240434 0.045312658854361094 -0.028594975829279674 -0.02455944647862119 -0.008956130469639046 -0.041123712891192175 0.12403204581485346 0.09734577786396531 0.087242077832872231 0.12374480755652412 0.073101494060968289 -0.050584592392191374 0.012005834796465935 0.063047294210838642 0.043669638193576887 0.050842089469103971 -0.0583095260779029 0.13665425833314657 0.067341795335373572 0.068595151178435329 0.048051882709521765 0.13537394851446152 -0.031596560485156043 0.023454268584744292 0.039671377439437244 0.0073724584813628889 0.045143064333953792 0.069898965168800772 0.09537148370873183 -0.073315635186358974 0.027861151508019346 0.013674810179509223 0.026788425314075812
leaf_weight=327 160 105 213 59 218 178 477 57 38 40 34 164 164 31 129 44 56 155 65 136 30 51 465 33 129 128 87 54 57 51 35 48 161 136 161 52 34 77 59 67 210 100 38 92 93 338 32 31 45 109 50 148 52 58 35 36 66 48 239 77 54 34
leaf_count=327 160 105 213 59 218 178 477 57 38 40 34 164 164 31 129 44 56 155 65 136 30 51 465 33 129 128 87 54 57 51 35 48 161 136 161 52 34 77 59 67 210 100 38 92 93 338 32 31 45 109 50 148 52 58 35 36 66 48 239 77 54 34
internal_value=0 0.0652533 -0.0485312 0.0360565 -0.024665 0.100916 -0.0712775 0.0864118 0.11811 0.0544057 0.0226606 -0.0113265 0.0192288 0.109664 -0.0375728 0.109495 0.102689 0.0774227 -0.0156426 -0.0609198 0.143326 0.136713 -0.0808316 0.0484377 0.010732 -0.0176932 0.0798281 0.0441505 0.00250065 -0.0314207 0.0665289 -0.0439599 -0.0139449 -0.0174145 -0.033246 0.113465 0.10472 0.101302 0.114094 0.0829669 -0.0457035 0.00467724 0.0509869 0.0438652 0.0415813 -0.0555475 0.123782 0.0556597 0.0570938 0.053449 0.127173 -0.0365605 0.0373177 0.0320051 0.0274919 0.0240582 0.0778396 0.0823968 -0.0775573 0.0189264 0.0220133 0.036228
internal_weight=0 2879 3871 1583 1889 1296 1982 703 593 668 915 929 789 196 960 442 165 507 708 951 151 121 1031 541 389 643 127 126 221 489 171 471 425 297 438 108 348 255 93 336 423 229 92 354 295 474 83 66 187 142 94 309 202 110 400 236 181 115 704 166 131 70
internal_count=6750 2879 3871 1583 1889 1296 1982 703 593 668 915 929 789 196 960 442 165 507 708 951 151 121 1031 541 389 643 127 126 221 489 171 471 425 297 438 108 348 255 93 336 423 229 92 354 295 474 83 66 187 142 94 309 202 110 400 236 181 115 704 166 131 70
is_linear=0
shrinkage=0.2


Tree=6
num_leaves=63
num_cat=0
split_feature=2 2 2 2 1 2 1 1 5 5 2 1 2 2 1 5 5 2 2 1 1 2 2 2 5 1 2 5 1 5 6 5 1 5 1 5 1 6 6 5 6 2 5 5 5 2 6 5 2 2 1 5 2 5 5 4 5 1 2 2 6 1
split_gain=329.74 42.2839 41.2054 7.66317 7.53293 6.77324 5.43771 2.67591 2.35285 1.79609 1.69095 1.62199 1.57688 1.41924 1.04 0.933311 0.91675 0.826566 0.808304 0.662528 0.655347 0.609958 0.550558 0.512258 0.49384 0.482048 0.46896 0.452787 0.439512 0.417055 0.485448 0.401085 0.382013 0.570228 0.377536 0.358035 0.353577 0.353376 0.345863 0.393512 0.307109 0.30041 0.281012 0.271757 0.260165 0.241406 0.231948 0.315637 0.228663 0.221042 0.211731 0.210782 0.20651 0.200243 0.197187 0.282835 0.191523 0.176206 0.172706 0.17141 0.169577 0.168285
threshold=98.500000000000014 106.50000000000001 91.500000000000014 102.50000000000001 103.2 111.50000000000001 104.30000000000003 104.60000000000001 179.70000000000002 188.50000000000003 86.500000000000014 104.80000000000003 95.500000000000014 82.500000000000014 103.2 210.50000000000003 186.30000000000004 104.50000000000001 109.50000000000001 101.90000000000002 103.90000000000002 113.50000000000001 94.500000000000014 115.50000000000001 140.00000000000003 105.50000000000001 100.50000000000001 142.20000000000002 105.2 131.20000000000002 1.0000000180025095e-35 208.30000000000004 103.90000000000002 133.40000000000003 105.2 199.50000000000003 105.2 1.0000000180025095e-35 1.0000000180025095e-35 137.80000000000004 1.0000000180025095e-35 108.50000000000001 151.00000000000003 201.70000000000002 206.10000000000002 94.500000000000014 1.0000000180025095e-35 126.80000000000003 78.500000000000014 87.500000000000014 101.90000000000002 186.30000000000004 81.500000000000014 131.20000000000002 206.10000000000002 2.5000000000000004 148.80000000000004 105.7 100.50000000000001 100.50000000000001 1.0000000180025095e-35 105.2
decision_type=2 2 2 2 2 2 2 2 2 2 2 2 2 2 2 2 2 2 2 2 2 2 2 2 2 2 2 2 2 2 2 2 2 2 2 2 2 2 2 2 2 2 2 2 2 2 2 2 2 2 2 2 2 2 2 2 2 2 2 2 2 2
left_child=2 3 4 7 13 8 14 20 34 23 27 38 28 48 50 17 24 57 25 -15 -2 -11 -16 60 36 54 -18 -6 42 -14 56 -24 -12 -34 41 -35 -9 -22 39 -5 53 -3 -8 -20 -32 -44 47 -36 -1 -21 -4 -39 -29 -19 55 -10 -31 -13 -26 -38 -7 -55
right_child=1 5 6 11 10 9 12 16 18 21 32 15 29 19 22 -17 26 40 43 49 37 -23 31 -25 58 -27 -28 52 -30 30 44 -33 33 35 46 -37 59 51 -40 -41 -42 -43 45 -45 -46 -47 -48 -49 -50 -51 -52 -53 -54 61 -56 -57 -58 -59 -60 -61 -62 -63
leaf_value=-0.07491268362317767 -0.010081581456405628 0.05236183684319258 -0.05236700445413589 0.042581724331892556 -0.039226605179054401 0.0941381992065701 -0.0041316918491334847 0.024555078232902792 0.059035182516607977 0.12072851570641124 -0.037944826895420419 0.042660576222280741 0.022776760447434048 -0.063308536844311161 -0.025148067991615994 0.078380493739476587 0.033103288244703745 0.067122082380538295 0.097904273569583894 -0.055310459706284433 0.0070401542180764031 0.154634088548747 -0.015527753104836929 0.12061119189968816 0.015581324688137922 0.10160823236124553 0.053359782521539695 -0.068157776817679414 0.0072849467659609453 0.0082963820725172471 0.0098487356502402548 0.008206189563497902 -0.011033505991485622 -0.035433432085835187 0.082512525607973841 -0.019037523686283215 0.033168315959628672 0.011973370288155582 0.045491649558146802 0.019241282939910891 0.070336700958105625 0.070987210284661637 -0.019962965964960555 0.12136661679937671 0.029137706486508253 -0.0056689052937039432 0.08564567657808464 0.065508336864600322 -0.066103456237474642 -0.047566549057316991 -0.033753350251495388 0.031911483437094532 -0.052317310965830283 0.041473541659347357 0.088806739297890402 0.083618676127531599 -0.0039581789137122948 0.057764080808394486 0.025832273207533247 0.05065686910541034 0.1092395791038871 0.056860708932138307
leaf_weight=175 63 86 30 47 105 116 146 77 36 41 302 218 72 331 298 65 94 47 40 368 151 44 259 54 133 49 89 40 62 79 93 32 63 246 59 68 40 38 75 75 89 58 150 39 40 69 45 168 361 246 132 48 186 42 43 39 144 36 130 51 40 88
leaf_count=175 63 86 30 47 105 116 146 77 36 41 302 218 72 331 298 65 94 47 40 368 151 44 259 54 133 49 89 40 62 79 93 32 63 246 59 68 40 38 75 75 89 58 150 39 40 69 45 168 361 246 132 48 186 42 43 39 144 36 130 51 40 88
internal_value=0 0.0549324 -0.0355713 0.0359657 -0.0516763 0.0885453 -0.0105915 0.0235305 0.0773133 0.11375 -0.0383582 0.0504999 0.000315373 -0.0607588 -0.0230089 0.0557856 0.0310948 0.0529612 0.0928185 -0.056096 0.00804888 0.13828 -0.0191056 0.103822 0.0260591 0.0849335 0.0429548 -0.0500789 -0.00828375 0.0088944 0.00608673 -0.0129178 -0.0326445 -0.0283986 0.0681444 -0.0318827 0.0345296 0.0128684 0.0348036 0.0282331 0.0607531 0.0598637 -0.0109283 0.109487 0.0156499 -0.0154594 0.0725283 0.0699279 -0.0689796 -0.0522079 -0.0372003 0.0231016 -0.0551209 0.0559343 0.0780092 0.0718186 0.000383123 0.0448012 0.0206483 0.0429696 0.0980103 0.0518895
internal_weight=0 2653 4097 1696 2491 957 1606 914 662 295 1010 782 855 1481 751 585 614 520 246 945 300 85 589 210 431 167 183 331 427 428 356 291 679 377 416 314 168 237 197 122 266 144 365 79 133 219 272 227 536 614 162 86 226 177 118 75 223 254 263 91 156 130
internal_count=6750 2653 4097 1696 2491 957 1606 914 662 295 1010 782 855 1481 751 585 614 520 246 945 300 85 589 210 431 167 183 331 427 428 356 291 679 377 416 314 168 237 197 122 266 144 365 79 133 219 272 227 536 614 162 86 226 177 118 75 223 254 263 91 156 130
is_linear=0
shrinkage=0.2


Tree=7
num_leaves=63
num_cat=0
split_feature=1 1 1 1 5 1 1 1 5 5 1 5 5 5 5 5 6 1 5 1 5 1 5 6 5 1 5 6 7 5 5 7 6 5 5 1 1 7 5 1 1 7 5 5 7 1 1 1 1 7 5 5 5 5 5 1 5 3 5 6 5 5
split_gain=182.407 19.556 18.2856 3.31827 2.97084 2.1598 1.81035 1.31076 0.893898 0.860244 0.850129 0.579877 0.569508 0.562693 0.79356 0.544746 0.8895 0.494361 0.460622 0.417088 0.352741 0.350779 0.344734 0.301307 0.444999 0.295933 0.293642 0.271851 0.248425 0.242343 0.240054 0.455952 0.320001 0.23628 0.232402 0.230093 0.229442 0.225638 0.623441 0.219352 0.218812 0.21265 0.222588 0.202272 0.191825 0.168324 0.163898 0.158367 0.155011 0.146877 0.145288 0.32261 0.144525 0.127981 0.126492 0.134797 0.12319 0.121609 0.121447 0.117712 0.116437 0.116725
threshold=104.45000000000002 105.2 103.40000000000002 104.80000000000003 197.30000000000004 103.90000000000002 102.50000000000001 105.90000000000002 223.80000000000004 208.30000000000004 105.90000000000002 175.30000000000004 228.20000000000002 212.70000000000002 137.80000000000004 137.80000000000004 1.0000000180025095e-35 105.00000000000001 126.80000000000003 105.35000000000001 166.45000000000002 105.50000000000001 190.70000000000002 1.0000000180025095e-35 131.20000000000002 101.00000000000001 151.00000000000003 1.0000000180025095e-35 1.0000000180025095e-35 142.20000000000002 197.30000000000004 1.0000000180025095e-35 1.0000000180025095e-35 223.80000000000004 219.40000000000003 104.60000000000001 104.10000000000001 1.0000000180025095e-35 186.30000000000004 102.80000000000003 104.60000000000001 1.0000000180025095e-35 184.10000000000002 131.20000000000002 1.0000000180025095e-35 105.7 104.60000000000001 105.35000000000001 105.35000000000001 1.0000000180025095e-35 175.30000000000004 159.80000000000004 151.00000000000003 177.50000000000003 199.50000000000003 101.90000000000002 177.50000000000003 4.5000000000000009 214.95000000000002 1.0000000180025095e-35 142.20000000000002 188.50000000000003
decision_type=2 2 2 2 2 2 2 2 2 2 2 2 2 2 2 2 2 2 2 2 2 2 2 2 2 2 2 2 2 2 2 2 2 2 2 2 2 2 2 2 2 2 2 2 2 2 2 2 2 2 2 2 2 2 2 2 2 2 2 2 2 2
left_child=2 3 6 8 7 34 25 15 18 17 12 29 21 14 36 19 41 43 46 -3 -18 -6 26 24 -19 -1 -20 28 40 -9 31 32 56 58 37 -24 -7 38 -4 -8 -28 42 -17 -5 -26 -23 -2 -43 -22 54 51 -45 -33 -29 -27 -56 -16 -38 -11 -40 -41 -62
right_child=1 4 5 9 10 13 39 11 -10 33 -12 -13 -14 -15 30 16 20 23 22 -21 48 45 35 -25 44 49 27 53 -30 -31 -32 52 -34 -35 -36 -37 57 -39 59 60 -42 47 -44 50 -46 -47 -48 -49 -50 -51 -52 -53 -54 -55 55 -57 -58 -59 -60 -61 61 -63
leaf_value=-0.056269319292796854 0.013263943730371781 0.041822157772328478 -0.039161132984528585 0.02982808504263992 0.054599894798270224 -0.012165897271345157 -0.042685729368133057 0.068253517786904083 0.042308393798796744 0.04513675955878127 0.097878087618771731 0.085035640956499639 0.087818926220966709 0.0030770339052526093 -0.03621813373353619 0.024704798944294455 0.037793599209981044 0.039947842145721391 0.0097596917875542692 0.056292565389818965 0.045739897670333651 0.076129263167968031 0.0071332084305365294 0.038617782590966772 0.012336722405562483 -0.054557002392584965 -0.021584722432695949 0.01453769583932378 0.0025238309018941743 0.048370199323799767 -0.0071855948614212893 -0.0065008814283974209 -0.016634314925139473 0.057514397528332976 -0.0077894724719226359 0.021892841897594432 0.011006728910061337 -0.022444557408354365 -0.031378050203270773 -0.031400314773237632 -0.0016895239627579364 0.032349615364779379 0.04091935688629747 0.020528902335354361 0.025931205361938249 0.058363904850557452 0.028649979447594509 0.041997307796843034 0.056901514981750792 -0.045897689390234475 0.023649216083991263 0.0031378940351714847 -0.0161621090042172 0.00062888493925771297 -0.052357235506399362 -0.038711736248988736 -0.024167753142160429 -0.0013493358010872895 0.029184946715831758 -0.018058997876018532 -0.040614849794259736 -0.033200452314157795
leaf_weight=309 58 132 147 73 144 65 314 41 33 42 34 39 36 109 65 115 80 73 205 201 74 64 85 124 61 223 48 55 89 61 109 128 155 36 30 84 43 366 34 155 41 107 48 128 130 32 53 187 152 344 118 64 120 51 67 51 71 123 35 121 235 133
leaf_count=309 58 132 147 73 144 65 314 41 33 42 34 39 36 109 65 115 80 73 205 201 74 64 85 124 61 223 48 55 89 61 109 128 155 36 30 84 43 366 34 155 41 107 48 128 130 32 53 187 152 344 118 64 120 51 67 51 71 123 35 121 235 133
internal_value=0 0.0342912 -0.0315221 0.0193912 0.0505299 -0.0164937 -0.0453605 0.0461423 0.010076 0.0278424 0.0680375 0.0642934 0.0643615 -0.010477 -0.0121578 0.0438072 0.0408615 0.0254539 0.00869278 0.0505565 0.0492068 0.0608429 0.00668235 0.0304856 0.0266659 -0.0511313 0.00399114 -0.000172781 -0.00494784 0.0563625 -0.0157457 -0.0174768 -0.0228468 0.0441393 -0.0250101 0.0144694 -0.00209291 -0.0257835 -0.0298301 -0.0385072 -0.0124195 0.0352737 0.0294796 0.0203566 0.0215895 0.0702075 0.0206104 0.0384861 0.0532468 -0.0488135 0.0181262 0.0147319 -0.0111757 0.00784572 -0.051755 -0.0464596 -0.0299271 0.00185133 0.0378859 -0.0209806 -0.0359985 -0.0379352
internal_weight=0 3233 3517 1686 1547 1686 1831 1237 802 884 310 141 276 988 879 1096 763 771 769 333 306 240 658 388 264 994 489 284 178 102 648 539 291 113 698 169 231 668 302 837 89 457 163 383 191 96 111 294 226 685 310 192 248 106 341 118 136 166 77 155 523 368
internal_count=6750 3233 3517 1686 1547 1686 1831 1237 802 884 310 141 276 988 879 1096 763 771 769 333 306 240 658 388 264 994 489 284 178 102 648 539 291 113 698 169 231 668 302 837 89 457 163 383 191 96 111 294 226 685 310 192 248 106 341 118 136 166 77 155 523 368
is_linear=0
shrinkage=0.2


Tree=8
num_leaves=63
num_cat=0
split_feature=1 8 1 8 8 5 1 1 5 8 8 8 8 1 1 5 5 8 8 1 1 5 1 5 1 1 8 8 1 1 1 1 8 8 5 8 1 5 8 8 8 5 8 1 5 5 5 8 5 5 5 5 5 1 6 5 5 6 5 8 8 1
split_gain=116.74 39.6701 11.7028 9.72509 7.41882 5.90819 5.4596 3.73969 3.72132 2.21511 1.96927 1.82876 1.61601 1.61067 1.49636 1.45395 1.43754 0.954274 0.825135 0.814114 0.761913 0.664085 0.663015 0.645172 0.613123 0.609397 0.588611 0.554801 0.552797 0.508006 0.507589 0.471458 0.439516 0.38964 0.37987 0.369716 0.331681 0.312391 0.31015 0.29965 0.290667 0.273243 0.301325 0.262485 0.279923 0.249309 0.248135 0.252166 0.231014 0.207477 0.205104 0.190292 0.221778 0.187705 0.18523 0.256764 0.18353 0.174614 0.17002 0.153196 0.150782 0.15027
threshold=104.45000000000002 54.500000000000007 103.40000000000002 29.500000000000004 54.500000000000007 162.00000000000003 105.00000000000001 105.00000000000001 148.80000000000004 68.500000000000014 34.500000000000007 57.500000000000007 41.500000000000007 105.35000000000001 105.35000000000001 164.20000000000002 170.90000000000003 62.500000000000007 61.500000000000007 105.35000000000001 105.00000000000001 210.50000000000003 104.10000000000001 197.30000000000004 102.80000000000003 102.50000000000001 21.500000000000004 34.500000000000007 104.60000000000001 104.60000000000001 103.90000000000002 104.10000000000001 23.500000000000004 71.500000000000014 131.20000000000002 49.500000000000007 105.2 188.50000000000003 25.500000000000004 66.500000000000014 64.500000000000014 153.20000000000002 35.500000000000007 103.90000000000002 140.00000000000003 210.50000000000003 153.20000000000002 29.500000000000004 133.40000000000003 124.60000000000001 186.30000000000004 162.00000000000003 140.00000000000003 105.50000000000001 1.0000000180025095e-35 210.50000000000003 142.20000000000002 1.0000000180025095e-35 144.40000000000003 69.500000000000014 40.500000000000007 104.80000000000003
decision_type=2 2 2 2 2 2 2 2 2 2 2 2 2 2 2 2 2 2 2 2 2 2 2 2 2 2 2 2 2 2 2 2 2 2 2 2 2 2 2 2 2 2 2 2 2 2 2 2 2 2 2 2 2 2 2 2 2 2 2 2 2 2
left_child=2 3 11 8 10 14 27 17 20 21 15 24 36 32 28 43 22 -7 -18 35 -2 40 -6 -11 41 -13 -15 58 -3 -19 -20 -12 57 -16 -22 -14 -8 -31 -17 48 53 -1 -43 -4 -45 49 -26 -48 -30 -29 -27 52 -21 -9 -38 -56 -41 -10 -5 -24 -33 -34
right_child=1 5 4 6 16 7 12 9 13 23 31 25 19 26 33 38 18 29 30 51 34 -23 59 -25 46 50 -28 45 39 37 -32 60 61 -35 -36 -37 54 -39 -40 56 -42 42 -44 44 -46 -47 47 -49 -50 -51 -52 -53 -54 -55 55 -57 -58 -59 -60 -61 -62 -63
leaf_value=-0.038592684805024785 0.0032330059997328106 0.020446781018275587 -0.024895966090951807 0.0084025988139484718 -0.010197468687662147 0.034519170145985899 0.016881815221177432 0.060016997907009421 -0.022111407481384293 0.099496626269279256 -0.016980601451341094 -0.031854294635688007 0.028214825149552782 -0.018400100718230703 0.057147779824933222 -0.043727168014060847 0.0011719451057152792 0.045722014655226045 0.014777822751784698 0.054497765578950447 0.029839733109351275 0.10315461989605067 0.0053539083406761072 0.12797787759387702 -0.027378126008702177 -0.020860390201600833 0.008010315303698147 0.024842253642984563 0.047724340559066963 0.05825148311133186 0.039189671872761747 -0.011716431308617225 -0.020476574137990859 0.082733664545230567 0.012814887142786297 0.047463530109360302 0.032319269237214239 0.083880014410421547 -0.031818560169705627 0.043421588776717812 0.0866677427958501 -0.049464756566540979 -0.040238107542665505 -0.0071045152538026062 -0.022561816350069076 0.025262631934870466 -0.048036951554240662 -0.033259723852220251 0.028703056426240589 0.0088327618897711766 -0.0070116386341396719 0.057898753173649314 0.034046220446103496 0.077718363846715141 0.017862710891242483 0.039086822308599951 0.061789981151620543 -0.035390277826429714 -0.006982941040041624 0.02159858673810959 -0.00090243802055182173 -0.0093646025933997075
leaf_weight=455 157 61 162 41 142 58 111 68 93 72 313 209 128 43 93 158 57 35 56 48 109 33 69 57 175 129 157 36 39 30 87 82 81 32 101 58 261 52 196 55 38 304 265 106 84 52 64 166 74 322 64 115 38 37 95 30 36 69 96 35 139 122
leaf_count=455 157 61 162 41 142 58 111 68 93 72 313 209 128 43 93 158 57 35 56 48 109 33 69 57 175 129 157 36 39 30 87 82 81 32 101 58 261 52 196 55 38 304 265 106 84 52 64 166 74 322 64 115 38 37 95 30 36 69 96 35 139 122
internal_value=0 0.0274329 -0.0252177 0.0139902 -0.0131949 0.0639446 0.0243448 0.0788008 -0.00190831 0.0921728 -0.0211515 -0.0362884 0.0340624 -0.0120937 0.0456599 -0.0280832 0.00892644 0.0554954 0.0215193 0.0437529 0.0137723 0.0775808 -0.00131167 0.112081 -0.0396408 -0.0243714 0.00233208 0.00864035 0.0371515 0.0658938 0.0296298 -0.0119871 -0.0199983 0.0636978 0.0216516 0.0342171 0.0265166 0.0745037 -0.0371337 0.0421466 0.0716791 -0.0422461 -0.0451676 -0.0189813 -0.0139383 0.0123223 -0.0330535 -0.0373716 0.0352679 0.0104427 -0.0162681 0.0525771 0.045461 0.0662546 0.0292873 0.0229565 0.0506882 -0.0277672 -0.00237851 0.0108209 -0.00491487 -0.0137984
internal_weight=0 3233 3517 2363 1686 870 1431 480 932 305 1240 1831 884 565 390 706 446 175 200 387 367 176 246 129 1429 402 200 547 265 117 143 534 365 125 210 186 497 82 354 204 143 1024 569 352 190 410 405 230 113 358 193 201 86 105 386 125 91 162 137 104 221 203
internal_count=6750 3233 3517 2363 1686 870 1431 480 932 305 1240 1831 884 565 390 706 446 175 200 387 367 176 246 129 1429 402 200 547 265 117 143 534 365 125 210 186 497 82 354 204 143 1024 569 352 190 410 405 230 113 358 193 201 86 105 386 125 91 162 137 104 221 203
is_linear=0
shrinkage=0.2


Tree=9
num_leaves=63
num_cat=0
split_feature=2 2 2 2 2 2 2 7 5 5 7 7 5 2 2 2 2 5 5 5 2 2 2 3 7 2 1 1 7 5 5 5 1 5 2 5 2 5 5 1 5 5 1 1 2 2 5 5 1 2 5 1 3 2 5 5 2 5 5 7 5 1
split_gain=114.94 16.1282 13.572 3.76077 2.38826 1.88299 1.7725 0.96442 0.874852 0.530695 0.525401 0.408006 0.573161 0.39878 0.380123 0.374868 0.345853 0.300087 0.268914 0.252992 0.238279 0.237695 0.213481 0.207475 0.206877 0.202016 0.189577 0.184448 0.184058 0.33619 0.171667 0.153926 0.150911 0.147973 0.144596 0.134212 0.133358 0.12816 0.121142 0.11967 0.115197 0.104319 0.100905 0.0907954 0.108762 0.0809689 0.079126 0.0785071 0.0764408 0.14081 0.076315 0.0758417 0.0758326 0.0756494 0.074218 0.1459 0.0842661 0.0738693 0.0712874 0.308569 0.070774 0.0688207
threshold=99.500000000000014 106.50000000000001 91.500000000000014 111.50000000000001 103.50000000000001 86.500000000000014 94.500000000000014 1.0000000180025095e-35 179.70000000000002 186.30000000000004 1.0000000180025095e-35 1.0000000180025095e-35 184.10000000000002 96.500000000000014 114.50000000000001 115.50000000000001 109.50000000000001 188.50000000000003 214.95000000000002 186.30000000000004 108.50000000000001 82.500000000000014 100.50000000000001 4.5000000000000009 1.0000000180025095e-35 101.50000000000001 102.50000000000001 103.90000000000002 1.0000000180025095e-35 181.90000000000003 201.70000000000002 129.00000000000003 105.50000000000001 166.45000000000002 90.500000000000014 115.7 81.500000000000014 221.60000000000002 217.20000000000002 101.75000000000001 179.70000000000002 135.60000000000002 104.80000000000003 103.55000000000001 80.500000000000014 105.50000000000001 197.30000000000004 166.45000000000002 105.00000000000001 104.50000000000001 124.60000000000001 103.7 5.5000000000000009 77.500000000000014 146.60000000000002 173.10000000000002 104.50000000000001 157.60000000000002 170.90000000000003 1.0000000180025095e-35 124.60000000000001 104.80000000000003
decision_type=2 2 2 2 2 2 2 2 2 2 2 2 2 2 2 2 2 2 2 2 2 2 2 2 2 2 2 2 2 2 2 2 2 2 2 2 2 2 2 2 2 2 2 2 2 2 2 2 2 2 2 2 2 2 2 2 2 2 2 2 2 2
left_child=2 4 5 8 9 10 28 15 20 25 19 12 27 18 41 32 46 23 24 43 -3 53 -11 -6 33 35 -13 47 29 -4 31 -15 -5 -8 37 -2 -21 -14 52 -23 -27 -9 -33 44 -1 48 -10 -7 -19 -50 -26 -28 -31 -12 -25 56 -56 -58 59 -37 -22 -35
right_child=1 3 6 7 17 11 13 14 16 22 21 26 34 30 -16 -17 -18 45 -20 36 60 39 -24 54 50 40 51 -29 -30 38 -32 42 -34 61 -36 58 -38 -39 -40 -41 -42 -43 -44 -45 -46 -47 -48 -49 49 -51 -52 -53 -54 -55 55 -57 57 -59 -60 -61 -62 -63
leaf_value=-0.047177933835530587 0.021396235893705803 0.036646039387168067 -0.026794603545726704 0.085260375809501604 0.043562225443976269 -0.036935843400797752 -0.025095858744856332 0.060925345406645827 0.045646899790544787 0.012846166394077816 -0.039826881072737956 -0.027166294665119356 -0.026212616825351972 0.0069706773817805314 0.074882223882845475 0.10307075798511506 0.067026410000162975 0.042202375587075951 0.010631492929865739 -0.039765053154141819 0.054676312930656203 -0.032922516078973306 0.026064314985728167 0.030501463401771952 0.0039654686708341944 0.017416891998373995 -0.020285886459425095 -0.043246483872334165 -0.011129823550995779 -0.0067778233859327533 0.0086512822678799298 -0.0040223490643608436 0.070555042816862548 -0.0076683198315564728 -0.014715033568578159 -0.007366671515801163 -0.03182701311127533 -0.013777098728296085 -0.0050133021117873353 -0.024767265320717741 0.0045052222186519253 0.047066052276641131 0.001943998739280149 -0.050468406841158865 -0.038117514013873866 0.045288374713035651 0.05452889497857541 -0.02710553591272661 0.02169656463327908 0.040206466530050555 -0.005321212746868636 -0.015275988422242655 -0.017591048935746756 -0.032650538897442238 0.013890437036373085 0.031851728182906908 0.03227950670125504 0.019853294458240273 0.013136155841897968 0.0097660916868756581 0.044498321897227244 -0.017319721676027165
leaf_weight=79 31 224 110 71 35 53 31 42 67 65 77 107 221 105 56 35 79 45 35 135 33 98 197 173 44 255 250 75 346 31 111 269 46 122 82 54 227 39 53 271 31 45 196 50 161 54 100 84 31 35 181 234 159 248 46 75 31 50 72 190 159 39
leaf_count=79 31 224 110 71 35 53 31 42 67 65 77 107 221 105 56 35 79 45 35 135 33 98 197 173 44 255 250 75 346 31 111 269 46 122 82 54 227 39 53 271 31 45 196 50 161 54 100 84 31 35 181 234 159 248 46 75 31 50 72 190 159 39
internal_value=0 0.0348314 -0.0195549 0.055038 0.0216766 -0.0291652 -0.00648768 0.0738194 0.0466686 0.0152151 -0.0342368 -0.0232033 -0.0271027 -0.00160133 0.0620297 0.0849112 0.0561232 0.0317341 -0.00620693 -0.0383135 0.0410776 -0.0304068 0.022785 0.0288356 -0.00762023 0.0120819 -0.019548 -0.0352734 -0.0144079 -0.017621 0.00145554 5.42684e-05 0.0794788 -0.0124426 -0.0220378 0.00883817 -0.0347873 -0.0243473 -0.0134683 -0.0269332 0.0160174 0.0537567 -0.0015075 -0.0427152 -0.0410999 0.0389364 0.0509655 -0.0309085 0.0358462 0.0315124 -0.00350515 -0.0178637 -0.0158268 -0.0343508 0.0274611 0.0248573 0.0207267 0.024609 0.0076062 0.00597441 0.0462477 -0.0100062
internal_weight=0 2427 4323 957 1470 2491 1832 295 662 895 1346 1145 554 1133 143 152 246 575 452 652 416 694 262 410 417 633 591 212 699 353 681 570 117 192 342 347 362 260 243 369 286 87 465 290 240 165 167 137 111 66 225 484 190 325 375 202 127 81 316 244 192 161
internal_count=6750 2427 4323 957 1470 2491 1832 295 662 895 1346 1145 554 1133 143 152 246 575 452 652 416 694 262 410 417 633 591 212 699 353 681 570 117 192 342 347 362 260 243 369 286 87 465 290 240 165 167 137 111 66 225 484 190 325 375 202 127 81 316 244 192 161
is_linear=0
shrinkage=0.2


Tree=10
num_leaves=63
num_cat=0
split_feature=0 8 0 8 0 0 8 8 8 5 5 2 2 5 5 8 8 8 5 0 5 8 2 0 2 2 8 1 0 8 2 5 2 8 2 8 2 8 1 2 1 5 1 2 5 1 8 0 2 2 1 8 0 1 1 0 1 1 0 1 1 0
split_gain=78.0524 20.9734 9.92099 7.01873 5.8858 5.02877 2.58667 2.39273 1.97798 1.84564 1.48816 1.41195 1.30932 1.15604 1.14567 1.06637 1.05716 1.02019 0.904429 0.88896 0.779715 0.778482 0.716747 0.701495 0.596161 0.55311 0.531285 0.521502 0.510215 0.502144 0.466723 0.4595 0.401078 0.364009 0.358752 0.357919 0.330359 0.321619 0.320196 0.318314 0.316372 0.315671 0.315429 0.294341 0.325295 0.284831 0.271264 0.259458 0.255731 0.250275 0.245643 0.23711 0.229947 0.22412 0.221421 0.217728 0.214884 0.214034 0.262737 0.211923 0.208144 0.205913
threshold=20.500000000000004 44.500000000000007 12.500000000000002 52.500000000000007 26.500000000000004 26.500000000000004 63.500000000000007 52.500000000000007 30.500000000000004 184.10000000000002 162.00000000000003 110.50000000000001 104.50000000000001 168.70000000000002 153.20000000000002 64.500000000000014 29.500000000000004 31.500000000000004 159.80000000000004 7.5000000000000009 146.60000000000002 67.500000000000014 83.500000000000014 22.500000000000004 106.50000000000001 94.500000000000014 30.500000000000004 105.2 17.500000000000004 28.500000000000004 100.50000000000001 164.20000000000002 101.50000000000001 66.500000000000014 93.500000000000014 27.500000000000004 104.50000000000001 26.500000000000004 104.80000000000003 111.50000000000001 104.60000000000001 144.40000000000003 105.00000000000001 91.500000000000014 186.30000000000004 104.80000000000003 70.500000000000014 16.500000000000004 99.500000000000014 108.50000000000001 104.80000000000003 62.500000000000007 8.5000000000000018 105.2 104.80000000000003 16.500000000000004 105.00000000000001 105.00000000000001 17.500000000000004 103.90000000000002 104.60000000000001 3.5000000000000004
decision_type=2 2 2 2 2 2 2 2 2 2 2 2 2 2 2 2 2 2 2 2 2 2 2 2 2 2 2 2 2 2 2 2 2 2 2 2 2 2 2 2 2 2 2 2 2 2 2 2 2 2 2 2 2 2 2 2 2 2 2 2 2 2
left_child=2 5 7 8 6 12 23 22 18 24 36 16 14 28 45 49 20 53 57 61 -7 48 -1 42 51 50 31 -25 -5 41 -12 -24 37 -26 -23 -13 -8 54 -30 56 47 -14 -3 -21 -45 -2 -32 -27 60 -11 -10 -6 -28 -16 -20 -42 -31 58 -4 -54 -15 -9
right_child=1 4 3 13 9 11 10 19 25 15 30 35 29 21 17 -17 -18 -19 32 43 -22 34 26 27 33 40 52 -29 38 39 46 -33 -34 -35 -36 -37 -38 -39 -40 -41 55 -43 -44 44 -46 -47 -48 -49 -50 -51 -52 -53 59 -55 -56 -57 -58 -59 -60 -61 -62 -63
leaf_value=-0.032531279231165493 0.025607525859330151 0.030828892503013003 -0.013787788307419474 -0.00031449511171440067 0.041288414029848008 0.030439981256137817 0.030673936288803817 -0.025862196783224739 -0.0086105609364853543 0.06893295503487544 0.05476401380791858 0.034776697822420273 0.017037705269952616 0.016294534371065147 -0.014133022289263875 0.12047406113810009 0.034290022966969348 0.0024084094125232732 -0.032075237735049937 -0.010206575893093246 0.0012857239117119146 0.021067993551758785 -0.023389629152828814 0.049134538254954598 0.065717205846751184 -0.0011607747909578461 -0.023583004691283264 0.030855041598355587 0.026087406875371047 0.029558622517756056 0.071286196416864789 -0.034276919188669 -0.011813587679241139 0.088315318169241597 0.045391821320672654 0.054864485042818482 0.054471616111695764 -0.020867780545192616 0.0050565637351360684 0.039227189833763991 -0.019621766488508961 -0.0014923090426447361 0.0090277813762411115 -0.0049618691817158835 0.01679028378566727 0.0060146719288568422 0.093437969611912253 0.011991097780237735 0.027010230621208955 0.093827306628227247 -0.023567888041407886 0.06229728862050582 -0.013030905310160882 -0.029859313298948111 -0.049138645026832822 -0.0028850548820330475 0.012823934122519733 -0.0244495766925747 0.0010502694404002891 -0.023546859121014334 -0.0041981749627138338 -0.016411503621392456
leaf_weight=549 37 47 166 161 42 57 56 135 218 35 37 59 60 55 73 45 171 131 127 222 103 35 343 99 81 135 420 169 67 42 48 283 52 44 79 89 40 82 51 32 38 95 61 88 40 150 41 108 49 30 55 44 226 72 40 171 114 46 67 116 31 291
leaf_count=549 37 47 166 161 42 57 56 135 218 35 37 59 60 55 73 45 171 131 127 222 103 35 343 99 81 135 420 169 67 42 48 283 52 44 79 89 40 82 51 32 38 95 61 88 40 150 41 108 49 30 55 44 226 72 40 171 114 46 67 116 31 291
internal_value=0 0.0308873 -0.0149748 -0.00360809 0.0539576 0.014388 0.0422308 -0.0226546 -0.0114802 0.0758036 0.0593494 0.0306177 0.00474287 0.0158485 -0.00219525 0.0968073 0.0233568 -0.0103843 -0.0201856 -0.0132707 0.0116719 0.0257546 -0.026414 0.0321236 0.0648538 -0.00451583 -0.0239944 0.0376075 0.00700755 0.0141083 0.0736426 -0.0283115 -0.0277893 0.0736717 0.037924 0.0468565 0.0405896 -0.0311255 0.0169978 0.0210567 -0.000222649 0.0056806 0.0185153 -0.00580255 0.00183568 0.00989133 0.0814909 0.0046845 0.0154782 0.0804227 -0.0116239 0.0520371 -0.0204479 -0.0219419 -0.0361623 -0.00592809 0.0173294 -0.0119824 -0.00952105 -0.0165977 0.00890763 -0.0194064
internal_weight=0 2204 4546 1833 919 1285 598 2713 1305 321 222 479 806 528 463 110 331 276 580 776 160 249 1937 376 211 725 1388 268 279 343 126 626 301 125 114 148 96 249 118 188 452 155 108 350 128 187 89 243 135 65 273 86 762 145 167 209 156 279 233 342 86 426
internal_count=6750 2204 4546 1833 919 1285 598 2713 1305 321 222 479 806 528 463 110 331 276 580 776 160 249 1937 376 211 725 1388 268 279 343 126 626 301 125 114 148 96 249 118 188 452 155 108 350 128 187 89 243 135 65 273 86 762 145 167 209 156 279 233 342 86 426
is_linear=0
shrinkage=0.2


Tree=11
num_leaves=63
num_cat=0
split_feature=0 0 2 2 0 1 1 0 1 2 1 5 2 2 2 0 1 0 0 1 0 1 1 5 5 2 5 2 0 0 1 0 2 1 0 1 2 0 1 1 0 2 1 2 2 0 5 5 1 5 2 2 2 5 1 6 5 5 0 0 5 0
split_gain=50.3928 8.28797 5.33201 2.15035 1.68927 1.66894 1.36526 1.0469 0.832665 0.809782 0.695734 0.690135 0.64832 0.605223 0.559162 0.519987 0.513948 0.475171 0.446258 0.44332 0.41522 0.346894 0.312249 0.311291 0.310527 0.259334 0.25686 0.229337 0.22662 0.219625 0.201341 0.199852 0.183472 0.175879 0.354516 0.171428 0.167543 0.191149 0.164604 0.151979 0.150756 0.145106 0.139443 0.138977 0.138746 0.137843 0.13578 0.133489 0.132164 0.128443 0.123124 0.115935 0.114728 0.112037 0.101038 0.100193 0.124562 0.100006 0.0999027 0.0994273 0.095708 0.0945313
threshold=19.500000000000004 25.500000000000004 90.500000000000014 108.50000000000001 14.500000000000002 105.00000000000001 104.60000000000001 22.500000000000004 105.2 99.500000000000014 104.45000000000002 214.95000000000002 104.50000000000001 110.50000000000001 84.500000000000014 21.500000000000004 104.10000000000001 28.500000000000004 15.500000000000002 105.2 11.500000000000002 104.10000000000001 105.50000000000001 197.30000000000004 197.30000000000004 93.500000000000014 166.45000000000002 113.50000000000001 28.500000000000004 16.500000000000004 103.7 9.5000000000000018 96.500000000000014 104.60000000000001 10.500000000000002 103.55000000000001 99.500000000000014 28.500000000000004 105.2 103.7 28.500000000000004 99.500000000000014 105.00000000000001 80.500000000000014 107.50000000000001 16.500000000000004 199.50000000000003 179.70000000000002 105.2 151.00000000000003 104.50000000000001 105.50000000000001 102.50000000000001 170.90000000000003 104.80000000000003 1.0000000180025095e-35 159.80000000000004 142.20000000000002 13.500000000000002 15.500000000000002 144.40000000000003 21.500000000000004
decision_type=2 2 2 2 2 2 2 2 2 2 2 2 2 2 2 2 2 2 2 2 2 2 2 2 2 2 2 2 2 2 2 2 2 2 2 2 2 2 2 2 2 2 2 2 2 2 2 2 2 2 2 2 2 2 2 2 2 2 2 2 2 2
left_child=2 5 14 8 10 9 16 32 40 25 20 17 36 22 43 46 59 27 -18 29 30 35 52 44 28 -2 57 38 -14 -8 31 -4 -7 34 -16 -22 -10 47 -5 -36 42 -20 -3 -1 54 -43 -11 49 61 -38 -31 -24 55 -47 -17 56 -9 -19 -41 -6 -45 -34
right_child=1 3 4 11 6 7 19 13 12 15 -12 -13 24 -15 33 23 18 26 41 -21 21 -23 51 -25 -26 -27 -28 -29 -30 50 -32 -33 48 -35 39 -37 37 -39 -40 58 -42 45 -44 60 -46 53 -48 -49 -50 -51 -52 -53 -54 -55 -56 -57 -58 -59 -60 -61 -62 -63
leaf_value=-0.026492896771739455 -0.0049771583293165486 0.048144209331699779 -0.013379993746620692 0.0471956797875464 0.013769769516343681 -0.011879628860125585 -0.014228394323808336 0.012030198992109829 0.0043069440107501578 0.015788345014174972 -0.025659114455456957 0.075050525367259979 0.024703139925726265 0.033216946878259615 -0.018608709202995986 0.032775550351652784 -0.0077619468187228513 0.052128115448416501 0.004265692561833013 -0.022619736744222088 0.012237284799006634 -0.010953786005535144 -0.0018878400012658073 0.052017059249192248 0.045172331671704327 0.014270622867957822 0.062076674335419316 0.048995957901591766 0.038921519380904018 -0.0042522796995937825 -0.019281630584976495 -0.0038694089585233752 0.0014820255357055711 -0.027621560661743084 -0.0016687323011742054 -0.00192363945439549 0.018681548822091009 0.031215560249984266 0.031926300078417173 -0.016200747622501902 0.056664972330133123 0.0017651513912235661 0.03164433188270778 -0.017975578472168761 0.041024544237083516 0.0099252282884359985 0.030518537546477972 0.02521348557225904 -0.0027428117697800083 0.0047697655414478818 0.0084131369832903154 0.011235059009721646 0.01751080090386694 0.023815971453570658 0.021399978647527639 0.017213721241911544 -0.0021784511417513941 0.03865060592070222 -0.008277369346982295 0.026462345689218097 -0.023401078575390262 0.013745746115881315
leaf_weight=373 35 42 314 36 52 56 86 62 32 130 118 33 162 53 876 64 102 49 234 71 42 186 87 32 57 140 73 68 62 250 146 123 65 60 59 184 61 46 131 153 30 34 40 198 38 48 31 49 173 47 35 39 169 45 61 51 41 40 109 47 379 41
leaf_count=373 35 42 314 36 52 56 86 62 32 130 118 33 162 53 876 64 102 49 234 71 42 186 87 32 57 140 73 68 62 250 146 123 65 60 59 184 61 46 131 153 30 34 40 198 38 48 31 49 173 47 35 39 169 45 61 51 41 40 109 47 379 41
internal_value=0 0.0230706 -0.0129439 0.0363632 -0.005773 0.0127903 0.000175402 0.00722622 0.0289022 0.0215608 -0.0111388 0.0472597 0.0255093 0.0130044 -0.0198224 0.0270367 0.00671594 0.0449497 0.00391922 -0.00814084 -0.00941685 -0.00455677 0.0106185 0.0339821 0.0319924 0.0104211 0.0532833 0.0392047 0.0286386 -0.00536995 -0.0128514 -0.0107031 -0.00143241 -0.0170548 -0.0165252 0.000708037 0.0177572 0.0198775 0.0352179 -0.0108393 0.0445337 0.00721971 0.0400955 -0.0234842 0.0304415 0.0126626 0.0186246 0.0165555 0.000664519 0.0126273 -0.00269688 0.00217401 0.0139126 0.0166466 0.0272243 0.009964 0.00637433 0.0460708 -0.0129044 0.0197955 -0.0215393 0.00622554
internal_weight=0 2426 4324 1058 2117 1368 1004 837 628 531 1113 430 516 502 2207 356 562 397 463 442 995 412 449 195 281 175 162 235 224 371 583 437 335 1257 1197 226 235 203 167 321 112 361 82 950 163 127 161 157 279 108 285 126 323 93 125 154 103 89 262 99 577 106
internal_count=6750 2426 4324 1058 2117 1368 1004 837 628 531 1113 430 516 502 2207 356 562 397 463 442 995 412 449 195 281 175 162 235 224 371 583 437 335 1257 1197 226 235 203 167 321 112 361 82 950 163 127 161 157 279 108 285 126 323 93 125 154 103 89 262 99 577 106
is_linear=0
shrinkage=0.2


Tree=12
num_leaves=63
num_cat=0
split_feature=8 8 5 5 8 8 5 8 8 8 5 8 5 6 5 6 8 5 5 4 4 4 5 5 5 5 5 4 8 6 5 5 4 8 5 5 8 8 4 4 8 8 8 8 4 5 5 4 8 6 8 5 4 8 5 4 8 8 8 5 4 8
split_gain=16.5042 4.79234 2.56705 2.41356 1.11129 1.02201 0.402808 0.359546 0.346299 0.297394 0.263484 0.215909 0.198267 0.184079 0.174616 0.174551 0.172576 0.160259 0.126243 0.12597 0.145631 0.125015 0.120499 0.119432 0.117364 0.0998816 0.0943121 0.0865374 0.103173 0.0826384 0.0789535 0.0770018 0.233087 0.107119 0.102549 0.0702428 0.0835624 0.0662499 0.0633341 0.0623464 0.0619441 0.0618433 0.0584541 0.0581367 0.145557 0.0583291 0.046811 0.0464011 0.0447865 0.0788675 0.0425754 0.0393473 0.0389413 0.0388672 0.0382857 0.0590407 0.0427986 0.0376643 0.0361705 0.0346352 0.0344162 0.033738
threshold=56.500000000000007 36.500000000000007 146.60000000000002 164.20000000000002 67.500000000000014 24.500000000000004 179.70000000000002 65.500000000000014 74.500000000000014 48.500000000000007 190.70000000000002 28.500000000000004 126.80000000000003 1.0000000180025095e-35 179.70000000000002 1.0000000180025095e-35 20.500000000000004 159.80000000000004 124.60000000000001 3.5000000000000004 1.5000000000000002 3.5000000000000004 223.80000000000004 181.90000000000003 175.30000000000004 164.20000000000002 206.10000000000002 3.5000000000000004 63.500000000000007 1.0000000180025095e-35 181.90000000000003 144.40000000000003 7.5000000000000009 74.500000000000014 124.60000000000001 159.80000000000004 29.500000000000004 28.500000000000004 5.5000000000000009 6.5000000000000009 72.500000000000014 30.500000000000004 52.500000000000007 40.500000000000007 3.5000000000000004 188.50000000000003 137.80000000000004 7.5000000000000009 40.500000000000007 1.0000000180025095e-35 63.500000000000007 124.60000000000001 10.500000000000002 21.500000000000004 164.20000000000002 7.5000000000000009 46.500000000000007 29.500000000000004 43.500000000000007 140.00000000000003 7.5000000000000009 60.500000000000007
decision_type=2 2 2 2 2 2 2 2 2 2 2 2 2 2 2 2 2 2 2 2 2 2 2 2 2 2 2 2 2 2 2 2 2 2 2 2 2 2 2 2 2 2 2 2 2 2 2 2 2 2 2 2 2 2 2 2 2 2 2 2 2 2
left_child=1 2 11 7 10 13 12 -2 19 43 23 18 58 16 -10 25 -4 47 -1 20 -6 -16 35 50 -21 41 -23 28 -12 -11 53 34 33 -33 -9 -17 -37 -27 -29 -31 -26 60 -41 44 -8 -45 -20 -18 49 -14 -5 -13 -19 -15 56 -56 -50 -39 -3 -36 -7 -25
right_child=3 6 5 4 8 15 9 31 14 29 27 51 48 30 21 22 17 52 46 24 -22 26 -24 61 40 37 -28 38 -30 39 -32 32 -34 -35 59 36 -38 57 -40 42 -42 -43 -44 45 -46 -47 -48 -49 54 -51 -52 -53 -54 -55 55 -57 -58 -59 -60 -61 -62 -63
leaf_value=-0.0014010005398038471 0.004663926392605721 0.0020060523969389252 -0.027084425540091713 0.012881052026932594 0.029050918749223154 -0.013144088179967081 0.0054939420869908277 0.017388926032917498 0.028529209865890959 0.017918048498149104 0.014010691631226178 0.0032745908330044978 -0.0018156363156158477 -0.035110449995845554 0.050381046015206932 -0.024767572609707716 -0.013957281032894939 -0.020400593347817741 -0.0054012796618097903 0.022141911164561118 0.014590241070478583 0.045522186920667694 -0.0061734672441161823 0.00090022332486555429 0.036895520109683277 -0.014856304042041302 0.030240342627678603 0.03098018828268145 0.026400225469842553 0.0065574398573158433 -0.023235057606287895 0.017214838925782325 0.0066407025837507405 0.029990958320420414 0.0099377183878794316 -0.017768152638869515 -0.012467169332982994 -0.0042076295442056173 0.021626836563279826 0.0090290137333795435 0.026765639854199958 -0.0035134074906051495 0.020159931055241033 -0.0004738650271628146 -0.0066107906148205574 0.0056949295458180779 -0.0095032128720237054 -0.0042436387589467424 0.00040366286160789576 -0.0097725892046582885 0.02113614589964017 -0.00082944864777452899 -0.012951636139416335 -0.026542144281686181 0.0078821631573626535 -8.3430786669337886e-05 -0.003028309746051604 -0.010743924763590592 0.0068811808758369696 0.0031761762331007047 -0.0069907037039390876 0.0093598553656854423
leaf_weight=230 352 106 78 64 60 61 78 71 45 52 82 140 225 40 53 30 37 188 261 44 52 30 64 33 90 157 35 51 40 142 189 70 61 42 125 212 271 43 67 46 33 129 32 84 81 227 194 42 255 64 41 281 33 45 46 195 338 196 143 40 90 44
leaf_count=230 352 106 78 64 60 61 78 71 45 52 82 140 225 40 53 30 37 188 261 44 52 30 64 33 90 157 35 51 40 142 189 70 61 42 125 212 271 43 67 46 33 129 32 84 81 227 194 42 255 64 41 281 33 45 46 195 338 196 143 40 90 44
internal_value=0 -0.00556871 -0.0106932 0.0175629 0.0247967 -0.0151429 0.00173023 0.00934996 0.0318053 0.00548429 0.0174559 -0.00302913 -0.000300027 -0.0215647 0.0391294 -0.0118012 -0.0187036 -0.0165246 -0.00521984 0.0275264 0.022337 0.0431718 -0.0143563 0.0117171 0.0310066 -0.00962035 0.0372935 0.0218078 0.0180728 0.0107476 -0.0255118 0.0133829 0.0165881 0.0220059 0.0110334 -0.0153772 -0.0147939 -0.0116646 0.0256694 0.00905277 0.0341777 -0.00672922 0.0135955 0.00243829 -0.00067262 0.00402876 -0.00715024 -0.00879307 -0.00143214 -0.00357773 0.0161045 0.000535315 -0.0192883 -0.0305743 -0.000688638 0.00143697 -0.0015525 -0.00956794 0.00480582 0.00829856 -0.00947651 0.0057343
internal_weight=0 5125 3011 1625 864 1905 2114 761 442 742 422 1106 1372 652 163 1253 378 300 685 279 112 118 577 182 167 676 65 240 122 272 274 409 173 112 236 513 483 396 118 220 123 280 78 470 159 311 455 79 1123 289 105 421 221 85 834 241 593 239 249 165 151 77
internal_count=6750 5125 3011 1625 864 1905 2114 761 442 742 422 1106 1372 652 163 1253 378 300 685 279 112 118 577 182 167 676 65 240 122 272 274 409 173 112 236 513 483 396 118 220 123 280 78 470 159 311 455 79 1123 289 105 421 221 85 834 241 593 239 249 165 151 77
is_linear=0
shrinkage=0.2


Tree=13
num_leaves=63
num_cat=0
split_feature=1 8 1 8 8 8 8 6 6 8 8 6 1 1 1 6 8 1 8 3 3 1 8 1 1 8 1 1 6 8 6 3 4 3 8 4 3 1 3 8 1 4 1 8 8 1 8 3 8 1 4 4 8 3 4 8 3 1 1 4 8 1
split_gain=18.3513 10.5691 2.81848 2.5188 2.24143 1.09888 0.825257 0.753959 0.643366 0.551955 0.48677 0.381863 0.350905 0.33569 0.302262 0.273652 0.25745 0.250009 0.228183 0.226824 0.205593 0.192097 0.191072 0.167057 0.162067 0.160179 0.159314 0.158416 0.131867 0.126609 0.123604 0.121043 0.120543 0.10148 0.0933703 0.0902025 0.101912 0.0888527 0.0851254 0.084746 0.0821149 0.0816116 0.0830586 0.0801418 0.0791128 0.078434 0.0771537 0.0769554 0.0917233 0.0725645 0.0675666 0.0633839 0.0692307 0.0582839 0.0571229 0.0559746 0.071521 0.0503741 0.0497155 0.0495164 0.0756238 0.0481346
threshold=104.60000000000001 54.500000000000007 103.7 29.500000000000004 36.500000000000007 67.500000000000014 63.500000000000007 1.0000000180025095e-35 1.0000000180025095e-35 41.500000000000007 60.500000000000007 1.0000000180025095e-35 102.65000000000002 105.2 105.50000000000001 1.0000000180025095e-35 25.500000000000004 103.00000000000001 76.500000000000014 5.5000000000000009 5.5000000000000009 105.00000000000001 22.500000000000004 105.35000000000001 105.50000000000001 25.500000000000004 104.10000000000001 104.10000000000001 1.0000000180025095e-35 34.500000000000007 1.0000000180025095e-35 5.5000000000000009 3.5000000000000004 5.5000000000000009 72.500000000000014 3.5000000000000004 5.5000000000000009 104.30000000000003 4.5000000000000009 21.500000000000004 100.30000000000003 2.5000000000000004 105.00000000000001 20.500000000000004 73.500000000000014 101.40000000000002 41.500000000000007 5.5000000000000009 48.500000000000007 105.2 8.5000000000000018 5.5000000000000009 58.500000000000007 5.5000000000000009 8.5000000000000018 36.500000000000007 5.5000000000000009 105.35000000000001 105.2 4.5000000000000009 53.500000000000007 105.00000000000001
decision_type=2 2 2 2 2 2 2 2 2 2 2 2 2 2 2 2 2 2 2 2 2 2 2 2 2 2 2 2 2 2 2 2 2 2 2 2 2 2 2 2 2 2 2 2 2 2 2 2 2 2 2 2 2 2 2 2 2 2 2 2 2 2
left_child=2 3 10 7 15 14 27 19 23 21 17 26 45 47 35 22 39 40 24 32 -16 -5 53 54 31 -21 -8 -6 -23 30 33 -10 61 -19 -28 41 51 -13 -34 -9 -1 42 -3 -40 -14 -12 -42 -11 -49 -18 57 -37 -53 -4 -7 -30 -57 -15 -41 60 -29 -2
right_child=1 5 4 9 6 8 11 16 18 13 12 37 44 50 20 -17 49 29 -20 25 -22 28 -24 -25 -26 -27 34 59 55 -31 -32 -33 38 -35 -36 36 -38 -39 43 58 46 -43 -44 -45 -46 -47 -48 48 -50 -51 -52 52 -54 -55 -56 56 -58 -59 -60 -61 -62 -63
leaf_value=-0.021766202482912278 0.0016611982445308084 0.013556992142126077 -0.011690212555983093 0.0014623470156894017 -0.0043232006259621321 0.029540245416413608 -0.002148284338276036 -0.026035590596835724 0.03411798212677241 0.0075656156837855667 -0.01889113270574146 0.016641941909237127 -0.0040065676573064783 0.013096843933543335 0.028456827866612001 -0.016372792090260192 -0.012017852198835966 -0.0098475309833884247 0.062137452335584736 -0.013006586909446364 0.047412676666233992 0.011117578546032736 -0.0058668517948676085 0.039630306499489287 0.05641975437143916 0.0032785474322736263 0.0066117374243384059 0.0021192550715211059 0.00095229556637575806 -0.0087241003009168004 -0.020386607367739396 0.048034504498355092 0.0090557422838173814 -0.019867957415351391 0.020337022017807731 0.014951365444188318 0.034191388186327248 0.027141029484170888 -0.010798637579816084 -0.020297333889681361 -0.017230788271451341 0.010351447333746098 0.026420086808298437 9.9655407390879204e-05 0.0044536306551890446 -0.01046511475091196 -0.013723841227428236 0.0096653893663271994 0.022926348529975205 -0.00056262024784121999 0.024221809862216975 0.018154109457348726 0.027912922073854138 -0.020588550617950122 0.018790405448526143 0.0015137103495790679 0.013920121265166417 0.019834204965903025 -0.011311121998389937 0.00064673800046758485 0.011175060595639727 0.010402445274086881
leaf_weight=108 37 31 89 201 208 58 56 44 50 179 63 76 143 65 60 228 37 195 42 78 37 329 394 59 38 35 55 112 93 311 96 50 38 51 31 30 43 56 30 46 707 34 57 269 64 148 389 54 34 55 92 41 100 44 30 34 41 140 53 248 55 79
leaf_count=108 37 31 89 201 208 58 56 44 50 179 63 76 143 65 60 228 37 195 42 78 37 329 394 59 38 35 55 112 93 311 96 50 38 51 31 30 43 56 30 46 707 34 57 269 64 148 389 54 34 55 92 41 100 44 30 34 41 140 53 248 55 79
internal_value=0 0.0122995 -0.00884173 0.00487186 -0.00255402 0.0324616 0.00420471 -0.00389997 0.0412128 0.0104394 -0.0134076 0.0133521 -0.00724135 0.0150925 0.0258527 -0.0105839 -0.0134227 -0.0147955 0.0492297 5.3815e-05 0.0356874 0.00667961 -0.00807944 0.0313962 0.0453013 -0.00796252 0.00615345 0.000181622 0.00878961 -0.0116445 -0.0143001 0.0410762 0.00205347 -0.0119249 0.0115592 0.0230135 0.0254878 0.0210961 0.000139366 -0.0187324 -0.0165046 0.0186735 0.0218888 -0.000993819 -0.00139085 -0.0129809 -0.0159861 0.00994634 0.0147889 -0.00516962 0.0197188 0.0232991 0.0250753 -0.014634 0.0258755 0.00423068 0.00829588 0.017698 -0.0154865 0.00243946 0.00510171 0.00761429
internal_weight=0 2823 3927 2063 1652 760 897 801 327 1262 2275 274 418 564 433 755 235 1857 180 566 97 698 527 147 138 113 142 623 497 653 342 100 453 246 86 336 214 132 337 143 1204 122 88 299 207 211 1096 267 88 92 297 171 141 133 88 168 75 205 99 415 167 116
internal_count=6750 2823 3927 2063 1652 760 897 801 327 1262 2275 274 418 564 433 755 235 1857 180 566 97 698 527 147 138 113 142 623 497 653 342 100 453 246 86 336 214 132 337 143 1204 122 88 299 207 211 1096 267 88 92 297 171 141 133 88 168 75 205 99 415 167 116
is_linear=0
shrinkage=0.2


Tree=14
num_leaves=63
num_cat=0
split_feature=2 2 2 2 2 2 2 2 6 5 2 5 5 5 5 5 2 5 5 5 6 2 4 2 5 5 4 5 4 5 2 5 3 5 5 4 4 5 5 4 5 5 5 5 4 5 2 4 5 4 4 4 5 4 5 4 5 4 5 5 4 4
split_gain=24.3232 3.11104 3.00559 0.889745 0.679871 0.562443 0.304009 0.260884 0.216809 0.164378 0.152275 0.120405 0.119565 0.105756 0.103408 0.0970598 0.0749856 0.0736449 0.071577 0.0669881 0.0575217 0.0587307 0.0528013 0.0513876 0.0513484 0.126945 0.0740919 0.046351 0.0452517 0.0518563 0.0442059 0.043135 0.0419974 0.0467094 0.0434886 0.0376761 0.0363618 0.0355961 0.0341708 0.0532487 0.0464227 0.0339426 0.03303 0.0288376 0.0799674 0.0300061 0.0288075 0.0287596 0.0282639 0.0270656 0.0267072 0.0558492 0.0248233 0.0238934 0.0221584 0.0782438 0.087618 0.0319462 0.02202 0.0212323 0.0265912 0.0193309
threshold=100.50000000000001 108.50000000000001 93.500000000000014 116.50000000000001 103.50000000000001 87.500000000000014 111.50000000000001 95.500000000000014 1.0000000180025095e-35 201.70000000000002 80.500000000000014 212.70000000000002 131.20000000000002 148.80000000000004 186.30000000000004 221.60000000000002 107.50000000000001 223.80000000000004 122.40000000000002 226.00000000000003 1.0000000180025095e-35 114.50000000000001 3.5000000000000004 89.500000000000014 184.10000000000002 177.50000000000003 8.5000000000000018 153.20000000000002 3.5000000000000004 219.40000000000003 99.500000000000014 159.80000000000004 5.5000000000000009 166.45000000000002 151.00000000000003 7.5000000000000009 8.5000000000000018 217.20000000000002 137.80000000000004 2.5000000000000004 168.70000000000002 206.10000000000002 162.00000000000003 201.70000000000002 5.5000000000000009 208.30000000000004 105.50000000000001 6.5000000000000009 179.70000000000002 9.5000000000000018 1.5000000000000002 3.5000000000000004 203.90000000000003 5.5000000000000009 151.00000000000003 8.5000000000000018 195.10000000000002 4.5000000000000009 166.45000000000002 203.90000000000003 1.0000000180025095e-35 5.5000000000000009
decision_type=2 2 2 2 2 2 2 2 2 2 2 2 2 2 2 2 2 2 2 2 2 2 2 2 2 2 2 2 2 2 2 2 2 2 2 2 2 2 2 2 2 2 2 2 2 2 2 2 2 2 2 2 2 2 2 2 2 2 2 2 2 2
left_child=2 4 5 6 14 10 11 15 16 20 42 54 -7 -12 32 27 38 18 -9 -15 21 22 -8 37 25 36 28 53 59 -30 43 47 33 34 -2 -16 -10 58 39 -6 -40 50 -1 61 45 -45 -41 -18 -22 -35 -29 -52 -25 -4 57 56 -56 -3 -14 60 -26 -20
right_child=1 3 7 -5 8 12 9 17 24 -11 13 -13 23 19 35 -17 31 -19 30 -21 48 -23 -24 52 26 -27 -28 41 29 -31 -32 -33 -34 49 -36 -37 -38 -39 40 46 -42 -43 -44 44 -46 -47 -48 -49 -50 -51 51 -53 -54 -55 55 -57 -58 -59 -60 -61 -62 -63
leaf_value=-0.016226589878064007 0.0070177235195409242 0.016791612486399356 -0.005589109998833823 0.057913582899221563 0.0096809371648955023 -0.0051870836866829469 0.019653332324173208 0.0049725088512398378 0.018121301043611853 0.043665951674550098 -0.011229775842696651 0.035077783982119255 -0.011068393667314755 -0.015529342586195398 0.010245250389125431 0.0053516589473929345 0.017833568646413524 0.0087987254039408307 -0.0028350760147182429 -0.0063084104803927017 0.030647537518631331 0.034843721613287928 0.028961837458504863 -0.0096830730435998411 0.025420400611455403 0.0068056621077832672 0.030224415401203766 -0.004031757768687038 0.011880813116606858 0.02214959545715435 0.0020572721651143525 0.012484173750999618 -0.00055652529533420294 0.014342452839593449 0.0020140264187986502 0.017326912573991795 0.026499304429938399 -0.0058078429097253269 0.0093245259889690266 0.014366898275371912 0.014590271128663602 -0.0019994303603501368 -0.020002109348885161 0.0014059965112587303 -0.0066926206942298453 0.0092072586106185465 0.020472372707445174 0.025906197852905724 0.038698307087493916 0.0075730038584744634 -0.016951156565782562 -0.0080105705504086178 -0.0067524238501952844 -0.00096558885047613079 0.032809149663822326 0.018126503080277453 0.020391380886274686 0.023111623998444814 -0.014386781700149981 0.027140146667849932 0.017572840432134959 -0.00069680245720289474
leaf_weight=172 233 63 103 41 56 245 39 103 67 44 454 31 162 700 160 32 41 39 329 33 33 36 65 642 31 36 36 42 42 37 204 32 35 42 99 37 30 33 179 69 107 36 201 41 32 38 56 31 37 54 34 157 141 79 51 63 41 65 158 34 39 348
leaf_count=172 233 63 103 41 56 245 39 103 67 44 454 31 162 700 160 32 41 39 329 33 33 36 65 642 31 36 36 42 42 37 204 32 35 42 99 37 30 33 179 69 107 36 201 41 32 38 56 31 37 54 34 157 141 79 51 63 41 65 158 34 39 348
internal_value=0 0.0173123 -0.00832572 0.02946 0.012639 -0.0121339 0.0274062 -0.00139943 0.0161438 0.0325507 -0.0147362 0.0232447 -0.00919429 -0.0136285 0.00773743 -0.00529196 0.0137371 0.000258495 -4.56781e-05 -0.0151142 0.0302218 0.0278812 0.0254711 -0.0100585 0.0200479 0.0169482 0.0219303 -0.00604717 0.0202987 0.0166902 -0.00056672 0.0185939 0.00610446 0.00664917 0.00552566 0.0115753 0.0207124 -0.0120619 0.0126556 0.0148061 0.0112946 -0.00771492 -0.0182611 -0.00124603 0.00174196 0.0051585 0.0171022 0.0213093 0.0349029 0.0105346 -0.00859799 -0.00960209 -0.00915533 -0.0035822 0.0219484 0.0235567 0.0272751 0.020001 -0.0127068 0.0230398 0.0210482 -0.00173593
internal_weight=0 2192 4558 609 1583 2941 568 1617 923 254 1560 314 1381 1187 660 483 571 1134 1095 733 210 140 104 1136 352 133 219 451 183 79 992 104 463 428 332 197 97 353 467 181 286 269 373 788 111 79 125 72 70 96 233 191 783 182 283 155 92 128 320 104 70 677
internal_count=6750 2192 4558 609 1583 2941 568 1617 923 254 1560 314 1381 1187 660 483 571 1134 1095 733 210 140 104 1136 352 133 219 451 183 79 992 104 463 428 332 197 97 353 467 181 286 269 373 788 111 79 125 72 70 96 233 191 783 182 283 155 92 128 320 104 70 677
is_linear=0
shrinkage=0.2


Tree=15
num_leaves=63
num_cat=0
split_feature=0 0 0 0 0 0 5 5 0 5 0 4 5 5 5 0 5 4 5 5 5 0 5 5 5 4 5 5 6 5 5 5 0 5 5 5 4 5 0 5 4 4 5 4 5 5 4 6 4 4 5 0 5 5 6 4 5 6 5 6 4 5
split_gain=17.1867 2.40618 1.75814 0.625968 0.308253 0.243107 0.199607 0.178513 0.148278 0.145113 0.0867987 0.0849122 0.083149 0.0811147 0.0733613 0.0689849 0.0600193 0.0593841 0.0557229 0.0558579 0.0546233 0.0741195 0.0732984 0.0519161 0.0512842 0.0686182 0.0497231 0.0490163 0.0511901 0.0432882 0.0550396 0.0421012 0.0414819 0.0334047 0.0440237 0.0327166 0.0402638 0.029228 0.0292232 0.0428401 0.0329375 0.0741712 0.0381858 0.11023 0.044987 0.0275902 0.0284921 0.0380521 0.0272095 0.0226855 0.0554067 0.0264454 0.0203046 0.0201228 0.0194346 0.018465 0.0178111 0.0322229 0.0254519 0.0348493 0.0266182 0.0191278
threshold=22.500000000000004 14.500000000000002 28.500000000000004 25.500000000000004 6.5000000000000009 18.500000000000004 214.95000000000002 197.30000000000004 29.500000000000004 210.50000000000003 1.5000000000000002 4.5000000000000009 223.80000000000004 206.10000000000002 159.80000000000004 10.500000000000002 188.50000000000003 9.5000000000000018 166.45000000000002 137.80000000000004 177.50000000000003 26.500000000000004 166.45000000000002 221.60000000000002 122.40000000000002 5.5000000000000009 201.70000000000002 142.20000000000002 1.0000000180025095e-35 151.00000000000003 155.40000000000003 126.80000000000003 26.500000000000004 155.40000000000003 206.10000000000002 129.00000000000003 2.5000000000000004 115.7 19.500000000000004 177.50000000000003 6.5000000000000009 1.5000000000000002 166.45000000000002 9.5000000000000018 179.70000000000002 133.40000000000003 5.5000000000000009 1.0000000180025095e-35 2.5000000000000004 6.5000000000000009 190.70000000000002 23.500000000000004 186.30000000000004 212.70000000000002 1.0000000180025095e-35 3.5000000000000004 188.50000000000003 1.0000000180025095e-35 166.45000000000002 1.0000000180025095e-35 8.5000000000000018 195.10000000000002
decision_type=2 2 2 2 2 2 2 2 2 2 2 2 2 2 2 2 2 2 2 2 2 2 2 2 2 2 2 2 2 2 2 2 2 2 2 2 2 2 2 2 2 2 2 2 2 2 2 2 2 2 2 2 2 2 2 2 2 2 2 2 2 2
left_child=1 4 3 9 10 12 16 8 27 14 -1 -9 35 29 37 33 20 49 19 -10 21 22 24 31 -5 -26 -18 -4 -29 55 -31 -17 -22 -6 -35 48 52 -2 39 -32 41 -40 -42 -44 -45 -23 -47 -48 -3 50 -16 -52 -37 -36 -53 -7 58 -58 59 60 -33 -59
right_child=2 5 7 6 15 13 -8 11 18 -11 -12 -13 -14 -15 17 23 26 -19 -20 -21 32 45 -24 -25 25 -27 -28 28 -30 30 38 56 -34 34 53 36 -38 -39 40 -41 42 -43 43 44 -46 46 47 -49 -50 -51 51 54 -54 -55 -56 -57 57 61 -60 -61 -62 -63
leaf_value=-0.0171884365663642 0.016374363092971699 -0.0042902611114821118 0.028292039144904385 0.018553127814084292 -0.0074850212313892599 0.0010813716269024698 0.0312828833413267 0.045576306339353327 0.036224285792559388 0.018874059966765347 -0.011188142849869494 0.031932853080483305 0.0059457133547402919 0.0070282664130597071 0.0017983302523274548 -0.0031594562479022158 0.024272164396750621 0.0025141972673068547 0.039965899554746498 0.024740090645435784 0.017399637077323862 0.022293354742802109 0.022441103675913426 7.243141299113631e-05 0.01368181655536695 0.0028328268884275209 0.016684119063880173 0.017224809825460523 0.026105665237187072 -0.0077141222742605296 -0.0069834556538871558 -0.0069554917566325885 0.008343096180734309 -0.0108083864109331 -0.0021634306998528315 -0.0033706193902727334 -0.0042004030637627374 0.010238017964033961 0.0039299643745956325 0.0017974053043872118 -0.00057900959966406061 -0.0063377376403088498 0.015844047001953569 -0.0035604406228022922 0.0064419777245839707 0.014118857134197808 0.017374390929816637 0.024531017775397478 0.0017350940360697084 0.01170706838468609 0.0046369784620280069 0.015627481006085873 0.0011581412056752604 -0.0081146903074512337 0.0092122138907000713 0.0040127383624328069 -0.010118713430596936 -0.00028783212765119969 -0.0096579081416796105 -0.011396360302924069 -0.0022692669020231686 -0.0055198487171001041
leaf_weight=105 35 43 62 32 389 133 43 36 32 62 1182 37 45 120 52 111 78 98 35 36 32 78 31 46 58 39 62 58 47 34 43 272 55 434 33 66 571 275 60 46 57 53 31 35 37 58 108 41 99 61 30 30 99 73 51 243 51 36 208 59 59 125
leaf_count=105 35 43 62 32 389 133 43 36 32 62 1182 37 45 120 52 111 78 98 35 36 32 78 31 46 58 39 62 58 47 34 43 272 55 434 33 66 571 275 60 46 57 53 31 35 37 58 108 41 99 61 30 30 99 73 51 243 51 36 208 59 59 125
internal_value=0 -0.00597507 0.0170453 0.0139194 -0.00928879 -0.000163728 0.0180725 0.0298863 0.0275138 0.00964055 -0.0116777 0.0386611 -0.0024392 0.00219083 0.00873473 -0.00766722 0.0172272 0.00662047 0.0334818 0.0301444 0.0162576 0.0171537 0.0137087 -0.00648477 0.0116103 0.00931985 0.0209117 0.023833 0.0212 0.0014389 -2.0431e-05 -0.00681228 0.0116742 -0.00889804 -0.00991594 -0.00286895 -0.00340521 0.0109308 0.000702181 -0.00244503 0.0017282 -0.00088586 0.00357437 0.00587285 0.00157969 0.0190877 0.0178797 0.0193437 -8.94853e-05 0.00841697 0.0071857 0.00970952 -0.000653363 -0.00626194 0.0115882 0.00297585 -0.00731285 -0.00573772 -0.00787126 -0.00691837 -0.00612018 -0.00434996
internal_weight=0 4998 1752 1409 3183 1815 715 343 270 694 1287 73 923 892 632 1896 672 322 103 68 532 445 160 967 129 97 140 167 105 772 396 921 87 929 540 878 736 310 362 89 273 113 160 103 72 285 207 149 142 224 163 111 165 106 81 376 810 212 598 390 331 161
internal_count=6750 4998 1752 1409 3183 1815 715 343 270 694 1287 73 923 892 632 1896 672 322 103 68 532 445 160 967 129 97 140 167 105 772 396 921 87 929 540 878 736 310 362 89 273 113 160 103 72 285 207 149 142 224 163 111 165 106 81 376 810 212 598 390 331 161
is_linear=0
shrinkage=0.2


Tree=16
num_leaves=63
num_cat=0
split_feature=0 8 8 0 8 1 8 0 0 0 1 0 3 1 0 8 0 1 1 0 1 0 0 8 1 0 0 1 0 1 1 1 0 1 1 0 1 8 1 1 1 1 8 0 8 0 0 1 1 3 4 8 0 1 1 8 8 1 1 0 0 3
split_gain=10.9995 5.29474 2.401 1.91482 1.15556 0.754662 0.478373 0.449577 0.430914 0.425764 0.421875 0.411403 0.386749 0.349485 0.611393 0.346077 0.328813 0.385863 0.326564 0.320249 0.277607 0.28411 0.276772 0.273672 0.247789 0.262307 0.241908 0.322357 0.23076 0.217252 0.193599 0.161832 0.160794 0.153256 0.144291 0.143456 0.136146 0.136138 0.117786 0.115595 0.113082 0.102198 0.0904603 0.089097 0.0864894 0.0835386 0.0811739 0.0831985 0.079603 0.0753121 0.0796491 0.0726908 0.0713196 0.0758153 0.0698472 0.0672978 0.066461 0.0636989 0.0606611 0.0651702 0.0602342 0.0595314
threshold=22.500000000000004 53.500000000000007 40.500000000000007 14.500000000000002 36.500000000000007 104.80000000000003 64.500000000000014 26.500000000000004 29.500000000000004 18.500000000000004 105.35000000000001 24.500000000000004 5.5000000000000009 104.80000000000003 15.500000000000002 73.500000000000014 7.5000000000000009 104.30000000000003 105.35000000000001 17.500000000000004 105.2 24.500000000000004 18.500000000000004 64.500000000000014 104.30000000000003 11.500000000000002 10.500000000000002 103.40000000000002 28.500000000000004 105.2 104.30000000000003 103.7 28.500000000000004 104.30000000000003 103.90000000000002 19.500000000000004 103.7 25.500000000000004 105.35000000000001 105.2 104.45000000000002 104.80000000000003 39.500000000000007 9.5000000000000018 26.500000000000004 13.500000000000002 2.5000000000000004 103.2 105.2 5.5000000000000009 7.5000000000000009 23.500000000000004 25.500000000000004 105.00000000000001 103.7 57.500000000000007 24.500000000000004 103.40000000000002 104.60000000000001 13.500000000000002 18.500000000000004 5.5000000000000009
decision_type=2 2 2 2 2 2 2 2 2 2 2 2 2 2 2 2 2 2 2 2 2 2 2 2 2 2 2 2 2 2 2 2 2 2 2 2 2 2 2 2 2 2 2 2 2 2 2 2 2 2 2 2 2 2 2 2 2 2 2 2 2 2
left_child=2 4 13 16 7 15 28 10 20 -7 41 -8 -13 14 24 19 46 26 32 33 52 -22 -15 39 25 36 27 -18 29 -3 -16 -28 56 -5 -27 -32 43 61 44 -11 55 -2 -23 -1 -24 -26 -4 -48 -25 50 -43 -37 53 -6 -29 -21 -9 -45 59 -19 -42 -20
right_child=1 6 3 5 8 9 11 18 -10 23 -12 12 -14 22 30 -17 17 58 37 40 21 42 38 48 45 34 31 54 -30 -31 35 -33 -34 -35 -36 51 -38 -39 -40 -41 60 49 -44 57 -46 -47 47 -49 -50 -51 -52 -53 -54 -55 -56 -57 -58 -59 -60 -61 -62 -63
leaf_value=-0.0099053977374085906 0.012374551282264293 0.030848802454196491 -0.011677021645989858 0.011676016498064058 0.021285632064822934 -0.0095512520103978038 0.023228304418358572 0.0034490081574767833 0.036243650070956035 0.0049835844998842036 -0.010991447454073785 0.035272111045196654 0.054205538337636333 -0.022522972910227174 0.0070069005976066655 0.026694968342781067 0.0040788603272651222 -0.013005273718894884 0.00046328558966881049 0.016757737943793045 -0.0011958734477117946 0.0059210742760639071 -0.014271374471071694 0.019860959346503174 -0.021030593904235017 0.0012173114693620414 0.011783492526082302 -0.005178838680350766 0.037442874472418973 0.016687583406993119 -0.006282155381002766 0.0015805665308416294 0.027321599730673957 0.001061557022008596 -0.0074134334576821106 -0.0056151946811305899 -0.015848413823309395 0.0066871308694618284 -0.018854519272830002 -0.005277941074516429 0.0064886813124065247 0.0071965186555333488 0.01495122650362468 0.0019371520489965958 -0.0061891438582534694 -0.012815798838436605 -0.0058463500477484096 -0.015528303095580717 0.0069830842956434937 -0.0063384576522289432 -0.0020685988207281166 0.0058334725453721321 0.026298024346853827 0.0096990459674113506 -0.012934437768160216 0.029642216887910883 0.0156018353263951 -0.0074204898934759614 -0.017918623462319375 -0.002235095330979675 0.015414760860235053 -0.009882446737901774
leaf_weight=999 35 65 152 89 58 117 68 30 33 104 158 137 63 117 92 59 135 55 73 34 78 59 81 48 82 141 87 101 44 130 222 218 34 140 172 31 141 151 61 76 42 79 179 43 153 125 540 38 32 47 70 78 47 37 86 31 45 90 40 38 108 32
leaf_count=999 35 65 152 89 58 117 68 30 33 104 158 137 63 117 92 59 135 55 73 34 78 59 81 48 82 141 87 101 44 130 222 218 34 140 172 31 141 151 61 76 42 79 179 43 153 125 540 38 32 47 70 78 47 37 86 31 45 90 40 38 108 32
internal_value=0 0.0136363 -0.00478005 -0.000164049 0.00662001 0.00723322 0.0308655 0.00170305 0.0141707 0.000468057 -0.00302757 0.036667 0.0412361 -0.00894289 -0.00794841 0.0123037 -0.00453291 -0.00162108 0.00674473 0.0103914 0.0125803 0.00927954 -0.0142918 0.00497675 -0.00956197 -0.00871257 0.000454464 -0.00336888 0.02436 0.021408 -0.0011089 0.00449091 0.0159127 0.00518683 -0.00352546 -0.00336465 -0.00998795 0.00284117 -0.0110273 0.00065094 0.0159348 0.00241959 0.0127127 -0.00925798 -0.00898684 -0.01607 -0.0075644 -0.00648288 0.0147098 0.000641916 0.00284378 0.00257743 0.0199256 0.016773 -0.00874558 0.0229026 0.0107407 -0.00439509 -0.0114058 -0.00860456 0.0129155 -0.0026897
internal_weight=0 1752 4998 2370 1245 880 507 754 491 377 389 268 200 2628 2216 503 1490 760 365 444 458 316 412 260 1793 1586 627 322 239 195 423 305 109 229 313 331 1273 256 295 180 215 231 238 1132 234 207 730 578 80 196 149 109 142 95 187 65 75 133 133 93 150 105
internal_count=6750 1752 4998 2370 1245 880 507 754 491 377 389 268 200 2628 2216 503 1490 760 365 444 458 316 412 260 1793 1586 627 322 239 195 423 305 109 229 313 331 1273 256 295 180 215 231 238 1132 234 207 730 578 80 196 149 109 142 95 187 65 75 133 133 93 150 105
is_linear=0
shrinkage=0.2


Tree=17
num_leaves=63
num_cat=0
split_feature=2 0 2 2 0 7 7 6 2 0 6 7 2 7 0 0 0 2 2 7 0 2 2 2 6 4 0 6 0 2 4 0 0 0 2 4 0 0 4 2 4 4 2 0 2 4 4 2 4 0 2 0 6 4 2 0 0 2 0 0 2 4
split_gain=7.28027 1.43828 0.906806 0.535095 0.319115 0.304658 0.242205 0.30677 0.27419 0.19665 0.179848 0.138516 0.1831 0.120611 0.105907 0.104687 0.101625 0.0994765 0.0903947 0.0909 0.0869961 0.0643927 0.0609945 0.0597681 0.0579044 0.0521721 0.0516255 0.0464814 0.0537125 0.0455104 0.0443511 0.0440417 0.0408332 0.0376448 0.0693978 0.0310112 0.0465595 0.0306049 0.0279027 0.0248268 0.0239185 0.0213257 0.0203271 0.0200246 0.0199848 0.0384341 0.070848 0.0292576 0.0202293 0.0195949 0.0184334 0.0179044 0.0224428 0.0176102 0.0302328 0.02577 0.0171348 0.01598 0.041584 0.0351827 0.0190229 0.0154546
threshold=100.50000000000001 26.500000000000004 91.500000000000014 116.50000000000001 23.500000000000004 1.0000000180025095e-35 1.0000000180025095e-35 1.0000000180025095e-35 111.50000000000001 15.500000000000002 1.0000000180025095e-35 1.0000000180025095e-35 102.50000000000001 1.0000000180025095e-35 29.500000000000004 29.500000000000004 3.5000000000000004 110.50000000000001 96.500000000000014 1.0000000180025095e-35 16.500000000000004 106.50000000000001 103.50000000000001 85.500000000000014 1.0000000180025095e-35 8.5000000000000018 20.500000000000004 1.0000000180025095e-35 18.500000000000004 80.500000000000014 4.5000000000000009 22.500000000000004 24.500000000000004 4.5000000000000009 81.500000000000014 5.5000000000000009 11.500000000000002 28.500000000000004 9.5000000000000018 88.500000000000014 2.5000000000000004 6.5000000000000009 108.50000000000001 1.5000000000000002 104.50000000000001 5.5000000000000009 7.5000000000000009 107.50000000000001 6.5000000000000009 26.500000000000004 78.500000000000014 6.5000000000000009 1.0000000180025095e-35 4.5000000000000009 106.50000000000001 25.500000000000004 10.500000000000002 103.50000000000001 20.500000000000004 21.500000000000004 101.50000000000001 6.5000000000000009
decision_type=2 2 2 2 2 2 2 2 2 2 2 2 2 2 2 2 2 2 2 2 2 2 2 2 2 2 2 2 2 2 2 2 2 2 2 2 2 2 2 2 2 2 2 2 2 2 2 2 2 2 2 2 2 2 2 2 2 2 2 2 2 2
left_child=2 4 5 6 13 10 8 14 15 -4 33 12 -6 21 22 44 43 32 19 26 23 24 -8 50 61 -10 38 28 -15 -18 -23 -20 -14 -1 -35 39 -37 -24 41 -36 -21 -11 -30 -7 48 47 -47 -46 -3 -33 -12 -31 -53 54 -34 -55 -52 59 -59 60 -26 -2
right_child=1 3 9 -5 11 16 7 -9 25 18 20 -13 17 27 -16 -17 29 -19 31 40 -22 30 37 -25 57 -27 -28 -29 42 51 -32 49 53 34 35 36 -38 -39 -40 -41 -42 -43 -44 -45 45 46 -48 -49 -50 -51 56 52 -54 55 -56 -57 -58 58 -60 -61 -62 -63
