tree
version=v3
num_class=1
num_tree_per_iteration=1
label_index=0
max_feature_idx=55
objective=regression
feature_names=Column_0 Column_1 Column_2 Column_3 Column_4 Column_5 Column_6 Column_7 Column_8 Column_9 Column_10 Column_11 Column_12 Column_13 Column_14 Column_15 Column_16 Column_17 Column_18 Column_19 Column_20 Column_21 Column_22 Column_23 Column_24 Column_25 Column_26 Column_27 Column_28 Column_29 Column_30 Column_31 Column_32 Column_33 Column_34 Column_35 Column_36 Column_37 Column_38 Column_39 Column_40 Column_41 Column_42 Column_43 Column_44 Column_45 Column_46 Column_47 Column_48 Column_49 Column_50 Column_51 Column_52 Column_53 Column_54 Column_55
feature_infos=[1:30] [98.799999999999997:106.7] [69:128] [4:7] [0:12] [79.400000000000006:291] [0:2] [0:1] [20:79] [0.37080366322157626:287.00612496058631] [0.71032053112631388:285.04441548189448] [0.59280521158348165:290.5493338475294] [0.82691079282489:278.37582786862185] [0.37205633499782209:285.93198365886531] [0.64316341595198878:278.34026169994877] [0.79523290763258103:282.18438254674572] [0.55037960559265287:277.49884865890022] [0.63453236789186462:289.86254797674223] [0.61506820765544035:283.58348269576413] [0.40577439732204823:289.65909499924157] [0.066589422964995038:276.50574633280974] [-4.8148408118651389:290.77747001498318] [-5.3120364598673007:298.04661618734019] [-4.0273916384197861:288.8126890187981] [-5.1449217263065634:292.50387893848949] [-0.43171045184135437:285.87197875976562] [-4.6119506574081299:290.04077653241859] [-2.6585202378086734:291.68718461287756] [0.44649457931518555:277.12750244140625] [-0.51619133092259517:283.17480172010244] [-0.38747566673363565:275.88070182707975] [-0.19364025827108833:284.28721598108285] [-0.3798832893371582:275.14443969726562] [-0.1840519905090332:276.675048828125] [-1.270714282989502:276.04833984375] [-0.032220102846622467:284.108154296875] [0.40871381759643555:272.63815307617188] [-0.64552324985629639:279.78676950819471] [-0.22791439184447881:278.62557901777279] [-0.41496913724664353:272.17952247961819] [2.9759652834358405:249.01623979269164] [4.6448627278545871:239.15779302165538] [3.2893884683630574:243.19615554658122] [2.7905310605866305:233.34526228471344] [3.2450593920644053:233.81702765138681] [4.3229725302552851:223.09570607077467] [10.88947842765333:211.4042487358534] [-36.267149616695775:233.56694660176885] [8.3001939325751408:216.17015929359803] [5.557834090554195:206.23121525368532] [13.298328648450905:198.49640774473551] [7.8517179023508135:218.34741784037558] [7.8517179023508135:218.34741784037558] [13.198847110542346:189.90547650085696] [10.458896357830469:198.03395645132568] [12:196.59999999999999]
tree_sizes=5584 5591 5620 5606 5647 5615 5618 5618 5653 5651 5654 5661 5623 5645 5669 5690 5691 5655 5692 5702 5651 5704 5696 5681 5678 5750 5737 5726 5784 5781 5768 5767 5797 5784 5804 5823 5795 5827 5811 5842 5816 5863 5894 5852 5929 5875 5886 5903 5964 5916 5921 5954 5989 5986 5954 5983 6041 6067 6066 6046 6073 6124 6053 6202 6150 6225 6123 6176 6167 6263 6230 6204 6228 6264 6228 6264 6235 6271 6250 6267 6281 6227 6265 6343 6190 6315 6243 6378 6391 6359 6307 6364 6295 6382 6394 6369 6357 6440 6461 6420 6379 6483 6284 6371 6463 6350 6390 6340 6504 6391 6410 6355 6366 6381 6473 6405 6399 6488 6508 6375 6367 6546 6396 6489 6453 6353 6462 6412 6459 6533 6502 6494 6398 6385 6477 6638 6516 6437 6531 6638 6548 6573 6549 6647 6528 6652 6530 6498 6437 6425 6443 6517 6461 6478 6548 6534 6522 6591 6531 6437 6617 6358 6593 6575 6603

Tree=0
num_leaves=63
num_cat=0
split_feature=12 9 17 9 9 9 9 9 22 9 11 9 9 10 9 21 9 18 9 9 12 9 11 18 15 9 9 9 9 9 9 12 12 9 18 9 9 15 9 9 2 15 9 9 9 9 9 9 9 9 14 9 9 19 19 17 9 9 17 9 9 9
split_gain=5006.86 691.193 556.144 114.702 103.305 72.1021 69.1342 21.2143 18.5707 13.0064 10.8026 9.45352 9.26291 9.24091 8.10666 3.17524 3.12117 2.79111 2.75358 1.98904 1.58975 1.37595 1.31162 1.2652 1.26477 1.24248 1.14353 1.07756 1.05854 0.915667 0.843361 0.597668 0.38117 0.369325 0.368254 0.352251 0.263591 0.259767 0.258114 0.254466 0.249361 0.242641 0.233347 0.23082 0.199709 0.186487 0.184144 0.17958 0.164159 0.163187 0.159591 0.148604 0.145543 0.139559 0.137213 0.13482 0.123755 0.121791 0.121571 0.108183 0.107861 0.105459
threshold=99.380189756461348 160.46844664938342 47.030390640907093 202.94321837644415 128.40429978923632 71.901514681795831 24.605049080614283 180.38783643659249 234.74393187292478 144.54505050240249 113.1323948071305 13.595416089709522 59.129300610309848 84.480064749077144 35.341260585422269 216.0171215870937 190.44616639773946 253.93108548603723 170.68142263510131 136.43833257764129 152.93612951010229 120.77427262090579 91.766902656493542 65.983650668977461 106.83701760458308 8.5432073928190402 53.227823346606151 40.993267088386723 19.578400880983342 78.581393850382241 29.608833583164191 222.62132020326507 184.88470234754723 195.49601870685714 210.51192520950053 165.63722289233189 140.49618780485011 5.5557993396999388 241.31603387235143 175.23794728334107 115.50000000000001 148.65445840410635 103.33642487060864 132.08625920957755 62.418804250125326 116.75454831151917 124.90652264884369 87.961710921838332 16.493601505059964 50.509345245669813 95.628686678734979 156.82454550667856 75.10103942566225 56.604149872061548 44.294570374480628 32.531291851600805 10.600124241771089 69.017186655665569 38.322755975171312 110.39946703515172 228.99800252527254 22.11316908800001
decision_type=2 2 2 2 2 2 2 2 2 2 2 2 2 2 2 2 2 2 2 2 2 2 2 2 2 2 2 2 2 2 2 2 2 2 2 2 2 2 2 2 2 2 2 2 2 2 2 2 2 2 2 2 2 2 2 2 2 2 2 2 2 2
left_child=2 4 6 7 10 12 11 18 15 19 24 25 26 29 30 34 32 38 35 43 41 45 47 44 42 37 49 58 48 52 -8 -17 -9 -18 -5 -3 -21 -1 -10 -20 -19 -11 -2 -6 -14 -12 -23 -15 -13 -4 -24 -22 -7 -28 -29 -32 -27 -25 -16 -26 -33 -30
right_child=1 3 5 8 9 13 14 16 17 20 21 28 23 22 27 31 33 40 39 36 51 46 50 57 59 56 53 54 61 -31 55 60 -34 -35 -36 -37 -38 -39 -40 -41 -42 -43 -44 -45 -46 -47 -48 -49 -50 -51 -52 -53 -54 -55 -56 -57 -58 -59 -60 -61 -62 -63
leaf_value=-0.068338801704347127 0.0094550190566908953 0.05869296727720065 -0.032584852530172577 0.093149933903539123 0.032363193641382237 -0.012772840502361457 -0.049684895883402462 0.07392321992826853 0.11849284408632083 0.045420102705069937 0.020332458158419005 -0.059362705767430635 -0.022880167517673088 -0.0025666970616137542 -0.04200636240977932 0.10332593836067838 0.082428718144970922 0.13820839279420949 0.066469422973013156 0.038872503247292467 0.052289338368529781 0.026405261157690801 0.0033328079244604818 -0.017573562891670953 0.015331776842941926 -0.063825681770565343 -0.027646967192766846 -0.037336903481111849 -0.054737493415949523 -0.0065021584770745709 -0.046572578988969326 0.10856316285856343 0.078204048727461256 0.086980129221204849 0.098582016004859732 0.062597021820347362 0.042249685530373005 -0.065610280810801128 0.1255382162606572 0.070247374892128664 0.14827332072980978 0.048835575138040932 0.012450833061460586 0.035694428721193404 -0.020160495670029411 0.023326740515813699 0.029619073291513486 0.00031668592161602447 -0.0570019201197558 -0.029977271781199511 0.0062792419325215405 0.055176409540926119 -0.010177058463847196 -0.025235545075877951 -0.035036097183547638 -0.044202452338680073 -0.061703966538702686 -0.01519901202591481 -0.039755700907497499 0.017795103689692806 0.11316286837127049 -0.05276115916200258
leaf_weight=162 130 130 135 78 104 108 243 104 26 104 104 135 135 108 135 53 78 16.000000000000004 78 104 104 104 108 108 104 108 135 162 135 162 135 25 104 104 52 104 130 189 26 104 9.9999999999999982 104 130 104 135 104 78 108 162 108 80 78 108 108 108 108 189 108 108 78 26 135
leaf_count=162 130 130 135 78 104 108 243 104 26 104 104 135 135 108 135 53 78 16 78 104 104 104 108 108 104 108 135 162 135 162 135 25 104 104 52 104 130 189 26 104 10 104 130 104 135 104 78 108 162 108 80 78 108 108 108 108 189 108 108 78 26 135
internal_value=5.31751e-10 0.051429 -0.0360573 0.0818341 0.0310005 -0.0150267 -0.0527184 0.0718699 0.107575 0.0434587 0.0185424 -0.0607301 -0.0241196 -0.00372463 -0.0429745 0.100532 0.0802477 0.128704 0.0640157 0.0375864 0.050114 0.0246077 0.00153287 -0.0192385 0.0131907 -0.0648556 -0.0290006 -0.0385905 -0.0560152 -0.00934375 -0.047602 0.107044 0.0760636 0.0850295 0.0953228 0.0604281 0.0407487 -0.0668696 0.122016 0.0686283 0.14208 0.0471278 0.0109529 0.0340288 -0.0215203 0.0218296 0.0277826 -0.00112501 -0.058075 -0.0314259 0.00458661 0.0535267 -0.0114749 -0.0265752 -0.0364166 -0.0455192 -0.0624755 -0.0163863 -0.0410061 0.0163875 0.110908 -0.0537493
internal_weight=0 2782 3968 1118 1664 1754 2214 806 312 832 832 1215 972 782 999 234 390 78 416 442 390 390 404 486 442 648 486 513 567 378 486 104 208 182 130 234 234 351 52 182 26 208 260 208 270 208 182 216 297 243 188 182 216 243 270 243 297 216 243 182 51 270
internal_count=6750 2782 3968 1118 1664 1754 2214 806 312 832 832 1215 972 782 999 234 390 78 416 442 390 390 404 486 442 648 486 513 567 378 486 104 208 182 130 234 234 351 52 182 26 208 260 208 270 208 182 216 297 243 188 182 216 243 270 243 297 216 243 182 51 270
is_linear=0
shrinkage=1


Tree=1
num_leaves=63
num_cat=0
split_feature=12 13 17 10 11 9 13 9 22 11 9 17 9 11 9 9 9 21 9 9 12 15 10 13 10 9 9 29 9 29 9 11 18 9 13 2 11 9 33 10 11 13 16 16 11 12 9 9 9 17 9 10 17 9 13 9 9 9 9 11 9 17
split_gain=4518.69 623.822 501.927 103.531 93.2327 65.0503 62.555 19.1554 16.7568 11.7374 9.75234 8.53494 8.41662 7.93418 7.57173 3.28105 2.86879 2.52864 2.00124 1.7936 1.43266 1.3881 1.18256 1.12464 1.03255 1.01255 0.976347 0.955951 0.947894 0.914668 0.871362 0.534133 0.458701 0.336942 0.3309 0.289006 0.245001 0.237529 0.233911 0.233138 0.220793 0.21215 0.209294 0.20806 0.17015 0.169087 0.168927 0.145 0.144417 0.143816 0.133455 0.130107 0.129116 0.127825 0.127266 0.117566 0.11691 0.114575 0.112966 0.107869 0.107601 0.10448
threshold=99.380189756461348 160.6670059336974 47.600806448536794 202.66209643200159 128.39343231710083 24.605049080614283 72.696131839695184 178.8730244329077 234.74393187292478 144.52107129458355 114.05543254034946 13.617369086864182 60.380363639189646 35.910800977845547 85.487186307911458 190.44616639773946 216.12275431480006 252.58768114387883 169.63023615257063 136.43833257764129 152.93612951010229 106.83701760458308 53.733336952660302 8.4068868370116565 121.65388824004052 66.787054337227985 92.610263765655816 19.113104318108565 41.655857520962478 30.218277340816979 78.581393850382241 222.65218411040775 184.80263899604128 197.14480870031312 210.44766410398807 112.50000000000001 173.70116251560117 140.49618780485011 4.9943187236785898 241.01299752933406 148.60011063030029 102.6148566052571 164.70728032015259 132.35285671964348 57.150556191545881 117.8050106131487 88.943835340711914 110.39946703515172 50.509345245669813 44.823171041565743 156.82454550667856 32.596932436994123 82.105392944694088 64.014506545856321 21.510387038717891 27.083291063930982 39.043602081435601 16.493601505059964 11.558656200065938 124.90268056481587 69.827449492365375 228.93498691453325
decision_type=2 2 2 2 2 2 2 2 2 2 2 2 2 2 2 2 2 2 2 2 2 2 2 2 2 2 2 2 2 2 2 2 2 2 2 2 2 2 2 2 2 2 2 2 2 2 2 2 2 2 2 2 2 2 2 2 2 2 2 2 2 2
left_child=2 4 5 7 10 11 12 18 16 19 21 23 22 29 30 32 34 39 42 43 40 41 48 38 45 53 46 57 56 55 -8 -18 -9 -17 -5 -19 -20 -21 -1 -10 -11 -2 -3 -6 -24 -12 -16 -23 -4 -30 -22 -31 -32 -14 -29 -7 -15 -13 -25 -26 -27 -33
right_child=1 3 6 8 9 13 14 15 17 20 24 27 25 28 26 33 31 35 36 37 50 47 44 58 59 60 -28 54 49 51 52 61 -34 -35 -36 -37 -38 -39 -40 -41 -42 -43 -44 -45 -46 -47 -48 -49 -50 -51 -52 -53 -54 -55 -56 -57 -58 -59 -60 -61 -62 -63
leaf_value=-0.065152557895464064 0.0086560360155999664 0.055378960072994234 -0.030678334059538667 0.088496866210913058 0.030747323053387496 -0.048266660339302492 -0.010601160765955688 0.069843467932481029 0.11255465287428637 0.043143934928453892 0.020021233220513052 -0.056391105254491175 -0.020705044137107002 -0.0394447914980076 -0.0017812132826764829 0.078911531945833793 0.098114683651007145 0.12884408560666169 0.062026052291576685 0.036928878695918967 0.049674869500673735 0.014565187563689855 -0.025762814879417419 -0.06023929130148005 0.025513262817492856 -0.016090370300743315 0.0047610852589703503 -0.052389099927090892 -0.035101559224687981 -0.04404933397416716 -0.0069316964424042801 0.10303997191099019 0.074298536892120667 0.083258828291526213 0.093646084345304054 0.13951418161392212 0.065733080987746897 0.040134762227535252 -0.062503082364104512 0.11925049286622268 0.046402006051861323 0.011571441213480938 0.058551060752226762 0.033910056948661803 -0.023252465967778808 0.022872405857420886 0.0010153364575536991 0.017205477892779385 -0.028225298656357662 -0.032746041234996581 0.052410827538906003 -0.0417171493395051 -0.0042908891115659552 -0.018397223949432374 -0.050306231795269767 -0.046139549422849174 -0.037237698529605512 -0.054334918979336233 -0.058280911004101793 0.028142840396135283 -0.013858439221426292 0.1075224206997798
leaf_weight=136 104 104 108 78 104 108 189 130 26 104 104 135 135 135 108 104 52 11.000000000000002 78 104 104 104 135 162 78 108 161 134 162 108 108 26 104 78 52 14.999999999999998 104 130 215 26 104 156 104 104 135 104 108 104 135 108 78 134 81 108 162 163 108 136 135 78 108 26
leaf_count=136 104 104 108 78 104 108 189 130 26 104 104 135 135 135 108 104 52 11 78 104 104 104 135 162 78 108 161 134 162 108 108 26 104 78 52 15 104 130 215 26 104 156 104 104 135 104 108 104 135 108 78 134 81 108 162 163 108 136 135 78 108 26
internal_value=0 0.0488575 -0.0342545 0.0777429 0.0294502 -0.0498654 -0.0139973 0.0682763 0.102198 0.0412855 0.0176149 -0.0576936 -0.022384 -0.0405952 -0.00319998 0.0757396 0.0955083 0.122268 0.0603154 0.035707 0.0476077 0.0128409 -0.0267851 -0.0616136 0.0237531 -0.0174653 0.00181385 -0.0532136 -0.0361983 -0.0449921 -0.00820054 0.101698 0.0718235 0.0807747 0.0905566 0.135 0.0641444 0.0387099 -0.0635297 0.115903 0.044773 0.0104053 0.056965 0.0323287 -0.0245076 0.0214468 -0.000382938 0.0158853 -0.0293155 -0.0341594 0.0508474 -0.042758 -0.00579992 -0.0196793 -0.0512492 -0.0469873 -0.0384639 -0.0553592 -0.0593491 0.0268281 -0.0149744 0.105281
internal_weight=0 2782 3968 1118 1664 2241 1727 806 312 832 832 1215 972 1026 755 416 234 78 390 442 390 468 513 648 364 459 377 567 513 513 378 104 234 182 130 26 182 234 351 52 208 260 208 208 270 208 216 208 243 270 182 242 189 243 296 271 243 271 297 156 216 52
internal_count=6750 2782 3968 1118 1664 2241 1727 806 312 832 832 1215 972 1026 755 416 234 78 390 442 390 468 513 648 364 459 377 567 513 513 378 104 234 182 130 26 182 234 351 52 208 260 208 208 270 208 216 208 243 270 182 242 189 243 296 271 243 271 297 156 216 52
is_linear=0
shrinkage=0.05


Tree=2
num_leaves=63
num_cat=0
split_feature=15 13 17 11 12 12 12 12 23 15 11 11 10 17 11 21 12 19 16 14 11 14 11 14 18 36 16 17 17 11 14 12 12 17 17 17 2 14 16 11 14 10 13 19 13 16 10 14 10 29 10 18 19 10 12 30 13 15 15 17 10 29
split_gain=4078.16 562.99 452.998 93.4378 84.1418 58.7296 56.2962 17.2878 15.1277 10.5929 8.8037 7.55862 7.52883 7.16481 7.14522 2.59387 2.53442 2.28094 2.24055 1.61841 1.2976 1.11867 1.07458 1.03416 1.02723 1.01938 0.93077 0.873981 0.81161 0.754997 0.753601 0.487189 0.312936 0.307854 0.298937 0.287706 0.260828 0.213385 0.212964 0.211502 0.195896 0.188415 0.179382 0.174384 0.160347 0.153345 0.150526 0.146379 0.14455 0.137575 0.132726 0.130235 0.115801 0.112982 0.110617 0.108583 0.107406 0.101891 0.100477 0.0998146 0.0962486 0.0887234
threshold=99.319205501561285 160.6670059336974 47.030390640907093 202.70817470529829 128.35069371922683 71.890277936740219 24.060670033337406 180.05867221931413 234.18703837321661 144.46759105687019 113.1323948071305 59.10321735703787 84.480064749077144 13.617369086864182 35.262832037481537 216.0171215870937 190.36009671337408 252.783273895977 170.74231879279606 136.35111368387916 151.86627275218072 120.73204765375719 90.99333035444765 106.16954116056699 65.983650668977461 8.0829300880432147 53.213342896014133 40.971207888555575 29.654461447158535 77.639264294472426 19.048316240077522 222.62132020326507 184.88470234754723 195.32756009800286 210.47128378937649 165.90639687439668 112.50000000000001 140.3647960726876 176.44698417745238 241.11946848880521 94.80626338558055 132.19975900073322 4.9368140001109433 156.83177621201511 62.417042312828791 116.69095344167022 124.84663677575148 102.68421676667641 108.78899079492236 10.565829737998991 49.796107720019911 148.56426657207081 43.8166654411338 55.758716118158155 26.383225286565871 32.817160767354245 81.278774421295012 16.305420530581326 68.973661535605984 38.322755975171312 87.216500432133472 21.513439673175814
decision_type=2 2 2 2 2 2 2 2 2 2 2 2 2 2 2 2 2 2 2 2 2 2 2 2 2 2 2 2 2 2 2 2 2 2 2 2 2 2 2 2 2 2 2 2 2 2 2 2 2 2 2 2 2 2 2 2 2 2 2 2 2 2
left_child=2 4 6 7 10 11 13 18 15 19 23 26 29 25 28 34 32 39 35 41 51 45 60 47 44 42 50 59 54 -7 57 -17 -9 -18 -5 -3 -19 -21 -20 -10 -24 -6 -1 -22 -13 -12 -23 -2 -25 -27 -4 -11 -29 -28 -8 -30 -31 -15 -26 -16 -14 -32
right_child=1 3 5 8 9 12 14 16 17 20 21 24 22 30 27 31 33 36 38 37 43 46 40 48 58 49 53 52 55 56 61 -33 -34 -35 -36 -37 -38 -39 -40 -41 -42 -43 -44 -45 -46 -47 -48 -49 -50 -51 -52 -53 -54 -55 -56 -57 -58 -59 -60 -61 -62 -63
leaf_value=-0.061908068745224566 0.0082249693787441805 0.0529679521230551 -0.02967164941408016 0.084065824059339669 0.02920803542320545 -0.010667667336880215 -0.046298212144109945 0.066715556211196458 0.10692327068402217 0.040986099925178751 0.01834755131544975 -0.020633195848376664 -0.0026688187946507964 -0.05357382924468429 -0.037908640835020282 0.093260616626379633 0.074359738062589595 0.12240188338539813 0.060435089845101812 0.035086370116242993 0.046804045782639435 0.023827546190183898 0.002299896670781352 0.012766929247822517 -0.015867028054263859 -0.057761137318961764 -0.025194306602632562 -0.033904471618157843 -0.042013147670556521 -0.0072307447799377983 -0.049766489468953193 0.10010623265715207 0.070594341537127125 0.078515150799201086 0.088960037552393401 0.056496239912051417 0.13253847122192383 0.038124956098886637 0.063885946137995669 0.1133008429637322 0.0053184483931443399 0.032217755799110119 -0.059521716896188327 0.049794492660424655 -0.018196238577365877 0.021062757017520761 0.026733222221716858 0.01074165708743609 0.015489578143908429 -0.05567345650906258 -0.027320001677230556 0.043688848729317005 -0.031833499581725509 -0.023024610744582286 -0.044232385706754383 -0.03988406580185222 -0.0048221685429230155 -0.051631215258880904 -0.013710247973601023 -0.0358692927217042 -0.00038877217017148661 -0.047953693057174118
leaf_weight=135 104 130 108 78 104 189 108 104 26 104 104 135 81 135 135 53 78 11.000000000000002 103 104 130 104 108 78 108 136 108 135 136 108 136 51 104 104 52 104 14.999999999999998 130 79 26 107 104 189 78 135 104 78 130 130 188 135 78 135 135 162 107 81 135 108 108 108 134
leaf_count=135 104 130 108 78 104 189 108 104 26 104 104 135 81 135 135 53 78 11 103 104 130 104 108 78 108 136 108 135 136 108 136 51 104 104 52 104 15 130 79 26 107 104 189 78 135 104 78 130 130 188 135 78 135 135 162 107 81 135 108 108 108 134
internal_value=0 0.0464149 -0.0325419 0.0738557 0.0279781 -0.0135614 -0.0475788 0.0648624 0.0970885 0.0392215 0.0167346 -0.0217679 -0.00336113 -0.0549882 -0.0389994 0.090732 0.0724253 0.116158 0.0577722 0.033922 0.0452276 0.0222101 0.00138441 0.0119033 -0.0173587 -0.0585329 -0.026177 -0.0348269 -0.043172 -0.00843308 -0.0507347 0.0966176 0.0686549 0.0767343 0.0860235 0.0545361 0.12825 0.0367745 0.061933 0.110112 0.00380215 0.0307129 -0.060516 0.0479255 -0.0194147 0.0197052 0.0250728 0.00962313 0.0144686 -0.0565498 -0.0283652 0.0421444 -0.032869 -0.0239889 -0.0450587 -0.0410757 -0.0061985 -0.0526025 -0.0147886 -0.0370023 -0.00136594 -0.0488668
internal_weight=0 2782 3968 1118 1664 1754 2214 806 312 832 832 972 782 1188 1026 234 390 78 416 442 390 390 404 442 486 648 486 513 513 378 540 104 208 182 130 234 26 234 182 52 215 208 324 208 270 208 182 234 208 324 243 182 270 243 270 243 189 270 216 243 189 270
internal_count=6750 2782 3968 1118 1664 1754 2214 806 312 832 832 972 782 1188 1026 234 390 78 416 442 390 390 404 442 486 648 486 513 513 378 540 104 208 182 130 234 26 234 182 52 215 208 324 208 270 208 182 234 208 324 243 182 270 243 270 243 189 270 216 243 189 270
is_linear=0
shrinkage=0.05


Tree=3
num_leaves=63
num_cat=0
split_feature=9 10 9 9 9 9 9 9 17 14 9 18 19 9 18 18 9 9 9 9 14 19 10 9 9 9 9 9 9 9 19 21 12 11 9 9 10 55 9 9 9 12 9 9 12 9 14 12 12 9 9 11 27 12 9 10 9 12 17 10 14 10
split_gain=3680.59 508.102 408.864 84.3419 75.9411 55.0592 48.7104 15.6113 13.6851 8.86042 8.72715 7.38867 6.79134 6.40702 5.98464 3.03878 2.28616 2.0257 1.42856 1.39595 1.12869 1.07734 1.05828 0.970242 0.958863 0.837011 0.798495 0.797551 0.722781 0.705263 0.683621 0.476721 0.284281 0.280155 0.260818 0.241402 0.241301 0.214851 0.192259 0.174877 0.146002 0.137331 0.135196 0.134771 0.134243 0.130601 0.125696 0.124678 0.119971 0.117284 0.114165 0.111867 0.108952 0.107974 0.107606 0.104462 0.101178 0.0997395 0.0978144 0.0969487 0.0967449 0.0955327
threshold=99.383755637828543 160.53226599039496 46.479743605513193 202.94321837644415 129.32739550853947 71.901514681795831 23.699547836763525 180.38783643659249 228.93498691453325 114.00225416158824 145.58542695309526 58.534514368193065 84.553245660034875 34.553774108748875 12.746447480838727 253.93108548603723 190.44616639773946 170.68142263510131 138.32344262802172 212.93339369790564 106.91810767910833 65.100622309348111 121.65388824004052 91.839598681129033 152.92189408598264 52.608786550170237 18.05019650268871 40.422358406005891 7.4887809279267676 28.944437860213196 77.693849830315756 241.33475182475945 186.35540652990684 197.23956933007614 165.63722289233189 133.30912864242705 219.24605035883573 195.98057256669085 176.66110522573163 103.33642487060864 61.137332614068107 117.8050106131487 126.08320660082713 207.48890150075945 87.989868137409005 68.243677170417769 95.628686678734979 9.434206374023427 110.51735912713012 148.71806230835585 49.788949608738285 142.26684798234643 234.22560033224528 156.80876165495692 20.59538494060839 5.0435161453636903 55.821544381700896 26.383225286565871 31.345132641623536 15.305941657725727 80.454997677177545 43.120054167861944
decision_type=2 2 2 2 2 2 2 2 2 2 2 2 2 2 2 2 2 2 2 2 2 2 2 2 2 2 2 2 2 2 2 2 2 2 2 2 2 2 2 2 2 2 2 2 2 2 2 2 2 2 2 2 2 2 2 2 2 2 2 2 2 2
left_child=2 4 6 7 9 11 14 17 19 20 18 25 30 29 28 31 32 34 35 43 39 40 41 44 49 50 59 -15 55 57 -7 52 -9 -18 -3 -6 -21 -17 -19 -2 -13 -11 -24 -5 -14 -23 -25 -30 -22 -12 -4 -20 -10 -26 -28 -1 -27 -8 -31 -16 -32 -29
right_child=1 3 5 8 10 12 13 16 15 22 24 21 23 27 26 37 33 38 51 36 48 45 42 46 53 56 54 61 47 58 60 -33 -34 -35 -36 -37 -38 -39 -40 -41 -42 -43 -44 -45 -46 -47 -48 -49 -50 -51 -52 -53 -54 -55 -56 -57 -58 -59 -60 -61 -62 -63
leaf_value=-0.058814918023568613 0.0080953552344670675 0.050311203323877778 -0.028369815923549514 0.078935688160932993 0.028403118596627166 -0.01013652668507011 -0.044131909343931408 0.063793019973314727 0.097144726912180582 0.01807156147865149 0.039301453034083056 -0.020320052005074644 -0.0022183936908496201 -0.0355879455068965 -0.051654636462529505 0.11730381433780374 0.07119936450169638 0.057430205780726218 0.034734046172637208 0.086519437225965362 0.013132812963941923 -0.015602985245210152 0.023396923364355015 0.0028277932467904911 0.044844876602292062 -0.024163022615291456 -0.047992771069208781 -0.032580040229691402 -0.05548918821193554 -0.040579523808426332 -0.0071760810639073212 0.10763904819121728 0.067611204431607175 0.075163433337822938 0.053670576501351146 0.031635034221869245 0.091336288475073302 0.12639418748708872 0.060714070002237955 0.010688819518456093 -0.01794669783593696 0.020641088471389735 0.026150669195713142 0.082535513547750627 0.00027459008852019905 -0.013270237837676649 0.0054426816664636139 -0.05349970873070773 0.015534449540651763 0.041866300083123725 -0.02618878578974141 0.037053141485040006 0.10172549057006837 0.047305814081277604 -0.04608141075313827 -0.056847949292924672 -0.022109789773821831 -0.04220991675500517 -0.038560712028432781 -0.04975972372072715 -0.0048935530306858446 -0.030699016827124139
leaf_weight=135 130 130 135 52 104 189 135 130 27 104 78 108 108 243 135 13.000000000000002 104 104 104 52 104 108 104 108 104 135 135 135 135 108 82 26 78 78 104 130 52 12.999999999999998 78 130 162 104 78 52 108 135 80 189 104 104 108 104 25 78 162 135 108 135 135 135 107 135
leaf_count=135 130 130 135 52 104 189 135 130 27 104 78 108 108 243 135 13 104 104 104 52 104 108 104 108 104 135 135 135 135 108 82 26 78 78 104 130 52 13 78 130 162 104 78 52 108 135 80 189 104 104 108 104 25 78 162 135 108 135 135 135 107 135
internal_value=0 0.0440945 -0.030915 0.0701633 0.0265794 -0.0131295 -0.0453988 0.061619 0.0922363 0.0162267 0.0376001 -0.0209076 -0.00319305 -0.037461 -0.0524135 0.107046 0.0688058 0.0548813 0.0328786 0.0848317 0.0115883 -0.0167223 0.0217927 0.00131407 0.0433333 -0.0253255 -0.0487392 -0.0335098 -0.0559208 -0.0414121 -0.00801019 0.102111 0.0652248 0.0728983 0.0518043 0.0301986 0.0889279 0.121849 0.0588376 0.00939209 -0.018896 0.0193563 0.0245771 0.0807356 -0.000971902 -0.014307 0.00394051 -0.0543287 0.0143336 0.0407671 -0.0274005 0.0358936 0.099347 0.0458996 -0.0469502 -0.0578314 -0.0232505 -0.0431709 -0.039458 -0.0507072 -0.00588386 -0.0316395
internal_weight=0 2782 3968 1118 1664 1781 2187 806 312 858 806 999 782 1026 1161 104 390 416 442 208 468 513 390 404 364 486 567 513 594 513 378 78 208 182 234 234 104 26 182 260 270 208 182 104 216 243 188 324 208 182 243 208 52 182 297 270 243 270 243 270 189 270
internal_count=6750 2782 3968 1118 1664 1781 2187 806 312 858 806 999 782 1026 1161 104 390 416 442 208 468 513 390 404 364 486 567 513 594 513 378 78 208 182 234 234 104 26 182 260 270 208 182 104 216 243 188 324 208 182 243 208 52 182 297 270 243 270 243 270 189 270
is_linear=0
shrinkage=0.05


Tree=4
num_leaves=63
num_cat=0
split_feature=10 10 18 10 15 10 13 11 11 11 13 11 15 11 10 27 10 10 13 17 10 15 10 33 15 15 14 13 11 17 17 15 10 14 11 33 15 2 16 14 13 11 13 16 19 13 14 16 11 15 18 13 11 27 11 10 13 10 10 13 10 10
split_gain=3321.75 458.592 369.015 73.2894 71.8852 47.8159 46.0144 12.9067 12.3593 8.72907 8.00652 6.28631 6.17768 5.84826 5.55071 2.75206 2.24413 1.41184 1.29433 1.2612 1.05357 1.01841 0.956039 0.941254 0.872213 0.743629 0.725617 0.689821 0.672742 0.643573 0.605593 0.429107 0.252469 0.21636 0.207496 0.207363 0.19472 0.181701 0.162607 0.161142 0.158816 0.157786 0.157432 0.140071 0.128415 0.125559 0.123957 0.121776 0.121535 0.113141 0.108603 0.108436 0.0970972 0.0964296 0.0942736 0.0938841 0.0882896 0.0806066 0.0779098 0.0772579 0.0754412 0.0726954
threshold=99.308005391429035 161.65752023161721 47.59644106447498 202.66209643200159 129.3731130022415 24.615356297391944 72.696131839695184 182.40755039696339 229.27377753980076 145.66711136181632 114.21014073265867 14.163907681717399 60.341258088766338 35.910800977845547 85.494672742134867 253.43357066234077 172.56689521597244 192.18973524412448 137.32371114347794 213.07062551007024 154.36698651384899 106.83701760458308 121.65388824004052 8.8843736648559588 54.454393595314073 66.84378032358083 92.655739419235985 41.623138252592831 30.763844644702399 79.56044823279494 19.479552287265268 241.23660759784008 166.96392938480702 218.81572050980151 177.70286676005483 5.6326744556427011 187.736136042044 115.50000000000001 196.84085184064193 133.19241427388133 103.3767594222427 141.50592785008396 149.9445906513279 51.282712423538136 88.878946921905197 117.72495723717257 126.09337950282205 75.904557392616951 207.56867703380087 27.444781007076568 44.938577811566702 111.59725643869145 64.094434935236151 234.22560033224528 158.2427833627489 57.794608906289078 38.924407663975344 11.461728746376432 17.33734605965213 69.764772580813073 96.750620533191267 22.070749047052896
decision_type=2 2 2 2 2 2 2 2 2 2 2 2 2 2 2 2 2 2 2 2 2 2 2 2 2 2 2 2 2 2 2 2 2 2 2 2 2 2 2 2 2 2 2 2 2 2 2 2 2 2 2 2 2 2 2 2 2 2 2 2 2 2
left_child=2 4 5 7 10 11 12 16 19 18 21 23 24 28 29 31 32 36 39 48 42 40 45 35 43 52 44 56 49 47 58 53 -3 -21 -18 -1 -9 -17 -19 -6 -2 -20 -11 -4 -16 -12 -24 -8 -5 -7 -29 -23 -14 -10 -22 -26 -15 -25 -13 -27 -28 -32
right_child=1 3 6 8 9 13 14 17 15 20 22 30 25 27 26 37 34 38 41 33 54 51 46 57 55 59 60 50 -30 -31 61 -33 -34 -35 -36 -37 -38 -39 -40 -41 -42 -43 -44 -45 -46 -47 -48 -49 -50 -51 -52 -53 -54 -55 -56 -57 -58 -59 -60 -61 -62 -63
leaf_value=-0.055679436878192649 0.0076858561256757151 0.048499493209215316 -0.026058303780025906 0.074985687663921941 0.026957843373122726 -0.041194994604146044 -0.009995071217417717 0.061898707942320753 0.09230856917522573 0.037689273546521483 0.017163840093864843 -0.047813155695244122 -0.017770403998869436 -0.033817075181890414 -0.0015597717045306193 0.11248203814029692 0.055527051480916835 0.068183006766514898 0.032332184452276966 0.082201179976646721 0.043288476163378137 0.012731228367640422 0.022224428647985826 -0.051477548257628486 -0.021669407089551292 -0.013790029549488315 0.0033357579140337532 -0.030105019731024293 -0.036458645898986751 -0.0046388835807181436 -0.044591264768883032 0.10224748230897462 0.051804661894073858 0.086762306667291206 0.058685496850655633 -0.053317137448875999 0.065203525240604701 0.12107366323471069 0.07141155103842417 0.029741356741814384 0.010157355545805052 0.034945088258156412 0.040440423557391539 -0.023780625727441579 0.00087849772190330211 0.019620763882994652 0.02486122814126504 -0.0076206700738381461 0.078404168555369746 -0.03923509371133499 -0.028054863827250826 0.015089363260911063 -0.015759007177419133 0.096618050575256353 0.045587993661562604 -0.019691570710252834 -0.031899072643783354 -0.049819904197881251 -0.046079436937967941 -0.011898798398949483 0.0056389880559916776 -0.042950403999399256
leaf_weight=163 130 130 135 52 103 135 108 104 27 104 104 162 135 135 108 16.000000000000004 104 78 104 52 104 130 104 134 135 108 108 163 216 162 135 26 104 52 104 216 78 9.9999999999999982 78 105 130 130 104 135 108 104 78 108 52 162 107 78 108 25 78 108 108 162 108 108 53 135
leaf_count=163 130 130 135 52 103 135 108 104 27 104 104 162 135 135 108 16 104 78 104 52 104 130 104 134 135 108 108 163 216 162 135 26 104 52 104 216 78 10 78 105 130 130 104 135 108 104 78 108 52 162 107 78 108 25 78 108 108 162 108 108 53 135
internal_value=0 0.0418898 -0.0293693 0.0671442 0.0255716 -0.0427547 -0.0120001 0.0589518 0.0876251 0.0360436 0.015417 -0.0494663 -0.0191931 -0.0348069 -0.00273967 0.101699 0.0533274 0.0663069 0.0312328 0.0805883 0.0414958 0.0110078 0.020708 -0.0526831 -0.0229636 -0.014979 0.00155318 -0.031032 -0.0385818 -0.00702116 -0.0454453 0.0970028 0.0499685 0.0844817 0.0571063 -0.0543331 0.0633151 0.115787 0.0697973 0.028363 0.00892161 0.0337838 0.0390648 -0.0249195 -0.000340637 0.0183923 0.0233545 -0.00880787 0.0766949 -0.040126 -0.0292926 0.0136155 -0.0168764 0.0943804 0.044274 -0.0207904 -0.0329646 -0.0505703 -0.0471197 -0.0128444 0.00409396 -0.0437708
internal_weight=0 2782 3968 1092 1690 2241 1727 780 312 832 858 1215 972 1026 755 104 442 338 442 208 390 468 390 675 513 459 377 513 513 378 540 78 234 104 208 379 182 26 156 208 260 234 208 270 216 208 182 216 104 297 270 208 243 52 182 243 243 296 270 216 161 270
internal_count=6750 2782 3968 1092 1690 2241 1727 780 312 832 858 1215 972 1026 755 104 442 338 442 208 390 468 390 675 513 459 377 513 513 378 540 78 234 104 208 379 182 26 156 208 260 234 208 270 216 208 182 216 104 297 270 208 243 52 182 243 243 296 270 216 161 270
is_linear=0
shrinkage=0.05


Tree=5
num_leaves=63
num_cat=0
split_feature=15 9 9 15 9 9 14 11 9 9 14 11 17 9 9 23 9 9 9 12 9 9 11 9 9 17 9 17 19 12 9 27 9 24 14 9 9 15 2 9 9 12 9 12 9 12 9 18 9 11 27 9 11 9 9 9 9 10 9 12 9 11
split_gain=2997.89 413.905 333.047 66.1535 64.8914 43.1615 41.5355 11.6404 11.1505 7.8742 7.21597 6.08844 5.67308 5.28041 4.51642 2.49181 2.02934 1.28237 1.17016 1.13715 0.951853 0.925439 0.913044 0.867213 0.852579 0.720092 0.673448 0.593371 0.544801 0.532789 0.524304 0.389986 0.228839 0.20169 0.187271 0.187001 0.186621 0.17282 0.16381 0.160249 0.146084 0.143586 0.143312 0.143295 0.127531 0.125629 0.11384 0.109875 0.103626 0.0990621 0.0856217 0.0851552 0.0839332 0.0779833 0.0736957 0.0729453 0.0712774 0.0690657 0.0688419 0.0680923 0.067228 0.0644235
threshold=99.319205501561285 161.65361265300444 47.752901801488754 202.39013195809753 129.32739550853947 24.605049080614283 73.418347279907621 182.40755039696339 228.99800252527254 145.58542695309526 114.00225416158824 61.192250211373953 14.239309740376685 36.572997591421164 86.226072438303035 254.69187176871196 172.45392588226667 192.31127180377322 137.32777095838495 212.74967476073456 154.44168702524448 107.81078573550853 54.381342258882185 122.78381479667017 8.8844783410551731 31.345132641623536 67.610116366340392 79.56044823279494 19.583966629513679 92.646214918694355 42.595927159975744 242.40716004163318 166.85810480987658 219.82935430119338 104.12756335586481 6.2095666533196328 177.78504577275694 187.736136042044 112.50000000000001 119.01651362106666 198.82746219772102 149.83414211816108 141.42809059033172 133.34902872582782 27.618677072101004 51.062715794708772 57.760164347029097 207.81474820359168 39.687658684735247 83.327446554801114 234.22560033224528 158.24598810941285 64.094434935236151 90.104201500187429 11.997847578206162 75.827424450913171 17.394800690983711 70.354532677420167 96.727117248471203 125.94819901973464 22.630920461362141 111.59441802237365
decision_type=2 2 2 2 2 2 2 2 2 2 2 2 2 2 2 2 2 2 2 2 2 2 2 2 2 2 2 2 2 2 2 2 2 2 2 2 2 2 2 2 2 2 2 2 2 2 2 2 2 2 2 2 2 2 2 2 2 2 2 2 2 2
left_child=2 4 5 7 10 12 11 16 19 18 21 22 24 25 27 31 32 37 43 47 41 34 45 39 35 44 52 55 56 53 48 50 -3 -21 -2 -1 -18 -9 -17 -12 -19 -11 -20 -6 -7 -4 -24 -5 -15 -29 -10 -22 -13 -16 -26 -8 -14 -28 -31 -25 -30 -23
right_child=1 3 6 8 9 13 14 17 15 20 23 26 28 30 29 38 36 40 42 33 51 61 46 59 54 -27 57 49 60 58 -32 -33 -34 -35 -36 -37 -38 -39 -40 -41 -42 -43 -44 -45 -46 -47 -48 -49 -50 -51 -52 -53 -54 -55 -56 -57 -58 -59 -60 -61 -62 -63
leaf_value=-0.052736890694451713 0.0075171435204071883 0.046070405542850495 -0.024752504516530924 0.071240157920580652 0.025631979680978335 -0.039133601012053321 -0.0092212684544516199 0.058803772869018417 0.087693138034255422 0.035796213837770312 0.016572212714415332 -0.016630061619259694 -0.045425386506098286 -0.031733553851092305 -0.00090379226280169365 0.10499880552291868 0.052758900190775219 0.065234031929419595 0.03071514772107968 0.078057414178664866 0.041124580055475236 0.012431307058208265 -0.020588690219102083 0.02151068680179425 -0.04876392154413977 -0.034232849641530602 -0.012648143757272651 -0.0051163397763890252 -0.04222996610182303 0.0031656462587071237 -0.02744901580391107 0.09714531233677498 0.04921709780509656 0.082461190223693859 0.01008667548115437 -0.050512679591380727 0.055754260661510326 0.061917200455298797 0.1131564773619175 0.019205434835300999 0.068479786584010494 0.038423600420355801 0.03320533064695505 0.028256702050566674 -0.037121485654639186 -0.022595437588515108 -0.018535331288973493 0.074490528840285092 -0.029774469909844576 -0.0028032090100977157 0.091753939390182504 0.043310062510844988 -0.014759977448869636 0.0011485377829636874 -0.047182146067972539 -0.0072363388207223687 -0.043767104684202758 -0.010859992127451631 0.0053658325225114829 0.023599918263080794 -0.040619477491687844 0.014332227733654855
leaf_weight=189 156 130 135 52 104 135 81 104 27 104 130 108 162 135 108 10.000000000000002 104 104 104 52 104 104 135 78 162 216 108 108 162 108 216 26 104 52 130 189 104 78 15.999999999999998 104 52 104 130 104 189 135 135 52 135 81 25 78 135 81 135 108 108 108 53 78 108 78
leaf_count=189 156 130 135 52 104 135 81 104 27 104 130 108 162 135 108 10 104 104 104 52 104 104 135 78 162 216 108 108 162 108 216 26 104 52 130 189 104 78 16 104 52 104 130 104 189 135 135 52 135 81 25 78 135 81 135 108 108 108 53 78 108 78
internal_value=0 0.0397954 -0.0279009 0.0637878 0.0242927 -0.0406173 -0.0113999 0.0560045 0.0832461 0.0342422 0.0146446 -0.0180193 -0.0469938 -0.0330661 -0.00231644 0.0966138 0.0506631 0.0629894 0.0296731 0.0765623 0.0394205 0.0104588 -0.021618 0.0196676 -0.0500497 -0.0364691 -0.0137855 -0.00610601 -0.0431739 0.00177629 -0.0292851 0.0921454 0.0474689 0.0802593 0.00868511 -0.0516248 0.0542566 0.0601381 0.110019 0.0177425 0.066316 0.0371099 0.0320986 0.0269443 -0.0379599 -0.023674 -0.019562 0.0728653 -0.030754 -0.004125 0.0896454 0.0420612 -0.0155911 -2.42222e-05 -0.0480449 -0.00808702 -0.0447621 -0.0117541 0.00388993 0.0225553 -0.0415858 0.013246
internal_weight=0 2782 3968 1092 1690 2241 1727 780 312 832 858 999 1215 1026 728 104 442 338 442 208 390 468 540 390 675 540 459 378 540 350 486 78 234 104 286 378 208 182 26 234 156 208 234 208 324 270 270 104 270 189 52 182 243 189 297 189 270 216 161 156 270 182
internal_count=6750 2782 3968 1092 1690 2241 1727 780 312 832 858 999 1215 1026 728 104 442 338 442 208 390 468 540 390 675 540 459 378 540 350 486 78 234 104 286 378 208 182 26 234 156 208 234 208 324 270 270 104 270 189 52 182 243 189 297 189 270 216 161 156 270 182
is_linear=0
shrinkage=0.05


Tree=6
num_leaves=63
num_cat=0
split_feature=9 9 15 26 9 10 9 11 13 9 9 9 11 9 16 19 9 9 14 12 10 12 9 9 9 9 9 30 14 9 9 21 9 2 24 9 15 9 15 11 9 9 9 14 12 9 9 11 9 9 9 9 13 10 9 19 22 10 10 9 14 11
split_gain=2705.67 365.924 308.503 59.7131 56.1476 39.6643 38.9604 10.503 10.068 6.67709 6.49046 5.49586 5.49356 4.54803 4.41438 2.2563 1.83148 1.15617 1.03151 1.02368 0.860361 0.824642 0.803674 0.769108 0.697338 0.618347 0.607426 0.567476 0.565067 0.537387 0.472705 0.351852 0.206527 0.190171 0.186343 0.172441 0.170778 0.168426 0.15597 0.133474 0.121514 0.113997 0.102514 0.101474 0.0989269 0.0987036 0.0933746 0.0932557 0.091334 0.090943 0.0888658 0.0862009 0.0860446 0.080184 0.0768526 0.0762373 0.0761793 0.0663731 0.0621732 0.0605087 0.0604499 0.0597385
threshold=100.13678834320801 161.65361265300444 47.821334822971018 202.84036102345766 130.26063505321136 73.4926233979795 25.263813818289687 182.40755039696339 229.4191163576115 115.05258938122287 146.51947915894786 14.23320278138617 61.192250211373953 86.226072438303035 36.659613012993155 252.783273895977 172.45392588226667 192.31127180377322 139.41029525000781 212.74967476073456 107.79915776042067 54.48050397465753 122.78381479667017 8.8844783410551731 154.44168702524448 93.771991497482318 67.610116366340392 31.4623426822582 20.076244054986699 80.4639749045797 42.595927159975744 241.33475182475945 166.85810480987658 112.50000000000001 222.9323781847352 134.52936072537878 5.5557993396999388 177.78504577275694 187.736136042044 197.23956933007614 103.98496858613272 50.509345245669813 57.760164347029097 90.121013512778518 207.66828963682136 119.01651362106666 39.687658684735247 76.712532160972941 28.388228262899137 150.68939559805111 127.27111936584505 17.394800690983711 111.59725643869145 142.93683437080784 158.24598810941285 63.955397992650518 234.74393187292478 11.461728746376432 70.354532677420167 22.630920461362141 96.880602308390579 83.327446554801114
decision_type=2 2 2 2 2 2 2 2 2 2 2 2 2 2 2 2 2 2 2 2 2 2 2 2 2 2 2 2 2 2 2 2 2 2 2 2 2 2 2 2 2 2 2 2 2 2 2 2 2 2 2 2 2 2 2 2 2 2 2 2 2 2
left_child=2 4 6 7 9 12 11 16 19 20 18 23 21 29 27 31 32 38 35 44 40 41 45 36 49 43 55 48 51 47 46 56 -3 -17 -21 -6 -1 -18 -9 -19 -2 -4 -23 -15 -5 -11 -16 -7 -8 -12 -24 -13 -22 -20 -26 -14 -10 -25 -28 -30 -27 -31
right_child=1 3 5 8 10 13 14 17 15 22 24 28 26 25 30 33 37 39 53 34 52 42 50 57 54 60 58 -29 59 61 -32 -33 -34 -35 -36 -37 -38 -39 -40 -41 -42 -43 -44 -45 -46 -47 -48 -49 -50 -51 -52 -53 -54 -55 -56 -57 -58 -59 -60 -61 -62 -63
leaf_value=-0.050270727939075902 0.0074223814159631724 0.043766885193494649 -0.02374895261945548 0.067684444785118106 0.024958868009539753 -0.0084716781628904527 -0.03668522823739935 0.055863587157084393 0.083247191630876988 0.01606677734794525 0.034613269538833549 -0.043152722495573538 -0.015801729910351611 -0.00086240325946602275 -0.030145401402756025 0.099549943750554842 0.050120954358806979 0.061534642867552926 0.030333941687758156 0.075019981005252936 0.011800701515032696 -0.019557103106269132 0.020748764075911964 -0.046462248122250596 0.03906835094094277 0.0033625623947124423 -0.012015736682547464 -0.032512848307920054 -0.039963162166100963 -0.0045833508311598388 -0.026077418339749178 0.092284702108456546 0.046756242502194185 0.1082053303718567 0.079907730909494268 0.027690423635336071 -0.048123157327925721 0.052966545751461619 0.058821341166129484 0.064459711466080108 0.0095842317721018429 -0.021651808034490655 -0.017608564915480438 0.0013050575428038699 0.070768629931486568 0.018245163402305201 -0.028285746331568121 -0.0063938444825234241 -0.034927841254016934 0.036871801851651613 0.022981354670646867 -0.041441999342706475 0.013834604585113434 0.032297356827900962 0.041144560086421478 -0.014019441052719399 0.087074705499869134 -0.044961112627276673 -0.010319155171789506 -0.038466144314518683 0.0053064532719458209 -0.0026630485614324798
leaf_weight=162 130 130 108 52 104 108 162 104 26 104 104 162 108 108 135 11.000000000000002 104 78 104 78 104 135 104 135 104 81 108 215 135 81 216 26 104 14.999999999999998 26 130 216 104 78 78 130 162 135 108 52 104 135 108 136 78 78 135 104 104 78 135 26 162 108 135 79 81
leaf_count=162 130 130 108 52 104 108 162 104 26 104 104 162 108 108 135 11 104 78 104 78 104 135 104 135 104 81 108 215 135 81 216 26 104 15 26 130 216 104 78 78 130 162 135 108 52 104 135 108 136 78 78 135 104 104 78 135 26 162 108 135 79 81
internal_value=0 0.0381083 -0.0262961 0.0605984 0.0233492 -0.0105843 -0.0385865 0.0532037 0.0790853 0.0144473 0.0328254 -0.0444991 -0.0171183 -0.00192712 -0.0312356 0.0917875 0.04813 0.0598386 0.0287537 0.0727342 0.0104208 -0.0205367 0.0192791 -0.0475475 0.0377697 0.00196645 -0.0130967 -0.0344707 -0.0408701 -0.00580009 -0.0278208 0.0875355 0.0450955 0.104543 0.0762419 0.0264764 -0.0490435 0.0515438 0.0571312 0.0629972 0.00850331 -0.0224907 -0.0185828 0.000221327 0.0692265 0.017156 -0.0292156 -0.00743276 -0.0358832 0.0355812 0.0217056 -0.0423751 0.0128177 0.0313156 0.0399582 -0.0148116 0.0851609 -0.0456434 -0.0111674 -0.0392147 0.00432236 -0.0036232
internal_weight=0 2756 3994 1092 1664 1753 2241 780 312 858 806 1242 999 754 999 104 442 338 442 208 468 540 390 675 364 376 459 513 567 378 486 78 234 26 104 234 378 208 182 156 260 270 270 216 104 208 270 216 298 182 182 297 208 208 182 243 52 297 216 270 160 162
internal_count=6750 2756 3994 1092 1664 1753 2241 780 312 858 806 1242 999 754 999 104 442 338 442 208 468 540 390 675 364 376 459 513 567 378 486 78 234 26 104 234 378 208 182 156 260 270 270 216 104 208 270 216 298 182 182 297 208 208 182 243 52 297 216 270 160 162
is_linear=0
shrinkage=0.05


Tree=7
num_leaves=63
num_cat=0
split_feature=13 9 17 17 9 14 13 9 17 9 9 33 18 9 9 27 9 9 9 17 9 9 29 15 10 9 14 17 17 9 9 29 12 10 10 9 9 2 9 10 10 19 33 9 9 13 9 9 9 12 9 9 9 9 9 9 15 27 15 9 33 9
split_gain=2441.89 330.242 278.456 53.8979 50.6704 35.7893 35.1546 9.47831 9.09264 6.02478 5.85764 4.96098 4.95426 4.1024 3.98137 2.03821 1.6526 1.04696 0.933029 0.926829 0.778003 0.725316 0.70182 0.64784 0.640486 0.629347 0.558583 0.513168 0.507431 0.48598 0.425326 0.321713 0.206957 0.187564 0.16942 0.154903 0.144631 0.13902 0.126397 0.115136 0.107939 0.094201 0.0920293 0.0912798 0.08908 0.0885276 0.082076 0.0817247 0.0808502 0.0797054 0.0795584 0.0769625 0.0736697 0.0730201 0.0719643 0.0717484 0.0705065 0.067178 0.063816 0.0598886 0.0591253 0.054256
threshold=100.21135364177347 161.65361265300444 47.600806448536794 202.52952975250932 130.26063505321136 73.418347279907621 25.153215060588376 182.48030396595601 228.93498691453325 115.05258938122287 146.51947915894786 14.008517265319826 60.507876807486433 86.226072438303035 36.572997591421164 253.43357066234077 172.45392588226667 193.80641579737249 138.32344262802172 213.07062551007024 108.87915640754198 122.78381479667017 7.7665455058660848 66.84378032358083 53.733336952660302 154.44168702524448 93.778160950554152 31.345132641623536 19.479552287265268 79.737773401650401 42.11208330873437 241.95965092368093 187.78352084855632 168.25733691542288 219.24605035883573 176.66110522573163 104.95455867638877 115.50000000000001 10.600124241771089 134.52657714871629 142.93683437080784 56.604149872061548 4.1723654270172128 90.104201500187429 119.01651362106666 207.47044759823018 150.68939559805111 126.08320660082713 28.388228262899137 70.334836246555781 83.282193144425733 50.509345245669813 45.518028395591251 198.82746219772102 63.10991410081683 22.630920461362141 156.97598764402122 234.22560033224528 39.649137747424959 75.827424450913171 16.437303543090824 96.727117248471203
decision_type=2 2 2 2 2 2 2 2 2 2 2 2 2 2 2 2 2 2 2 2 2 2 2 2 2 2 2 2 2 2 2 2 2 2 2 2 2 2 2 2 2 2 2 2 2 2 2 2 2 2 2 2 2 2 2 2 2 2 2 2 2 2
left_child=2 4 6 7 9 12 11 16 19 20 18 22 24 29 27 31 33 32 39 45 36 44 42 54 51 46 43 48 60 59 58 57 -9 -3 -21 -18 -2 -17 -24 -6 -20 -26 -1 -15 -11 -5 -12 -23 -8 -25 -31 -4 -32 -19 -14 -30 -27 -10 -16 -7 -13 -28
right_child=1 3 5 8 10 13 14 17 15 21 25 28 23 26 30 37 35 53 40 34 -22 47 38 49 41 56 61 -29 55 50 52 -33 -34 -35 -36 -37 -38 -39 -40 -41 -42 -43 -44 -45 -46 -47 -48 -49 -50 -51 -52 -53 -54 -55 -56 -57 -58 -59 -60 -61 -62 -63
leaf_value=-0.048137412377453725 0.00724797313555311 0.041839744475407475 -0.02254530903365877 0.064300114145645723 0.023703045727541814 -0.0083297782934006349 -0.034849317813361133 0.053068840876221657 0.079162252611584147 0.015263438411056996 0.032882605980222045 -0.041299063464005789 -0.015430952125677355 -0.00081949629820883281 -0.028636227161796007 0.096436793357133843 0.047204447251099811 0.059398365937746493 0.028521370268785037 0.070416094591984377 0.012456212598052654 0.019396875798702241 -0.044796953512274702 -0.011627851492828793 -0.019155948167597806 0.03682388021395757 0.0031968727753854094 -0.030893262544715847 -0.038105553554164041 -0.0046048423447818667 -0.025568787974339948 0.087703372881962713 0.05622317750866597 0.044842657370445058 0.074452232626768255 0.050022911475254943 0.0095061057060956966 0.103951895236969 -0.042947936772201468 0.026055790254702938 0.030682488989371523 -0.017249564302188377 -0.046313109442039778 0.0012362076710107632 0.01733290537332113 0.067217694222927102 0.035028211275736493 0.021537884124196494 -0.033192539126784715 -0.0098054743544371045 -0.0025318889085341385 -0.020754563389001071 -0.023721997311085832 0.061817243924507728 -0.013699330737193425 -0.036544815942093183 0.038812521186012493 0.082759193897247327 -0.027005582661540423 -0.0065312440334646801 -0.039786867917694667 0.0050384826250845878
leaf_weight=109 156 156 108 52 104 81 162 104 27 104 104 108 108 108 135 16.000000000000004 78 78 130 52 182 78 161 135 108 78 81 216 162 108 162 26 104 78 52 130 130 9.9999999999999982 217 104 104 162 189 108 104 52 78 104 135 108 81 135 81 52 135 135 104 25 108 108 161 79
leaf_count=109 156 156 108 52 104 81 162 104 27 104 104 108 108 108 135 16 78 78 130 52 182 78 161 135 108 78 81 216 162 108 162 26 104 78 52 130 130 10 217 104 104 162 189 108 104 52 78 104 135 108 81 135 81 52 135 135 104 25 108 108 161 79
internal_value=0 0.0362031 -0.0249814 0.0575685 0.022182 -0.0100543 -0.0366579 0.0505431 0.0751322 0.0137254 0.0311842 -0.0422744 -0.016261 -0.0018309 -0.0296753 0.0872034 0.0457232 0.056846 0.027316 0.0690965 0.00990066 0.0183152 -0.0451659 -0.0126434 -0.0196882 0.0358812 0.001867 -0.0327476 -0.0388209 -0.00550924 -0.0264323 0.0831622 0.054646 0.0428407 0.0724342 0.048966 0.0082744 0.0993272 -0.0437355 0.0248794 0.0294819 -0.0180121 -0.0469804 0.000208356 0.0162982 0.0657589 0.0338022 0.0206203 -0.0340962 -0.0108179 -0.00371643 -0.0215505 -0.0249532 0.0603659 -0.0144689 -0.0373961 0.0379602 0.0808916 -0.0279115 -0.00730204 -0.040394 0.00410617
internal_weight=0 2756 3994 1092 1664 1753 2241 780 312 858 806 1242 999 754 999 104 442 338 442 208 468 390 676 486 513 364 376 513 566 378 486 78 208 234 104 208 286 26 378 208 234 270 298 216 208 104 182 182 297 243 189 243 243 130 243 297 182 52 243 189 269 160
internal_count=6750 2756 3994 1092 1664 1753 2241 780 312 858 806 1242 999 754 999 104 442 338 442 208 468 390 676 486 513 364 376 513 566 378 486 78 208 234 104 208 286 26 378 208 234 270 298 216 208 104 182 182 297 243 189 243 243 130 243 297 182 52 243 189 269 160
is_linear=0
shrinkage=0.05


Tree=8
num_leaves=63
num_cat=0
split_feature=10 10 18 10 15 11 9 9 15 12 9 9 9 11 9 10 9 24 10 11 11 15 17 29 9 9 9 9 28 9 29 10 55 17 21 9 9 39 9 10 11 13 19 17 13 9 16 13 11 12 13 9 10 9 12 9 9 9 17 10 17 11
split_gain=2203.83 298.089 251.304 47.9604 46.7702 32.3011 31.7297 8.85687 7.2742 6.00078 5.34497 4.47274 4.17522 3.89845 3.69997 1.48063 1.25579 1.09975 1.0233 0.81676 0.792134 0.70326 0.671332 0.56306 0.543622 0.541712 0.503304 0.495652 0.470423 0.439658 0.375813 0.187619 0.166251 0.166012 0.137333 0.128555 0.125341 0.121248 0.120535 0.11492 0.0996355 0.0976309 0.0974413 0.0939606 0.0931411 0.0929894 0.0848827 0.0840823 0.0830956 0.0766014 0.0744578 0.0720123 0.0695718 0.0658371 0.0650435 0.0629916 0.0602904 0.0593141 0.0547682 0.050045 0.0489625 0.0483907
threshold=100.19615725642961 162.72850039069172 47.59644106447498 131.05089924203887 205.63893596117046 73.373321728014915 24.605049080614283 183.60922617764896 234.25453738100271 115.24940391354151 147.30130130133969 61.137332614068107 13.595416089709522 35.262832037481537 86.226072438303035 173.66524328807586 253.18378953962485 219.82935430119338 193.75995174840631 139.47036163498331 123.65861457161436 107.65487768463768 54.350813892292685 7.7665455058660848 155.37264741841889 40.993267088386723 93.771991497482318 67.610116366340392 19.049175262451175 80.4639749045797 29.660337880427345 168.25733691542288 195.98057256669085 213.07062551007024 228.78874341933351 178.8730244329077 189.30009275808925 239.21019219640138 198.82746219772102 120.00691193070799 103.90814720846434 135.45213911739299 44.801260257879512 51.28139125533815 143.70054549311996 10.600124241771089 57.771925815595374 4.9368140001109433 89.952137976673342 76.764251593804019 111.59725643869145 151.84446802601965 32.596932436994123 127.27111936584505 21.522853093875515 64.014506545856321 159.37857410123743 15.753152529092395 38.322755975171312 70.354532677420167 96.648535313216911 83.327446554801114
decision_type=2 2 2 2 2 2 2 2 2 2 2 2 2 2 2 2 2 2 2 2 2 2 2 2 2 2 2 2 2 2 2 2 2 2 2 2 2 2 2 2 2 2 2 2 2 2 2 2 2 2 2 2 2 2 2 2 2 2 2 2 2 2
left_child=2 3 6 9 7 11 12 15 17 21 19 22 23 30 29 31 37 33 36 41 39 40 43 47 51 58 48 55 57 49 -8 -3 -18 -6 -19 -17 -9 -10 -20 -11 -2 -5 -27 -4 -21 -25 -24 -1 -16 -7 -23 -12 -32 -22 -30 -13 -26 -14 -15 -29 -28 -31
right_child=1 4 5 10 8 14 13 18 16 20 24 27 28 25 26 35 32 34 38 44 53 50 46 45 56 42 60 59 54 61 52 -33 -34 -35 -36 -37 -38 -39 -40 -41 -42 -43 -44 -45 -46 -47 -48 -49 -50 -51 -52 -53 -54 -55 -56 -57 -58 -59 -60 -61 -62 -63
leaf_value=-0.045554239043483033 0.0066940480298720885 0.040102064724151905 -0.021228434542814895 0.02309641779328768 0.063235370012430056 -0.0076510008286546777 -0.032984215534124221 0.051165334135293963 0.078605824708938607 0.014744528669577379 0.031847594850338425 -0.014268559672766263 -0.03957705892346524 -0.027849018264699866 -0.00078266334075359977 0.045923178757612523 0.090389044926716719 0.070677549231286149 0.056430486455941814 0.02759359139662523 0.019035677917492697 0.010627445592903175 -0.01765631760712023 -0.042557106329047162 0.035785349830985073 -0.024678994857129599 0.0030341478501573023 -0.010837775599901324 -0.036596306650726884 -0.0041277797777711607 -0.030958156409087008 0.042951297072263868 0.098385466062105631 0.06688259622225394 0.075087538471928353 0.048409242125657892 0.053816810632363349 0.083438167095184326 0.059210159610479311 0.016974434170585414 0.0086516315318070931 0.025262934413666911 -0.022796313064517799 -0.019362952521553747 0.02960111312568188 -0.040921883718677304 -0.015883240070607926 -0.043867026296861338 0.0011787184758254121 -0.0057678220724617993 0.012519456145281977 0.033857359030307864 -0.029251148461181428 0.020957340629628073 -0.035110282971535199 -0.012648482587602403 0.037624282714648127 -0.038064328185570095 -0.02633838708753939 -0.0093156390857917284 0.0047836146871500377 -0.0023994628363001496
leaf_weight=135 130 130 135 104 78 108 244 104 27 130 104 108 108 135 108 104 13.000000000000002 51 78 130 78 104 135 161 104 189 81 108 135 81 135 104 12.999999999999998 52 27 104 78 25 78 104 130 104 108 135 104 189 135 163 108 108 104 78 107 104 162 135 78 162 108 108 79 81
leaf_count=135 130 130 135 104 78 108 244 104 27 130 104 108 108 135 108 104 13 51 78 130 78 104 135 161 104 189 81 108 135 81 135 104 13 52 27 104 78 25 78 104 130 104 108 135 104 189 135 163 108 108 104 78 107 104 162 135 78 162 108 108 79 81
internal_value=0 0.0343931 -0.0237324 0.0213332 0.0550978 -0.00955179 -0.0348251 0.048756 0.0723935 0.0132904 0.0301544 -0.0154482 -0.0402923 -0.0283507 -0.00173938 0.0440968 0.0854151 0.0675104 0.0548487 0.0264594 0.0176598 0.00940644 -0.0185327 -0.0430341 0.0346412 -0.0254268 0.00177246 -0.0118194 -0.0371589 -0.00523264 -0.0315995 0.0413684 0.0943873 0.0646943 0.0722041 0.0471662 0.0523017 0.0809291 0.0578203 0.0157356 0.00767284 0.0241797 -0.0239944 -0.0202957 0.0284858 -0.0416741 -0.0167698 -0.0446314 0.000198028 -0.00670941 0.0115735 0.0327089 -0.0302034 0.0201338 -0.0357857 -0.0133685 0.0365735 -0.0386694 -0.0271776 -0.0100767 0.00389795 -0.00326362
internal_weight=0 2756 3994 1690 1066 1753 2241 780 286 884 806 999 1215 1026 754 442 78 208 338 442 416 468 540 648 364 540 376 459 567 378 486 234 26 130 78 208 182 52 156 234 260 208 297 270 234 350 270 298 216 216 208 182 242 182 297 243 182 270 243 216 160 162
internal_count=6750 2756 3994 1690 1066 1753 2241 780 286 884 806 999 1215 1026 754 442 78 208 338 442 416 468 540 648 364 540 376 459 567 378 486 234 26 130 78 208 182 52 156 234 260 208 297 270 234 350 270 298 216 216 208 182 242 182 297 243 182 270 243 216 160 162
is_linear=0
shrinkage=0.05


Tree=9
num_leaves=63
num_cat=0
split_feature=9 12 9 9 14 12 9 13 9 13 9 14 11 9 9 23 9 10 9 10 13 13 9 15 9 14 17 17 15 13 9 15 11 11 18 9 15 2 12 9 14 11 14 9 9 13 9 15 9 15 10 12 14 9 9 11 24 9 9 12 29 14
split_gain=1988.96 280.327 215.357 47.4087 40.8081 29.21 25.2172 8.34477 8.27184 5.12559 4.2101 3.9655 3.64286 3.25781 3.21774 1.66741 1.16239 1.05797 1.00835 0.754057 0.691247 0.530227 0.518405 0.510689 0.506461 0.490615 0.487081 0.410698 0.354164 0.352554 0.31013 0.264582 0.153425 0.147782 0.145975 0.142593 0.134849 0.119467 0.107914 0.0919115 0.0864845 0.0858992 0.0848705 0.0841223 0.0767725 0.0753764 0.0724402 0.0718458 0.0714451 0.0687668 0.0657768 0.0654621 0.0610586 0.0589577 0.0587915 0.0551617 0.0529691 0.0483929 0.0461817 0.0450918 0.0440667 0.0431911
threshold=98.22859563686616 159.38998098803708 45.518028395591251 200.30617719318957 127.31458764658657 71.160702962373236 23.699547836763525 229.4191163576115 178.8730244329077 143.01234002435197 112.41775206318563 58.522444593253532 83.327446554801114 12.348789178527062 34.054791160984259 254.69187176871196 189.30009275808925 169.71334385407428 212.93339369790564 150.81563626991419 135.45213911739299 51.944590590557603 119.88524299587563 90.840479700357079 105.54433791345237 64.656841663526237 17.999995312558777 39.673062870757114 76.957009937920915 6.8188947423993378 28.388228262899137 241.23660759784008 163.82589904698639 193.77519381809819 222.49312100183866 183.60922617764896 205.63893596117046 112.50000000000001 173.69207007205543 155.37264741841889 101.80694811952594 131.10077611301637 139.41029525000781 147.30130130133969 115.87131177746616 9.5110352517296111 55.821544381700896 87.005506172749577 67.610116366340392 123.58616632111811 108.78899079492236 15.257332453916051 94.80626338558055 20.59538494060839 49.01637861151233 61.192250211373953 234.62660448234661 42.595927159975744 37.265860685848445 80.435039557788642 31.503138030145312 26.365009957972411
decision_type=2 2 2 2 2 2 2 2 2 2 2 2 2 2 2 2 2 2 2 2 2 2 2 2 2 2 2 2 2 2 2 2 2 2 2 2 2 2 2 2 2 2 2 2 2 2 2 2 2 2 2 2 2 2 2 2 2 2 2 2 2 2
left_child=2 4 6 8 10 11 13 18 17 20 24 21 28 29 30 31 35 32 36 43 41 54 44 47 40 55 51 58 -7 -1 61 56 -3 -18 -20 -10 -5 -17 -19 -21 -2 -6 -22 -11 -12 -31 -23 -14 -27 -24 -26 -15 -25 -28 -4 -13 -9 -29 -16 -30 -32 -8
right_child=1 3 5 7 9 12 14 15 16 19 22 25 23 26 27 37 33 38 34 39 42 46 49 52 50 48 53 57 59 45 60 -33 -34 -35 -36 -37 -38 -39 -40 -41 -42 -43 -44 -45 -46 -47 -48 -49 -50 -51 -52 -53 -54 -55 -56 -57 -58 -59 -60 -61 -62 -63
leaf_value=-0.042833784484752904 0.0052175846595603689 0.036060303850815843 -0.021164093304563453 0.056783690933997814 0.019910442685851685 -0.0078704054472307685 -0.032472792466481527 0.071403518777627212 0.045988779457715845 0.027905994699551507 0.01234965093004016 -0.014902262706999425 -0.0020877153660101748 -0.038055222913806822 -0.027043861239044755 0.08539223611354825 0.051124295172018885 0.041168733705312779 0.064279800806290074 0.031891331105278087 0.023992881264824135 -0.017917782077450813 0.016122563799413351 0.0016048026790721687 0.0087940310772794943 -0.011841291534128013 -0.035285727845297925 -0.024263349076112113 -0.0054782909203182767 -0.040944742730685643 -0.029947684288901447 0.079176769577539885 0.038636846725757311 0.054003369865509181 0.068605853273318362 0.048607068365583053 0.060070820038135235 0.092358822003006935 0.043628995177837526 0.033993430292377107 0.0071520400333863034 0.02194262552433289 0.026012859206933244 0.029983003437519074 0.014270844983939941 -0.039474961143216969 -0.016246028216900649 -0.00026393014955424909 -0.010115927954514822 0.018086516742522901 0.010572329242355549 -0.036564425185874654 0.0034208198549386896 -0.03387093034423428 -0.019598959524322442 -0.013386214386533807 0.074595126280417812 -0.022924570176336503 -0.025656693056225779 -0.0039176778200967818 -0.028591348801817851 -0.031131290175296644
leaf_weight=216 104 104 135 52 104 189 135 26 104 130 104 108 108 162 135 10.000000000000002 78 78 78 104 104 162 104 108 104 108 135 135 108 189 136 26 130 104 26 104 78 15.999999999999998 104 104 130 104 104 78 104 162 108 108 135 78 104 135 81 162 108 135 26 135 108 81 107 108
leaf_count=216 104 104 135 52 104 189 135 26 104 130 104 108 108 162 135 10 78 78 78 104 104 162 104 108 104 108 135 135 108 189 136 26 130 104 26 104 78 16 104 104 130 104 104 78 104 162 108 108 135 78 104 135 81 162 108 135 26 135 108 81 107 108
internal_value=0 0.0321581 -0.0229072 0.0512113 0.0190591 -0.0100405 -0.0335221 0.0669292 0.0446199 0.0268892 0.011229 -0.0157079 -0.00280979 -0.0385335 -0.0276981 0.0787137 0.0498513 0.0397155 0.0616917 0.0308136 0.0229647 -0.0187741 0.0150155 0.000485006 0.007888 -0.0124714 -0.0359458 -0.0249361 -0.00633993 -0.0412444 -0.0306135 0.0750585 0.0374917 0.0527695 0.0653613 0.0472979 0.058756 0.0896794 0.0425746 0.0329424 0.00629228 0.0209265 0.0250029 0.0286849 0.0133102 -0.0402664 -0.0172491 -0.00117582 -0.0108828 0.0169643 0.00968318 -0.0373776 0.0023831 -0.034514 -0.0204685 -0.01406 0.0729993 -0.023594 -0.0264273 -0.00480946 -0.0293505 -0.0318766
internal_weight=0 2808 3942 1144 1664 1782 2160 338 806 832 832 999 783 1161 999 104 390 416 234 416 416 513 390 405 442 486 594 513 378 567 486 78 234 182 104 208 130 26 182 208 234 208 208 208 208 351 270 216 243 182 208 297 189 297 243 243 52 270 243 189 243 243
internal_count=6750 2808 3942 1144 1664 1782 2160 338 806 832 832 999 783 1161 999 104 390 416 234 416 416 513 390 405 442 486 594 513 378 567 486 78 234 182 104 208 130 26 182 208 234 208 208 208 208 351 270 216 243 182 208 297 189 297 243 243 52 270 243 189 243 243
is_linear=0
shrinkage=0.05


Tree=10
num_leaves=63
num_cat=0
split_feature=13 10 17 9 15 10 10 10 11 9 13 17 11 14 9 9 11 14 9 23 14 9 11 17 9 9 14 14 9 11 17 29 55 13 30 12 10 14 16 9 12 14 11 24 9 14 14 17 14 9 15 9 9 17 13 23 11 17 12 15 16 9
split_gain=1795.07 242.816 204.706 39.0608 38.1167 26.3305 25.8593 6.69099 6.35383 4.76156 4.42837 3.64929 3.63707 3.00794 2.92899 1.51176 1.01949 0.767497 0.685711 0.67832 0.571885 0.555565 0.537352 0.516676 0.474767 0.474353 0.41096 0.374473 0.373906 0.356796 0.31258 0.23908 0.14502 0.132975 0.118461 0.116161 0.109324 0.0994076 0.0909209 0.090252 0.0858755 0.0819076 0.0795275 0.0788317 0.0757501 0.0681275 0.0664233 0.064699 0.0607898 0.0597346 0.0591992 0.0584565 0.0580515 0.0570576 0.0534339 0.0476139 0.0469131 0.0464793 0.0461022 0.0458775 0.0439751 0.0399677
threshold=100.21135364177347 162.72850039069172 47.600806448536794 130.26063505321136 202.39013195809753 73.4926233979795 25.202412993331972 228.63371096205722 182.40755039696339 146.51947915894786 115.04836654520702 14.239309740376685 60.418234519144583 86.310586411820012 35.957811595578448 253.18378953962485 172.26684802151092 192.60060201762687 138.32344262802172 216.51785355698834 107.78532853296581 154.44168702524448 122.8338491145855 8.7755393261762524 53.227823346606151 66.787054337227985 93.778160950554152 20.076244054986699 41.655857520962478 79.614487394057974 30.710488530398372 241.95965092368093 195.98057256669085 210.44766410398807 5.7022030116819886 176.51338412952816 186.08717024584064 168.11683783265681 196.84085184064193 56.516668996556483 134.36398297339275 104.12756335586481 142.26684798234643 222.9323781847352 158.24598810941285 90.121013512778518 118.8212013618148 44.823171041565743 111.49000282967042 150.68939559805111 125.96416151500442 17.394800690983711 69.827449492365375 83.143157218812036 63.117287347187691 234.18703837321661 38.264793704348094 12.0321972298365 33.49086144168708 27.444781007076568 75.904557392616951 22.630920461362141
decision_type=2 2 2 2 2 2 2 2 2 2 2 2 2 2 2 2 2 2 2 2 2 2 2 2 2 2 2 2 2 2 2 2 2 2 2 2 2 2 2 2 2 2 2 2 2 2 2 2 2 2 2 2 2 2 2 2 2 2 2 2 2 2
left_child=2 3 6 10 8 12 11 19 16 18 20 23 24 29 30 31 37 36 40 33 41 49 46 34 -4 54 45 51 56 60 59 55 -17 -6 -1 -18 -10 -3 -19 -26 -5 -2 -20 -21 -23 -15 -12 -30 -22 -11 -24 -13 -27 -31 -14 -9 -16 -25 -32 -8 -7 -29
right_child=1 4 5 9 7 13 14 15 17 21 22 27 25 26 28 32 35 38 42 43 48 44 50 57 39 52 -28 61 47 53 58 -33 -34 -35 -36 -37 -38 -39 -40 -41 -42 -43 -44 -45 -46 -47 -48 -49 -50 -51 -52 -53 -54 -55 -56 -57 -58 -59 -60 -61 -62 -63
leaf_value=-0.040974133128037486 0.0060378002060147429 0.036185758159710812 -0.01866393830213282 0.020314549153240827 0.055729906299175361 -0.0071331840330435912 -0.030155552647731922 0.067829092190815857 0.0451161027718813 0.028197319375780912 0.013073046190234331 -0.035155718046941876 -0.013235310320225027 -0.00071091311892141013 -0.02500605711506473 0.081487024747408335 0.040457474077359223 0.050103375124625676 0.024245527143088672 0.061809548620994276 0.009587933137439766 0.031810318019527654 0.016645471369608856 -0.037741751564137734 -0.016537930722589848 -0.010146231190473946 0.0035203803260810671 -0.032550869584083562 -0.022157799673301202 -0.0039325740860982079 -0.02753590508191674 0.075214275488486665 0.08895543125959543 0.058994116347569681 -0.03918686439824659 0.042898169480837307 0.047592376487759443 0.038443595018142311 0.05251755469884628 -0.014787470954067914 0.022346452551965532 0.0078127062234740995 0.026100545812111638 0.065181484589209929 0.0337186762633232 0.0010650515078278087 0.014860062602047737 -0.020577893985642328 0.011297490204182956 0.030027755674643393 0.018467687170665999 -0.033746947359155725 -0.0085909779756157493 -0.0021770635021873463 -0.011743193969682411 0.070855064804737397 -0.023607946976467415 -0.036485566474773266 -0.026074959917200935 -0.02882515169956066 -0.0055920153166408894 -0.031334199397652238
leaf_weight=163 130 130 216 104 78 81 108 26 78 104 104 162 108 108 108 13.000000000000002 78 78 104 52 104 104 78 162 135 108 160 135 162 108 108 26 12.999999999999998 52 215 130 104 78 78 162 104 130 130 26 104 108 104 108 104 78 104 135 135 81 135 26 135 135 108 162 108 135
leaf_count=163 130 130 216 104 78 81 108 26 78 104 104 162 108 108 108 13 78 78 104 52 104 104 78 162 135 108 160 135 162 108 108 26 13 52 215 130 104 78 78 162 104 130 130 26 104 108 104 108 104 78 104 135 135 81 135 26 135 135 108 162 108 135
internal_value=0 0.0310401 -0.0214188 0.0192531 0.0497269 -0.00862019 -0.0314303 0.0644248 0.0436449 0.0269724 0.0117677 -0.0362474 -0.0139439 -0.00156668 -0.0254416 0.0747799 0.0395077 0.048737 0.0234193 0.0592473 0.00848857 0.0309992 0.0157026 -0.0387314 -0.0168803 -0.0108443 0.00159975 -0.0332902 -0.0228064 -0.00471636 -0.0282231 0.0712995 0.0852212 0.0570356 -0.0399576 0.0419829 0.0465311 0.0370324 0.0513105 -0.0155831 0.0213305 0.00692525 0.0252761 0.0629335 0.0327645 0.000177069 0.0139666 -0.0215258 0.0104427 0.0289818 0.0176867 -0.0345154 -0.0092822 -0.00318021 -0.0124064 0.0693421 -0.0242293 -0.0371708 -0.0268054 -0.0293573 -0.00625252 -0.0319425
internal_weight=0 2756 3994 1690 1066 1753 2241 312 754 832 858 1242 999 754 999 104 416 338 442 208 468 390 390 675 513 486 376 567 513 378 486 78 26 130 378 208 182 208 156 297 208 260 234 78 208 216 208 270 208 182 182 297 243 189 243 52 243 297 216 270 189 270
internal_count=6750 2756 3994 1690 1066 1753 2241 312 754 832 858 1242 999 754 999 104 416 338 442 208 468 390 390 675 513 486 376 567 513 378 486 78 26 130 378 208 182 208 156 297 208 260 234 78 208 216 208 270 208 182 182 297 243 189 243 52 243 297 216 270 189 270
is_linear=0
shrinkage=0.05


Tree=11
num_leaves=63
num_cat=0
split_feature=16 9 10 11 16 13 33 13 10 10 9 18 13 15 11 27 9 10 17 9 9 18 10 9 10 11 16 9 17 11 9 15 11 10 18 9 10 2 14 10 9 11 14 9 15 18 15 12 9 10 13 16 9 14 12 9 9 9 17 26 9 9
split_gain=1620.14 228.319 175.408 38.6371 33.2276 22.8941 21.4472 6.79533 6.74375 4.18145 3.4237 3.25166 2.84334 2.67333 2.66186 1.36688 0.946206 0.858904 0.822267 0.662716 0.511032 0.436973 0.422003 0.411429 0.407755 0.39838 0.343027 0.335859 0.314651 0.300852 0.289981 0.21691 0.125715 0.120935 0.120038 0.114023 0.111339 0.105569 0.091678 0.0886793 0.0752922 0.0696743 0.0696373 0.0625093 0.0597461 0.0566121 0.0555603 0.0541272 0.0534881 0.0511074 0.0499645 0.0495303 0.0483775 0.0479778 0.0468873 0.0466831 0.0463802 0.0449777 0.044909 0.0438162 0.0414885 0.040338
threshold=98.120032216026971 159.37857410123743 46.476090027261492 200.48770968383738 127.32281978488538 72.037919346884124 23.633745193481449 229.4191163576115 178.74572739287703 143.75541367877835 112.41775206318563 59.222424591046526 34.65670897823076 84.444477392690487 12.324454160439851 253.43357066234077 189.30009275808925 169.71334385407428 213.07062551007024 135.37814269766116 151.84446802601965 52.573216624411067 120.00691193070799 105.54433791345237 65.184653485394065 18.046597752981963 90.931804296346414 40.422358406005891 28.783958979614408 77.639264294472426 7.1792873454991648 241.23660759784008 163.82589904698639 222.98667284722151 195.39306317537776 183.60922617764896 205.35444697423182 115.50000000000001 139.41029525000781 175.15302968416862 147.30130130133969 131.10077611301637 101.80694811952594 115.87131177746616 55.866100947526924 68.310547776931472 123.58616632111811 15.257332453916051 108.87915640754198 49.066193230753605 9.5110352517296111 94.784347815288882 20.59538494060839 155.32446316492403 26.383225286565871 62.418804250125326 81.093667304017387 3.8230910513329417 43.111086912760555 234.36318496967348 31.921791845284005 75.10103942566225
decision_type=2 2 2 2 2 2 2 2 2 2 2 2 2 2 2 2 2 2 2 2 2 2 2 2 2 2 2 2 2 2 2 2 2 2 2 2 2 2 2 2 2 2 2 2 2 2 2 2 2 2 2 2 2 2 2 2 2 2 2 2 2 2
left_child=2 4 6 8 10 11 14 18 17 19 23 21 28 29 30 31 35 32 36 41 40 49 43 42 55 47 -15 -14 54 61 57 59 -3 -20 -18 -10 -5 -17 -21 -19 -11 -6 -2 -12 -23 -26 -24 -16 -25 -4 -32 -28 -27 -22 -8 -13 -31 -1 -29 -9 -30 -7
right_child=1 3 5 7 9 13 12 15 16 20 22 24 27 26 25 37 34 39 33 38 53 44 46 48 45 52 51 58 60 56 50 -33 -34 -35 -36 -37 -38 -39 -40 -41 -42 -43 -44 -45 -46 -47 -48 -49 -50 -51 -52 -53 -54 -55 -56 -57 -58 -59 -60 -61 -62 -63
leaf_value=-0.039492278739258098 0.0047212062976681275 0.032540845699035204 -0.018993881193024142 0.051239056885242468 0.017969414634773365 -0.0073523177109934669 -0.029315293585812603 0.064417536900593694 0.041517663002014163 0.025396881596400189 0.011145921409703219 -0.013005823073563752 -0.023567427337662247 -0.00086880019385793868 -0.034349164863427477 0.078452445194125156 0.046512881867014445 0.037460530606599957 0.058011584174938693 0.02165690358155049 0.029038704893527889 -0.016004339831846733 0.014552939210373622 0.0079400125389488853 -0.010342662457238746 -0.031845438966044678 0.0014426570781291015 -0.021647232064494381 -0.02676071526827636 -0.0045768630001004097 -0.036866257698447619 0.07146223852267633 0.034873138184730826 0.061949164133805495 0.049107661575843127 0.043859003312312642 0.054225922853518765 0.085001285076141353 0.023648595844323821 0.039690777621208095 0.027299463892212286 0.019799640502494116 0.0064570497893370118 0.012879488036896175 -0.014516784946123761 -0.008806811659424393 0.016318261145781249 -0.03299356491477401 0.0095436155652770631 -0.017534609028586636 -0.035624439223313036 0.003078276316784782 -0.030565647698618883 0.030679151587761369 -0.02799750469349049 -0.011611144465428812 -0.0029941118862709883 -0.038049260370525313 -0.020357544201391714 0.067320328950881955 -0.025445918973397326 -0.005876258779087185
leaf_weight=81 104 104 108 52 104 108 135 26 104 104 104 135 242 189 162 16.000000000000004 104 104 78 104 78 135 104 104 108 135 108 135 135 108 162 26 130 26 78 104 78 9.9999999999999982 130 78 104 104 130 104 135 135 78 135 104 135 162 81 163 104 135 108 81 162 135 26 108 81
leaf_count=81 104 104 108 52 104 108 135 26 104 104 104 135 242 189 162 16 104 104 78 104 78 135 104 104 108 135 108 135 135 108 162 26 130 26 78 104 78 10 130 78 104 104 130 104 135 135 78 135 104 135 162 81 163 104 135 108 81 162 135 26 108 81
internal_value=0 0.0290238 -0.0206745 0.046219 0.0172022 -0.00890056 -0.0301227 0.0604085 0.0402685 0.0242677 0.0101366 -0.0138684 -0.0248508 -0.00233586 -0.0347731 0.0710428 0.0449921 0.0358402 0.0556822 0.020938 0.0280412 -0.016645 0.0135512 0.0071238 -0.0109377 -0.032437 0.000637418 -0.0222148 -0.0274816 -0.00530913 -0.0372246 0.0677334 0.0338366 0.058996 0.0476249 0.0426883 0.0530312 0.0809712 0.0227634 0.0384164 0.0263482 0.0188845 0.00568556 0.0120127 -0.0152606 -0.00948941 0.0153095 -0.033733 0.00874181 -0.0181832 -0.0362453 0.00214364 -0.0311454 0.0299761 -0.0286564 -0.012386 -0.00389854 -0.0385303 -0.0210024 0.0658689 -0.0261764 -0.00671972
internal_weight=0 2808 3942 1144 1664 1755 2187 338 806 832 832 999 1025 756 1162 104 390 416 234 442 390 513 390 442 486 595 378 512 513 378 567 78 234 104 182 208 130 26 234 182 208 208 234 208 270 243 182 297 208 243 324 189 298 182 270 243 189 243 270 52 243 189
internal_count=6750 2808 3942 1144 1664 1755 2187 338 806 832 832 999 1025 756 1162 104 390 416 234 442 390 513 390 442 486 595 378 512 513 378 567 78 234 104 182 208 130 26 234 182 208 208 234 208 270 243 182 297 208 243 324 189 298 182 270 243 189 243 270 52 243 189
is_linear=0
shrinkage=0.05


Tree=12
num_leaves=63
num_cat=0
split_feature=16 17 9 10 9 19 10 21 9 9 9 16 9 17 9 26 16 9 16 9 9 18 10 9 9 19 9 15 9 15 9 21 54 19 10 18 9 10 18 18 9 15 9 13 15 9 17 19 9 18 10 31 9 10 13 15 15 16 9 19 9 9
split_gain=1462.18 206.062 158.312 33.5779 31.4595 21.4724 18.5401 6.13507 5.55721 3.81397 3.43838 2.91967 2.66975 2.39653 2.36352 1.24286 0.855298 0.741498 0.65798 0.585758 0.4794 0.464406 0.393234 0.374836 0.371315 0.359553 0.316592 0.304326 0.298569 0.259223 0.229404 0.195983 0.11539 0.111085 0.109673 0.10307 0.102342 0.0803949 0.0800393 0.0775012 0.0764318 0.0719754 0.0699037 0.0632502 0.0563975 0.0545627 0.0537501 0.0521091 0.0503196 0.0496689 0.0482794 0.0473362 0.0450254 0.0447495 0.043375 0.042627 0.0414718 0.0365526 0.0362376 0.0356892 0.033646 0.033457
threshold=98.120032216026971 160.33474009461131 45.518028395591251 200.49192417446383 128.40429978923632 71.255628853616614 23.623357677854163 228.78874341933351 178.8730244329077 144.54505050240249 112.41775206318563 58.672697469619358 83.282193144425733 12.694099937602795 34.054791160984259 254.06238632957823 189.09402413806197 212.93339369790564 169.33868408376219 136.43833257764129 120.77427262090579 152.97692452616192 51.933441104495664 90.855991797321749 105.54433791345237 65.100622309348111 18.571461539109652 39.649137747424959 7.4887809279267676 76.957009937920915 28.944437860213196 241.33475182475945 186.28995562106101 219.18994411559817 193.75995174840631 207.81474820359168 183.60922617764896 173.66524328807586 164.87576180373381 116.8804956968177 140.49618780485011 148.65445840410635 132.08625920957755 101.65266768158938 87.005506172749577 62.418804250125326 124.94577742579763 55.266892235906106 15.753152529092395 4.2691140552473223 108.78899079492236 10.080698241121469 156.82454550667856 94.840731345707113 49.04919179425503 234.25453738100271 26.368014994663831 68.24816858285044 37.265860685848445 43.084527024254633 80.4639749045797 74.213517387319072
decision_type=2 2 2 2 2 2 2 2 2 2 2 2 2 2 2 2 2 2 2 2 2 2 2 2 2 2 2 2 2 2 2 2 2 2 2 2 2 2 2 2 2 2 2 2 2 2 2 2 2 2 2 2 2 2 2 2 2 2 2 2 2 2
left_child=2 4 6 8 10 11 13 17 18 19 24 22 29 28 30 31 36 35 38 42 39 41 54 44 43 45 48 58 49 61 56 55 -17 -19 -18 -5 -10 -20 -3 -12 -21 -11 -6 -2 -14 -13 -22 -24 -15 -1 -26 -30 -23 -25 -4 -9 -8 -27 -16 -29 -31 -7
right_child=1 3 5 7 9 12 14 15 16 21 20 25 23 26 27 32 34 33 37 40 46 52 47 53 50 57 -28 59 51 60 -32 -33 -34 -35 -36 -37 -38 -39 -40 -41 -42 -43 -44 -45 -46 -47 -48 -49 -50 -51 -52 -53 -54 -55 -56 -57 -58 -59 -60 -61 -62 -63
leaf_value=-0.03731690562433667 0.0044822165169394936 0.031399285220182864 -0.018155843449963464 0.049231119033617848 0.017456481863672917 -0.0073171633882103144 -0.027838052378760442 0.061187915007273358 0.039442582141894562 0.024543510620983748 0.010790139115773714 -0.012487827724328748 -0.0018197903310431651 -0.032434407318079915 -0.023210750255319809 0.073629762117679284 0.043827862349840319 0.054410817875311927 0.035283291072417532 0.0210094954388646 0.01428142244426104 0.028251006454229358 -0.015480483450271466 0.00137086820969772 0.0075429611839354042 -0.009820998791191313 -0.029474637276596494 -0.020694982416835834 -0.034835684427454432 -0.0047000577293888285 -0.025032226796503423 0.067882095391933739 0.080291665058869574 0.057679034311037804 0.046308086038782052 0.052104938144867247 0.041660754439922482 0.037406809742634113 0.033360927809889501 0.012621373002632306 0.022828051356168895 0.026403713770783866 0.019289717737298748 0.0061365409539296083 -0.00020393313144032385 -0.011036951288029 0.016017749351568713 -0.014091250929567551 -0.031127356776484739 -0.03593262329145714 0.0090664856422405984 -0.033626945714772864 0.029840177526840796 0.0029255468444323836 -0.016811487354614116 0.064053164243698127 -0.026598701123838071 -0.0085201329172209465 -0.021981969820680444 -0.019521569791767335 -0.0033519854884088776 -0.0059728823050304702
leaf_weight=108 104 104 135 78 104 108 135 27 104 104 130 162 108 162 135 13 78 52 78 104 104 104 135 108 104 108 270 162 163 108 216 26 13 52 104 52 104 104 104 104 130 104 104 130 108 108 78 135 135 162 104 161 78 81 108 25 135 108 108 108 81 81
leaf_count=108 104 104 135 78 104 108 135 27 104 104 130 162 108 162 135 13 78 52 78 104 104 104 135 108 104 108 270 162 163 108 216 26 13 52 104 52 104 104 104 104 130 104 104 130 108 108 78 135 135 162 104 161 78 81 108 25 135 108 108 108 81 81
internal_value=0 0.0275726 -0.0196408 0.0442257 0.016556 -0.00860911 -0.0287419 0.057389 0.0385216 0.0234836 0.00983832 -0.0134682 -0.0024096 -0.0330389 -0.0237481 0.0674934 0.042742 0.0528981 0.0343012 0.0203037 0.0131009 0.0270876 -0.0160991 0.000411015 0.00676761 -0.0106911 -0.0307138 -0.0213809 -0.0352584 -0.00543168 -0.0262468 0.0643377 0.0769607 0.0560449 0.0452451 0.0503806 0.0405517 0.0364967 0.0323801 0.011604 0.0220198 0.0254736 0.0183731 0.00540129 -0.00101186 -0.0119075 0.0150256 -0.0147859 -0.0318403 -0.0364863 0.00830472 -0.034235 0.0289321 0.00203716 -0.0175584 0.0625654 -0.0272184 -0.00917057 -0.0226646 -0.0202256 -0.00412231 -0.00674104
internal_weight=0 2808 3942 1118 1690 1782 2160 338 780 832 858 999 783 1161 999 104 390 234 390 442 416 390 513 405 442 486 567 513 594 378 486 78 26 104 182 130 208 182 208 234 234 208 208 234 216 270 182 270 297 270 208 324 182 189 243 52 270 216 243 270 189 189
internal_count=6750 2808 3942 1118 1690 1782 2160 338 780 832 858 999 783 1161 999 104 390 234 390 442 416 390 513 405 442 486 567 513 594 378 486 78 26 104 182 130 208 182 208 234 234 208 208 234 216 270 182 270 297 270 208 324 182 189 243 52 270 216 243 270 189 189
is_linear=0
shrinkage=0.05


Tree=13
num_leaves=63
num_cat=0
split_feature=9 12 9 11 14 10 9 10 12 10 9 18 11 9 9 27 22 9 17 10 13 11 19 9 14 9 15 12 31 13 11 30 13 14 9 46 11 18 9 11 11 9 14 10 11 9 9 31 30 13 9 13 12 9 9 24 10 17 10 17 11 10
split_gain=1319.63 185.981 142.88 31.4751 27.0668 18.6518 17.471 5.54632 5.48989 3.409 2.78607 2.43451 2.40988 2.32096 2.16426 1.12417 0.773368 0.700011 0.667215 0.499839 0.457736 0.346904 0.339351 0.33482 0.324482 0.32297 0.304521 0.275821 0.249885 0.238701 0.235023 0.176254 0.104269 0.101262 0.0988841 0.0982841 0.0930587 0.0921704 0.0739096 0.0650425 0.0613749 0.0583551 0.0571283 0.0567362 0.0554815 0.0546389 0.0532988 0.0498253 0.049092 0.0469773 0.0437427 0.0414904 0.0370407 0.0364326 0.0344046 0.0336909 0.0333066 0.0330531 0.0329386 0.0324099 0.0303616 0.0300472
threshold=98.22859563686616 159.38998098803708 46.479743605513193 200.48770968383738 127.31458764658657 71.032005342905705 23.699547836763525 228.63371096205722 179.01562736761025 142.93683437080784 112.41775206318563 58.534514368193065 83.327446554801114 34.553774108748875 12.348789178527062 253.43357066234077 189.53229316305726 169.63023615257063 213.07062551007024 150.81563626991419 135.45213911739299 119.09383875191361 90.033010167349033 105.54433791345237 64.656841663526237 17.394800690983711 52.576056274420999 40.308527974559553 29.545654791119173 6.8188947423993378 76.712532160972941 241.76952484282467 163.68734627325196 218.81572050980151 195.49601870685714 205.91539359918951 207.56867703380087 184.80263899604128 175.23794728334107 122.8338491145855 155.24581535984092 93.771991497482318 101.80694811952594 131.05089924203887 139.47036163498331 147.30130130133969 20.59538494060839 9.5513141517214653 26.350602244286573 67.513521167378101 108.87915640754198 49.791862068655227 61.145193107544294 43.738187865807355 55.821544381700896 234.62660448234661 116.00281222682389 14.893628170468078 87.216500432133472 37.732099182883182 80.389780514275529 74.223669077480025
decision_type=2 2 2 2 2 2 2 2 2 2 2 2 2 2 2 2 2 2 2 2 2 2 2 2 2 2 2 2 2 2 2 2 2 2 2 2 2 2 2 2 2 2 2 2 2 2 2 2 2 2 2 2 2 2 2 2 2 2 2 2 2 2
left_child=2 4 6 8 10 11 14 18 17 20 23 26 30 28 29 31 37 32 36 45 43 56 58 42 52 57 51 59 48 -1 61 55 -3 -20 -18 -17 -5 -10 -19 -23 -21 -24 -2 -6 -22 -11 -27 -31 -8 -26 -25 -4 -13 -29 -28 -9 -12 -16 -14 -15 -32 -7
right_child=1 3 5 7 9 12 13 15 16 19 21 24 22 27 25 35 34 38 33 40 44 39 41 50 49 46 54 53 -30 47 60 -33 -34 -35 -36 -37 -38 -39 -40 -41 -42 -43 -44 -45 -46 -47 -48 -49 -50 -51 -52 -53 -54 -55 -56 -57 -58 -59 -60 -61 -62 -63
leaf_value=-0.034904557521696446 0.0042589607003789684 0.029358238583573927 -0.016997122863928477 0.046770148705213503 0.016216692715310132 -0.0069533760417942658 -0.026448096269193817 0.058173153721369233 0.037706444607331205 0.022741221074874585 0.010047990972032914 -0.012138662149232848 -0.0017284952862947076 -0.021792721615897286 -0.031108441948890689 0.070057507203175468 0.041975424238122429 0.033800194068596912 0.051675305687464201 0.025976376679654307 0.01954299111205798 0.012738686850151192 0.00092242510275995044 0.007164399042868844 -0.009641836024820806 -0.028855042030781874 -0.01444171643919415 -0.019428497727638411 -0.023511170571626619 -0.033340374796014087 -0.0044627249896250385 0.064487794500130868 0.031482296654811275 0.054795678991537838 0.04433050063940195 0.076205806548778829 0.049500831503134508 0.039880538827333695 0.035836261892930057 0.014507032200120963 0.027694140976438155 0.0025660865319271885 0.005831188083841251 0.017868268919678836 0.021176203354620018 0.024415137618780138 -0.027572456738095226 -0.032144849900133124 -0.025159678985307243 -0.0082427688550066065 0.0086145756264718685 -0.015682296689461778 -0.010896340807278951 -0.018242927171565868 -0.013244417723682192 0.060718547151638914 0.011414797365283356 -0.03000201128147267 -0.00039466944619090546 -0.020630648456237938 -0.0031821378380244162 -0.0056794372559697548
leaf_weight=216 104 104 135 78 104 108 136 26 130 130 104 108 108 135 135 13 104 104 52 104 104 104 108 104 108 162 135 162 215 190 108 26 130 52 78 13 52 78 78 104 104 108 130 104 104 78 162 161 162 135 104 108 135 108 108 26 78 135 81 108 81 81
leaf_count=216 104 104 135 78 104 108 136 26 130 130 104 108 108 135 135 13 104 104 52 104 104 104 108 104 108 162 135 162 215 190 108 26 130 52 78 13 52 78 78 104 104 108 130 104 104 78 162 161 162 135 104 108 135 108 108 26 78 135 81 108 81 81
internal_value=0 0.0261941 -0.0186588 0.0417133 0.0155246 -0.00803249 -0.0271861 0.0545204 0.0363426 0.0219016 0.00914772 -0.0126588 -0.00228942 -0.0224323 -0.0313872 0.0641278 0.0406045 0.0323471 0.0502505 0.0251021 0.018701 0.0122279 0.000390404 0.00642986 -0.0101565 -0.0292781 -0.0151612 -0.0200542 -0.0248104 -0.0335968 -0.00516065 0.0611265 0.0305383 0.0532355 0.0429847 0.0731317 0.0478624 0.0385217 0.0346728 0.0136229 0.0268353 0.00174426 0.00513242 0.0170425 0.0203596 0.0233689 -0.0282137 -0.032792 -0.0257477 -0.00886458 0.00788949 -0.0164128 -0.0114485 -0.0189543 -0.0139096 0.0594459 0.0106338 -0.0305552 -0.00115686 -0.0212762 -0.0039139 -0.0064074
internal_weight=0 2808 3942 1144 1664 1755 2187 338 806 832 832 972 783 1026 1161 104 390 416 234 416 416 390 405 442 486 594 486 513 513 567 378 78 234 104 182 26 130 208 182 208 208 216 234 208 208 208 324 351 298 243 208 243 243 270 243 52 182 270 189 243 189 189
internal_count=6750 2808 3942 1144 1664 1755 2187 338 806 832 832 972 783 1026 1161 104 390 416 234 416 416 390 405 442 486 594 486 513 513 567 378 78 234 104 182 26 130 208 182 208 208 216 234 208 208 208 324 351 298 243 208 243 243 270 243 52 182 270 189 243 189 189
is_linear=0
shrinkage=0.05


Tree=14
num_leaves=63
num_cat=0
split_feature=10 10 9 19 10 9 11 16 10 16 14 13 9 14 15 26 16 9 11 21 31 15 9 10 12 11 17 31 9 15 17 16 50 9 17 9 13 10 9 10 18 13 12 19 10 14 14 9 10 9 10 19 17 9 14 9 16 24 14 11 9 30
split_gain=1190.98 161.136 135.832 25.9123 25.321 17.8851 16.8026 4.44871 4.21713 3.1573 2.93794 2.59748 2.42486 1.95238 1.80036 1.02119 0.677386 0.511437 0.454394 0.453677 0.388175 0.376724 0.366166 0.354288 0.312628 0.310368 0.26035 0.247109 0.241435 0.22059 0.20829 0.158339 0.0996733 0.087813 0.0838438 0.0768067 0.0739623 0.0662943 0.0593038 0.0573512 0.0556958 0.0552845 0.0536325 0.0501357 0.0491007 0.0437526 0.0400764 0.0392449 0.0391735 0.0390711 0.0381441 0.0378031 0.0369892 0.0362324 0.035182 0.0348991 0.0335856 0.0313532 0.0292519 0.028985 0.0270288 0.0247085
threshold=100.19615725642961 162.72850039069172 48.229348456850353 130.31091350356635 202.66209643200159 25.766131688648134 74.333634721585852 228.40288459993903 182.28426419098361 146.51317804228631 115.09356893722246 14.938507151293154 61.137332614068107 37.244048144691007 87.005506172749577 254.06238632957823 172.33466208750201 192.31127180377322 138.46395792860733 216.0171215870937 8.8721246994783716 107.65487768463768 154.44168702524448 122.88225042473583 67.607677969482893 55.03788486233892 31.950020555511767 20.564857183429648 81.093667304017387 93.6323466077191 43.111086912760555 241.0541030024101 195.89004177561893 210.11895035959935 4.9478234243593358 176.66110522573163 186.43555076727463 166.96392938480702 197.14480870031312 134.52657714871629 104.08716422874352 222.80403794572067 142.03516411096317 158.34772215973965 51.933441104495664 118.8212013618148 111.49000282967042 150.68939559805111 126.12153691893597 11.997847578206162 70.354532677420167 77.693849830315756 28.783958979614408 40.422358406005891 64.01038713915446 17.394800690983711 58.672697469619358 234.62660448234661 96.880602308390579 89.952137976673342 45.518028395591251 22.628396543912967
decision_type=2 2 2 2 2 2 2 2 2 2 2 2 2 2 2 2 2 2 2 2 2 2 2 2 2 2 2 2 2 2 2 2 2 2 2 2 2 2 2 2 2 2 2 2 2 2 2 2 2 2 2 2 2 2 2 2 2 2 2 2 2 2
left_child=2 3 5 10 8 11 12 19 16 18 21 20 25 26 28 31 37 36 39 33 34 40 47 45 54 44 52 55 51 59 53 57 -17 -6 -1 -18 -10 -3 -19 -5 -2 -21 -20 -24 -4 -12 -23 -11 -25 -22 -26 -8 -7 -15 -14 -13 -27 -9 -31 -16 -32 -29
right_child=1 4 6 9 7 13 14 15 17 22 23 27 24 30 29 32 35 38 42 41 49 46 43 48 50 56 -28 61 -30 58 60 -33 -34 -35 -36 -37 -38 -39 -40 -41 -42 -43 -44 -45 -46 -47 -48 -49 -50 -51 -52 -53 -54 -55 -56 -57 -58 -59 -60 -61 -62 -63
leaf_value=-0.033548101871101944 0.0049131231439801361 0.029268196998880461 -0.015323710253945104 0.016544736162401163 0.045394041522955286 -0.024107438969759296 -0.0052402205213352496 0.0552943022162826 0.036732901288912843 0.022973973361345438 0.010654883473538436 -0.028499107493294613 -0.010494940438204342 -0.019720112173645585 -0.00037565340803947622 0.065895648977973217 0.032968320801288267 0.040823361888909955 0.019733179671671784 0.050364280702932834 -0.03074090247568877 0.0078057587290039435 0.025897018278686748 0.013553761155941549 -0.0079864112729275665 -0.01271210335471012 -0.021316660133500896 -0.026399269479292411 -0.0020252812156499721 0.0021944740269747047 -0.017617099801147427 0.061254549255737895 0.072161848545074458 0.048046643057694807 -0.031995131490660494 0.034947990978411003 0.038769694503683311 0.031053476923933399 0.042773112616477871 0.018205238907383039 0.0063767302322846192 0.053216684579849238 0.02125806613960339 0.027449626440093633 -0.013975175784693825 0.012105224181253177 0.009193832950236706 0.024457630476890466 0.015036067810769266 -0.029641064339213902 -0.0067257216931493197 -0.0039172904652163935 -0.022986811962392596 -0.018561690085464055 -0.0092841897187409591 -0.027412120623091247 -0.011529140981535117 0.057751615762710574 0.0035467060895848878 0.00087556444942257024 -0.016498470430572829 -0.025421706193722554
leaf_weight=135 130 104 135 104 78 162 108 27 78 104 104 135 108 135 81 11.000000000000002 79 78 103 53 161 104 103 78 108 135 216 108 162 81 108 26 14.999999999999998 52 244 129 104 104 78 104 130 25 131 105 135 104 104 78 104 162 135 108 135 135 135 163 108 25 79 108 108 161
leaf_count=135 130 104 135 104 78 162 108 27 78 104 104 135 108 135 81 11 79 78 103 53 161 104 103 78 108 135 216 108 162 81 108 26 15 52 244 129 104 104 78 104 130 25 131 105 135 104 104 78 104 162 135 108 135 135 135 163 108 25 79 108 108 161
internal_value=0 0.0252834 -0.0174464 0.0156814 0.0405061 -0.0254903 -0.00687659 0.0524856 0.035549 0.0219686 0.00958466 -0.0294299 -0.011085 -0.020486 -0.00109358 0.0609292 0.0321785 0.0396975 0.0190754 0.0482639 -0.0314629 0.00691376 0.0252477 0.0127897 -0.00855416 -0.0134827 -0.0226375 -0.0269128 -0.00348441 0.00149592 -0.0182151 0.0580687 0.0695108 0.0464551 -0.0325483 0.0341961 0.0378968 0.0301608 0.0417982 0.017375 0.00564493 0.0512785 0.0205869 0.0266808 -0.0146494 0.0113801 0.0084998 0.0236098 0.0144008 -0.0301893 -0.00728603 -0.00457876 -0.0235981 -0.0191409 -0.0098223 -0.0279045 -0.0121863 0.0564757 0.00286214 0.000339328 -0.0170578 -0.0258142
internal_weight=0 2756 3994 1690 1066 2268 1726 312 754 832 858 1269 999 999 727 104 416 338 442 208 702 468 390 390 486 513 513 567 378 349 486 78 26 130 379 208 182 208 156 208 260 78 234 208 270 208 208 182 182 323 243 216 297 270 243 298 243 52 160 189 216 269
internal_count=6750 2756 3994 1690 1066 2268 1726 312 754 832 858 1269 999 999 727 104 416 338 442 208 702 468 390 390 486 513 513 567 378 349 486 78 26 130 379 208 182 208 156 208 260 78 234 208 270 208 208 182 182 323 243 216 297 270 243 298 243 52 160 189 216 269
is_linear=0
shrinkage=0.05


Tree=15
num_leaves=63
num_cat=0
split_feature=14 13 11 19 14 13 33 14 26 14 13 10 17 13 18 10 11 16 14 10 13 11 10 18 16 19 31 29 31 17 10 29 55 18 10 17 15 17 13 18 10 24 11 18 17 12 10 13 15 11 15 33 11 12 13 31 18 19 13 14 13 11
split_gain=1074.87 148.454 119.465 23.7723 23.2681 16.0847 14.2392 4.18499 4.01868 2.83191 2.5983 2.1603 1.98845 1.89364 1.7688 0.92436 0.606764 0.558849 0.419649 0.41001 0.338577 0.332228 0.309573 0.290715 0.286831 0.271925 0.259203 0.23442 0.224223 0.197853 0.171206 0.143344 0.115245 0.0966124 0.0866644 0.0791568 0.0538024 0.0533703 0.0521862 0.051981 0.0503955 0.0502228 0.0494158 0.0451003 0.0418209 0.0416222 0.0412976 0.0412827 0.0396049 0.0392279 0.0389007 0.037822 0.0357442 0.0343845 0.0341198 0.0331963 0.0297985 0.0296579 0.0291515 0.0272273 0.0267947 0.0265555
threshold=99.362371857442952 161.56459729900266 46.44394975563187 202.23610951147751 129.31230444528777 72.037919346884124 23.633745193481449 180.90769850857967 229.35294335768216 145.5225663608019 114.21014073265867 59.076765361955729 84.479816602358781 34.201788333563158 12.746447480838727 254.16957646784553 172.26684802151092 192.28106677218284 137.23467209121006 215.97740581871793 152.96725325788353 106.26747534161932 121.65388824004052 52.573216624411067 91.895466230791371 65.978217210201009 40.461506725394848 18.572167703363665 7.1287996389415449 77.523237242965862 28.374398874664362 241.95965092368093 195.98057256669085 186.36606163587828 166.96392938480702 210.47128378937649 198.94334548934461 133.42741672297134 141.49682625629791 109.71715870876081 176.45773119867872 222.9323781847352 156.78355402106934 102.65871309013761 9.961961746541208 87.989868137409005 62.38117175551249 117.72495723717257 95.647511362320444 124.90268056481587 55.866100947526924 15.459678173065187 148.60011063030029 37.204590822264016 49.791862068655227 3.9042518333415051 234.10214543414946 43.084527024254633 81.278774421295012 69.040375808951111 74.995120797237249 31.235616077242202
decision_type=2 2 2 2 2 2 2 2 2 2 2 2 2 2 2 2 2 2 2 2 2 2 2 2 2 2 2 2 2 2 2 2 2 2 2 2 2 2 2 2 2 2 2 2 2 2 2 2 2 2 2 2 2 2 2 2 2 2 2 2 2 2
left_child=2 4 6 7 10 11 14 16 19 18 21 23 29 30 28 31 34 33 37 35 52 43 47 54 45 46 53 51 55 60 -8 56 -17 -9 -3 -5 -19 -6 -20 -23 -18 -21 -22 -2 -30 -14 -13 -12 -26 -24 -25 -16 -11 -15 -4 -1 -10 -28 -31 -27 -7 -32
right_child=1 3 5 8 9 12 13 17 15 20 22 25 24 26 27 32 40 36 38 41 42 39 49 50 48 59 57 -29 44 58 61 -33 -34 -35 -36 -37 -38 -39 -40 -41 -42 -43 -44 -45 -46 -47 -48 -49 -50 -51 -52 -53 -54 -55 -56 -57 -58 -59 -60 -61 -62 -63
leaf_value=-0.032215727429564404 0.0041470852250663137 0.027561204433441164 -0.015344490971830155 0.043122597344410728 0.015327151492238046 -0.0059882365546568683 -0.023441769642594423 0.034672865042319666 0.052498233759844748 0.021223705987899733 0.009759132492427644 -0.01058419778391167 -0.0012203527472188903 -0.01986223352489187 -0.027911653764107647 0.06272288927665122 0.031310441134831848 0.039052765501233253 0.018379876733972476 0.047818278062802096 0.024215141769785148 0.0067543606990231918 0.012439601887495091 -0.013030881936903353 0.0015200915515716017 -0.008147043258779579 -0.017627813344571128 -0.025262869028029617 -0.029928776003578877 -0.0037225939022998015 -0.022032377399780131 0.058196906172312227 0.069380591007379394 0.036828051536129072 0.029497671127319339 0.045641066993658358 0.041022531287028242 0.016928988036054832 0.019882559776306152 0.0082540866732597352 0.032991711193552389 0.050509685507187478 0.025756491204866994 0.0055440302508381698 -0.028832640489678325 0.00016779453657431146 -0.009347451290598623 0.011167941607821447 0.0029878899664618078 0.013922937644215731 -0.011830562176527802 -0.026780755762700684 0.022639645550113458 -0.018733707979759751 -0.014152158438055604 -0.0309810733905545 0.054893847227096559 -0.016577794143447171 -0.0024677857929081832 -0.0070243131679793196 -0.0047852213459986231 -0.020980485128583734
leaf_weight=82 104 130 135 78 104 108 243 104 27 78 104 135 108 134 136 13.000000000000002 78 104 104 52 104 104 78 135 108 108 134 270 188 108 135 26 12.999999999999998 104 104 52 52 104 130 130 104 26 104 130 162 108 135 104 80 104 135 162 104 136 108 162 25 135 81 108 81 108
leaf_count=82 104 130 135 78 104 108 243 104 27 78 104 135 108 134 136 13 78 104 104 52 104 104 78 135 108 108 134 270 188 108 135 26 13 104 104 52 52 104 130 130 104 26 104 130 162 108 135 104 80 104 135 162 104 136 108 162 25 135 81 108 81 108
internal_value=0 0.0238289 -0.0167066 0.0381976 0.0145444 -0.00709279 -0.0245357 0.0335318 0.0498621 0.0205023 0.00876713 -0.0112968 -0.00172217 -0.0202401 -0.0283249 0.0578871 0.0301059 0.0374471 0.0177622 0.0458495 0.0236077 0.00625535 0.0117813 -0.0135599 0.000716646 -0.00890798 -0.0181994 -0.02633 -0.0302325 -0.00432874 -0.0225033 0.0551656 0.0660517 0.0357505 0.0284219 0.04413 0.0397094 0.0161281 0.0192147 0.00758754 0.0322712 0.0487154 0.0249858 0.00492317 -0.0294214 -0.000526279 -0.00996582 0.0104635 0.00214469 0.0132872 -0.0124307 -0.0272969 0.0220328 -0.0192938 -0.0148146 -0.031396 0.05365 -0.0171009 -0.00318482 -0.00758568 -0.00547266 -0.0215649
internal_weight=0 2782 3968 1092 1690 1781 2187 780 312 832 858 999 782 1025 1162 104 416 364 442 208 390 468 390 513 404 486 539 568 594 378 486 78 26 208 234 130 156 208 234 234 182 78 208 234 350 216 270 208 188 182 270 298 182 270 243 244 52 269 189 216 189 243
internal_count=6750 2782 3968 1092 1690 1781 2187 780 312 832 858 999 782 1025 1162 104 416 364 442 208 390 468 390 513 404 486 539 568 594 378 486 78 26 208 234 130 156 208 234 234 182 78 208 234 350 216 270 208 188 182 270 298 182 270 243 244 52 269 189 216 189 243
is_linear=0
shrinkage=0.05


Tree=16
num_leaves=63
num_cat=0
split_feature=12 10 15 12 15 10 10 13 13 14 13 15 9 25 10 24 16 11 10 27 17 16 13 31 9 9 37 30 10 13 16 55 15 18 15 10 15 21 11 31 12 18 13 31 12 13 13 13 9 9 17 17 12 11 17 12 19 14 17 18 19 30
split_gain=970.091 131.265 110.646 21.1038 20.6563 14.5828 13.6834 3.88737 3.2047 2.56912 2.39278 1.97593 1.97385 1.71736 1.46702 0.576268 0.549663 0.544494 0.495112 0.371399 0.307363 0.298463 0.288645 0.28576 0.254409 0.251894 0.206601 0.206523 0.198974 0.195522 0.18023 0.131295 0.0857439 0.0679746 0.0637562 0.0601142 0.0551976 0.054642 0.0525363 0.0504372 0.048537 0.0454227 0.0443797 0.0437728 0.0407234 0.0400886 0.0358152 0.0335736 0.0324723 0.0322488 0.0319526 0.0316716 0.0312223 0.0307195 0.0304253 0.0294222 0.0290645 0.0273701 0.0239141 0.0236943 0.0235731 0.0219312
threshold=100.20717069846377 162.72850039069172 48.230661381493626 130.22966694145785 205.63893596117046 25.202412993331972 74.223669077480025 182.16731270349251 234.31610898662777 146.44285655664694 115.04836654520702 61.047205751165812 14.23320278138617 36.549032211303718 87.216500432133472 252.3903542725086 172.33466208750201 193.77519381809819 219.24605035883573 138.13629747209671 107.76624052678632 154.40666082795568 122.66772149129757 7.8084901586532505 67.610116366340392 55.080796331659393 31.585999500600931 20.182545950199621 42.489378370652908 81.278774421295012 93.903262958609332 195.98057256669085 187.736136042044 210.51192520950053 177.62413123504277 222.98667284722151 168.28494276073039 241.33475182475945 198.88004644553041 11.109234502009103 134.36398297339275 103.39226228893064 143.01234002435197 4.2825846066667248 156.80876165495692 51.944590590557603 119.08660282863623 111.59725643869145 149.8417599208876 27.618677072101004 125.91696211931868 39.673062870757114 70.334836246555781 77.639264294472426 16.498519975771554 45.471278103072613 63.955397992650518 57.790838128451192 33.529299964652559 96.682105897698094 90.033010167349033 21.986630263612273
decision_type=2 2 2 2 2 2 2 2 2 2 2 2 2 2 2 2 2 2 2 2 2 2 2 2 2 2 2 2 2 2 2 2 2 2 2 2 2 2 2 2 2 2 2 2 2 2 2 2 2 2 2 2 2 2 2 2 2 2 2 2 2 2
left_child=2 3 5 10 7 12 11 16 18 19 20 25 23 26 29 37 36 32 33 40 41 48 46 43 56 45 49 54 51 53 60 -17 -9 -6 -18 -20 -3 -10 -19 -25 -5 -2 -21 -1 -23 -4 -12 -22 -11 -7 -24 -15 -26 -8 -14 -30 -13 -27 -28 -32 -16 -29
right_child=1 4 6 9 8 13 14 17 15 21 22 24 27 28 30 31 34 38 35 42 47 44 50 39 52 57 58 61 55 -31 59 -33 -34 -35 -36 -37 -38 -39 -40 -41 -42 -43 -44 -45 -46 -47 -48 -49 -50 -51 -52 -53 -54 -55 -56 -57 -58 -59 -60 -61 -62 -63
leaf_value=-0.030431557767981784 0.0042842249726303501 0.026586735421834991 -0.013828414976596832 0.014907818960333333 0.041521304731185621 -0.022173861331409878 -0.0047264781401113228 0.033427067702779402 0.052035574041880098 0.020534156186458392 0.0096140731054429832 -0.0094744222997515306 -0.026051502454060096 -0.018026132959483274 -0.00033993164321190661 0.059483632445335381 0.029983734224851316 0.037432394577906682 0.045997452048154981 0.017966871743018812 0.0070431660222155705 0.023174696415662766 0.012231756976017586 -0.028138611162150346 -0.0072087493069745885 -0.011593464085901227 -0.020140075080002411 -0.024021612783824958 -0.015999778818201135 -0.0018323075902981708 0.0019917918778047327 0.066610938807328546 0.035457413156445211 0.043855117337825975 0.031734506040811537 0.048941992165950632 0.028264973171149628 0.055277190987880413 0.039267526605190374 -0.026981949346496704 0.01643547208536239 0.0056332318733135862 0.019352611311926293 -0.029173396441040847 0.02461981889147025 -0.012609906080696318 0.010926279225028479 0.0083137039999360025 0.021883734974723595 -0.021093858134311937 0.013570493201796825 -0.016941052277882892 -0.0060681671787191326 -0.0035339180345612545 -0.025000492899041427 -0.014892563016878236 -0.0083739574695075002 -0.010525559871285051 -0.019044799738460117 0.0032090928715964163 0.00078844603542367825 -0.023100628319734376
leaf_weight=109 104 129 135 103 52 108 108 104 26 78 104 108 108 134 81 14.000000000000002 104 78 26 130 105 78 78 189 108 108 79 108 135 162 82 11.999999999999998 104 78 104 52 79 26 78 188 105 156 104 189 130 135 104 103 104 192 104 135 135 108 190 108 135 135 135 78 108 161
leaf_count=109 104 129 135 103 52 108 108 104 26 78 104 108 108 134 81 14 104 78 26 130 105 78 78 189 108 108 79 108 135 162 82 12 104 78 104 52 79 26 78 188 105 156 104 189 130 135 104 103 104 192 104 135 135 108 190 108 135 135 135 78 108 161
internal_value=0 0.0228186 -0.0157456 0.0141522 0.036558 -0.0230056 -0.0062059 0.0323435 0.0480523 0.0198262 0.00865011 -0.0100037 -0.0266496 -0.0185944 -0.000987211 0.0566953 0.0290416 0.036117 0.0448112 0.0172163 0.00623972 0.022784 0.0115426 -0.0284765 -0.00771907 -0.0121681 -0.020636 -0.0244748 -0.0165447 -0.00314539 0.0013503 0.0627732 0.0344422 0.0429216 0.0308591 0.0479605 0.0272241 0.0536564 0.03835 -0.0275618 0.015679 0.00509363 0.0185828 -0.0296336 0.0240779 -0.0132192 0.0102702 0.00767233 0.0213053 -0.0214827 0.0129967 -0.0174816 -0.00657509 -0.0041302 -0.0253814 -0.0155077 -0.00886305 -0.0110002 -0.0194491 0.00258523 0.000304856 -0.0234704
internal_weight=0 2756 3994 1690 1066 2268 1726 780 286 832 858 999 1242 1026 727 78 416 364 208 442 468 390 390 675 486 513 514 567 512 378 349 26 208 130 208 78 208 52 156 377 208 260 234 298 208 270 208 208 182 300 182 269 243 216 298 243 243 243 214 160 189 269
internal_count=6750 2756 3994 1690 1066 2268 1726 780 286 832 858 999 1242 1026 727 78 416 364 208 442 468 390 390 675 486 513 514 567 512 378 349 26 208 130 208 78 208 52 156 377 208 260 234 298 208 270 208 208 182 300 182 269 243 216 298 243 243 243 214 160 189 269
is_linear=0
shrinkage=0.05


Tree=17
num_leaves=63
num_cat=0
split_feature=15 9 9 10 12 16 15 26 15 12 9 17 17 17 11 26 9 19 10 12 11 9 9 15 16 19 11 9 13 17 17 15 54 24 18 10 18 18 18 9 9 16 9 15 16 9 31 11 15 19 11 9 12 13 16 13 9 15 28 18 28 21
