tree
version=v3
num_class=1
num_tree_per_iteration=1
label_index=0
max_feature_idx=8
objective=regression
feature_names=Column_0 Column_1 Column_2 Column_3 Column_4 Column_5 Column_6 Column_7 Column_8
feature_infos=[1:30] [98.799999999999997:106.7] [69:128] [4:7] [0:12] [79.400000000000006:291] [0:2] [0:1] [20:79]
tree_sizes=5435 5470 5424 5471 5489 5472 5366 5476 5533 5498 5495 5470 5487 5436 5521 5507 5517 5561 5519 5520 5550 5546 5529 5563 5553 5564 5559 5571 5599 5583 5599 5585 5629 5562 5583 5628 5625 5613 5621 5639 5634 5631 5638 5653 5683 5667 5670 5682 5662 5676 5683 5694 5685 5714 5696 5713 5730 5714 5697 5689 5761 5743 5732 5734 5763 5753 5732 5762 5776 5722 5731 5729 5769 5768 5748 5776 5754 5806 5776 5754 5786 5755 5837 5803 5755 5760 5773 5766 5758 5772 5765 5786 5807 5788 5809 5839 5813 5790 5796 5863 5817 5821 5792 5787 5849 5862 5883 5860 5856 5862 5841 5846 5818 5838 5874 5840 5855 5858 5850 5802 5862 5817 5862 5849 5834 5838 5883 5803 5864 5888 5895 5882 5864 5857 5848 5864 5830 5837 5892 5851 5907 5833 5838 5858 5867 5869 5820 5862 5855 5885 5839 5871 5839 5878 5873 5852 5865 5863 5854 5814 5847 5864 5815 5850 5842 5866 5866 5883 5820 5871 5867 5878 5855 5872 5824 5802 5848 5831 5796 5884 5835 5826 5858 5855 5840 5846 5912 5854 5867 5818 5813 5845 5859 5865 5826 5881 5846 5912 5807 5822 5912 5871 5819 5887 5848 5905 5891 5865 5864 5883 5871 5837 5836 5859 5891 5895 5811 5789 5843 5807 5822 5870 5879 5855 5833 5888 5887 5816 5804 5873 5840 5850 5855 5878 5855 5835 5832 5895 5821 5834 5825 5897 5859 5849 5857 5810 5914 5884 5860 5835 5885 5854 5843 5837 5853 5834 5893 5875 5842 5824 5860 5900 5872 5869 5884 5845 5905 5863 5910 5831 5855 5868 5858 5889 5827 5899 5850 5844 5891 5837 5837 5862 5863 5807 5827 5873 5852 5851 5841 5920 5888 5845 5901 5880 5851 5911 5851 5881 5864 5837 5886 5874 5839 5877 5879 5880 5831 5866 5882 5894 5854 5814 5887 5872 5871 5838 5862 5873 5848 5892 5868 5847 5881 5884 5903 5847 5855 5850 5903 5899 5857 5878 5896 5887 5878 5864 5871 5879 5868 5873 5861 5887 5888 5875 5862 5857 5878 5871 5893 5868 5815 5862 5851 5850 5860 5858 5864 5860 5896 5851 5891 5898 5886 5859 5883 5913 5879 5873 5846 5900 5884 5908 5847 5864 5815 5878 5870 5866 5874 5894 5854 5855 5889 5832 5855 5889 5876 5892 5868 5884 5853 5889 5830 5895 5862 5883 5848 5879 5839 5894 5805 5882 5885 5890 5859 5898 5868 5867 5810 5891 5895 5859 5868 5888 5877 5901 5879 5905 5876 5846 5916 5859 5871 5872 5882 5881 5907 5857 5822 5845 5894 5851 5852 5858 5849 5844 5883 5889 5877 5845 5869 5878 5859 5868 5891 5867 5879 5864 5868 5887 5900 5890 5859 5854 5877 5905 5859 5887 5870 5907 5896 5883 5841 5870 5844 5843 5893 5858 5878 5898 5889 5844 5905 5861 5866 5865 5862 5886 5838 5852 5851 5899 5890 5894 5841 5901 5857 5866 5879 5880 5823 5865 5890 5881 5849 5875 5812 5873 5875 5884 5850 5874 5842 5887 5878 5867 5847 5908 5871 5909 5887 5872 5812 5869 5843 5884 5880 5861 5866 5866 5877 5862 5853 5875 5871 5852 5812 5861 5847 5899 5831 5855 5884 5870 5850 5873 5873 5874 5866 5837 5856 5827 5825 5867 5882 5861 5873 5896 5876 5863 5864 5894 5851 5893 5828 5873 5897 5879 5869 5883 5885 5815 5893 5847 5876 5829 5853 5870 5878 5872 5909 5849 5828 5860 5865 5872 5850 5868 5891 5849 5840 5859 5858 5868 5856 5882 5843 5823 5888 5874 5863 5874 5884 5882 5853 5924 5897 5884 5883 5850 5872 5817 5841 5856 5901 5870 5847 5932 5891 5875 5887 5864 5873 5859 5910 5870 5854 5866 5857 5867 5835 5886 5909 5866 5866 5877 5862 5867 5908 5863 5859 5836 5872 5886 5843 5833 5865 5861 5857 5867 5887 5851 5838 5840 5839 5836 5856 5861 5902 5866 5838 5853 5865 5840 5838 5850 5858 5856 5862 5846 5844 5879 5872 5839 5867 5892 5900 5871 5826 5879 5852 5852 5882 5885 5875 5842 5886 5902 5867 5849 5859 5900 5848 5913 5922 5866 5845 5846 5903 5866 5875 5867 5863 5883 5900 5869 5851 5848 5865 5867 5861 5835 5856 5852 5889

Tree=0
num_leaves=63
num_cat=0
split_feature=0 0 0 2 0 2 0 8 8 2 8 5 0 0 0 8 2 0 0 2 0 0 8 2 8 0 0 0 2 8 8 8 5 5 2 8 2 2 2 2 2 2 2 2 5 8 2 2 2 8 2 0 2 0 0 0 2 8 0 5 0 8
split_gain=4791.69 620.287 499.199 132.684 76.374 60.9327 47.0802 34.8787 33.3852 24.5088 17.563 17.1905 16.3221 15.9594 14.0933 11.8595 11.5758 10.8365 9.23047 8.99473 8.90598 8.18354 7.84247 6.57024 6.27599 6.08452 5.56512 5.5357 4.78524 4.21681 3.93277 3.76774 3.53327 3.47176 3.35328 3.14742 3.05487 3.04883 2.99511 2.87394 2.7931 2.6764 2.5586 2.50472 2.94286 2.5024 2.32651 2.25697 2.18132 2.0097 1.78004 1.7739 1.70443 1.70141 1.63964 1.58511 1.58323 1.56209 1.55752 1.51933 1.47888 1.41124
threshold=17.500000000000004 23.500000000000004 9.5000000000000018 106.50000000000001 13.500000000000002 100.50000000000001 5.5000000000000009 41.500000000000007 52.500000000000007 96.500000000000014 46.500000000000007 175.30000000000004 20.500000000000004 27.500000000000004 27.500000000000004 48.500000000000007 92.500000000000014 26.500000000000004 27.500000000000004 100.50000000000001 26.500000000000004 19.500000000000004 42.500000000000007 111.50000000000001 38.500000000000007 21.500000000000004 7.5000000000000009 3.5000000000000004 105.50000000000001 45.500000000000007 45.500000000000007 50.500000000000007 190.70000000000002 195.10000000000002 112.50000000000001 30.500000000000004 90.500000000000014 85.500000000000014 91.500000000000014 96.500000000000014 111.50000000000001 112.50000000000001 95.500000000000014 100.50000000000001 170.90000000000003 55.500000000000007 102.50000000000001 96.500000000000014 103.50000000000001 37.500000000000007 86.500000000000014 11.500000000000002 107.50000000000001 26.500000000000004 25.500000000000004 11.500000000000002 87.500000000000014 54.500000000000007 15.500000000000002 188.50000000000003 25.500000000000004 64.500000000000014
decision_type=2 2 2 2 2 2 2 2 2 2 2 2 2 2 2 2 2 2 2 2 2 2 2 2 2 2 2 2 2 2 2 2 2 2 2 2 2 2 2 2 2 2 2 2 2 2 2 2 2 2 2 2 2 2 2 2 2 2 2 2 2 2
left_child=2 5 6 8 16 10 27 14 13 22 21 18 30 19 34 28 29 43 60 49 57 39 36 -16 58 47 56 -1 -14 50 -7 51 -19 52 53 -21 -6 -28 -24 -2 -20 45 -23 -10 -45 -22 -26 -12 -15 -3 -4 -18 -17 -5 -37 -31 -8 -13 -11 -25 -9 -49
right_child=1 3 4 7 9 12 26 11 17 24 25 20 15 48 23 33 31 32 40 35 41 42 38 59 46 -27 37 -29 -30 55 -32 -33 -34 -35 -36 54 -38 -39 -40 -41 -42 -43 -44 44 -46 -47 -48 61 -50 -51 -52 -53 -54 -55 -56 -57 -58 -59 -60 -61 -62 -63
leaf_value=-0.065039270638107313 -0.0057693474502556342 0.027730096897338533 -0.043147048628813953 0.057808188163553847 -0.026670867380344309 0.019136772024242684 -0.052611076994707531 0.069611063860406983 0.052957967985283454 -0.0099580393326813704 0.013630604382082034 0.083377866395633674 0.029534566282260196 0.055748744291709063 0.076403443550346076 0.045146602157601926 -0.029787644720700366 0.078818576159312634 0.090166654584156236 0.04252484614729387 0.098626572154512523 0.0059507131747262411 -0.014237136169776151 0.090594585160934604 0.00556781258810301 0.037795193796792699 -0.048423458398024831 -0.057593401050548255 0.043019183974261105 -0.031209692578335391 0.031567137126990101 -0.015046722466066722 0.10075811606176474 0.067903559848039044 0.077060816791361925 0.047896192565836299 -0.016251090417520257 -0.039782195648976976 -0.0025386744166413944 0.006418184779428438 0.10666488008703827 0.130406668121892 0.016900556832148056 0.059934401447850255 0.078027915074651594 0.11927953185349302 0.019364324332082364 0.020063977409503171 0.068391072650734255 0.04090720338715112 -0.034627556343597397 -0.022152592579247777 0.060835345945124568 0.070246547186838565 0.057984346169269486 -0.022098029188344793 -0.046803502348640925 0.099807298103862185 -0.00039449612970668993 0.1061875158473061 0.081409783503659502 0.031721014830604126
leaf_weight=556 102 78 85 107 99 133 266 44 45 80 84 23 152 57 126 70 126 69 58 116 22 76 92 61 156 62 147 453 116 123 122 129 25 33 42 75 243 334 135 92 46 30 179 55 38 44 38 68 85 46 220 192 23 37 87 78 210 39 91 21 67 42
leaf_count=556 102 78 85 107 99 133 266 44 45 80 84 23 152 57 126 70 126 69 58 116 22 76 92 61 156 62 147 453 116 123 122 129 25 33 42 75 243 334 135 92 46 30 179 55 38 44 38 68 85 46 220 192 23 37 87 78 210 39 91 21 67 42
internal_value=5.31751e-10 0.0485834 -0.036529 0.0702564 -0.0181588 0.0238852 -0.054161 0.0850042 0.0556795 -0.00799795 0.0137083 0.0959626 0.0349401 0.0489069 0.0746299 0.0413192 -0.0281171 0.0715603 0.0867609 0.0438169 0.108484 0.00774934 -0.014485 0.0835723 0.00211474 0.0241598 -0.0462161 -0.0616964 0.0353712 -0.0332964 0.0250838 -0.0222541 0.0846536 0.0539706 0.0646299 0.048812 -0.0192673 -0.0424231 -0.0072799 1.0307e-05 0.0974639 0.118024 0.0136371 0.0626417 0.0673275 0.112395 0.00827022 0.0198021 0.0633163 0.0326184 -0.0370018 -0.0251778 0.0490266 0.0610042 0.0533139 -0.0276738 -0.0500489 0.0937125 -0.00486867 0.0945879 0.0767328 0.0245148
internal_weight=0 2897 3853 1543 1887 1354 1966 767 776 934 705 373 649 544 394 394 953 232 215 402 158 449 569 208 365 256 957 1009 268 506 255 447 94 126 186 278 342 481 227 194 104 96 255 138 93 66 194 194 142 124 305 318 93 144 162 201 476 62 171 82 111 110
internal_count=6750 2897 3853 1543 1887 1354 1966 767 776 934 705 373 649 544 394 394 953 232 215 402 158 449 569 208 365 256 957 1009 268 506 255 447 94 126 186 278 342 481 227 194 104 96 255 138 93 66 194 194 142 124 305 318 93 144 162 201 476 62 171 82 111 110
is_linear=0
shrinkage=1


Tree=1
num_leaves=63
num_cat=0
split_feature=0 0 0 2 0 2 0 8 8 2 7 8 0 0 2 2 0 0 2 0 8 0 8 8 8 0 8 2 0 0 0 7 2 2 8 7 8 8 2 2 2 8 8 2 2 0 7 0 7 2 2 8 7 0 8 7 8 7 2 0 7 8
split_gain=4324.5 559.809 450.527 119.747 68.9276 54.9917 42.4899 31.478 30.1302 22.1192 17.1845 15.8506 14.732 14.4034 12.7851 10.4471 9.77997 9.56716 8.14034 7.4536 7.10122 6.99088 6.53667 6.28278 5.66408 5.49128 5.17548 5.04229 4.99597 4.78563 4.64677 4.1953 3.99494 3.85401 3.80567 3.68587 3.40038 3.29305 3.00282 2.9563 2.77721 2.51319 2.40059 2.39102 2.30819 2.26766 2.25656 2.22847 2.18493 2.16752 2.14599 2.12756 2.0933 1.91598 1.81451 1.69675 1.64049 1.62975 1.62639 1.60094 1.58794 1.47165
threshold=17.500000000000004 23.500000000000004 9.5000000000000018 106.50000000000001 13.500000000000002 100.50000000000001 5.5000000000000009 41.500000000000007 52.500000000000007 96.500000000000014 1.0000000180025095e-35 46.500000000000007 21.500000000000004 27.500000000000004 110.50000000000001 92.500000000000014 26.500000000000004 26.500000000000004 99.500000000000014 20.500000000000004 39.500000000000007 26.500000000000004 58.500000000000007 45.500000000000007 38.500000000000007 21.500000000000004 61.500000000000007 88.500000000000014 3.5000000000000004 26.500000000000004 28.500000000000004 1.0000000180025095e-35 97.500000000000014 109.50000000000001 45.500000000000007 1.0000000180025095e-35 50.500000000000007 32.500000000000007 105.50000000000001 91.500000000000014 103.50000000000001 54.500000000000007 45.500000000000007 88.500000000000014 112.50000000000001 7.5000000000000009 1.0000000180025095e-35 16.500000000000004 1.0000000180025095e-35 99.500000000000014 105.50000000000001 42.500000000000007 1.0000000180025095e-35 25.500000000000004 65.500000000000014 1.0000000180025095e-35 34.500000000000007 1.0000000180025095e-35 103.50000000000001 11.500000000000002 1.0000000180025095e-35 66.500000000000014
decision_type=2 2 2 2 2 2 2 2 2 2 2 2 2 2 2 2 2 2 2 2 2 2 2 2 2 2 2 2 2 2 2 2 2 2 2 2 2 2 2 2 2 2 2 2 2 2 2 2 2 2 2 2 2 2 2 2 2 2 2 2 2 2
left_child=2 5 6 8 15 11 28 14 13 20 17 19 22 18 29 34 35 41 -3 32 43 -12 38 50 -11 52 33 42 -1 -5 -16 61 60 -19 57 49 59 -20 56 -22 -25 -9 -8 -6 -23 -29 -24 -26 -42 -10 -14 58 54 -39 -13 -45 -7 -4 -15 -17 -2 -18
right_child=1 3 4 7 9 12 27 10 16 24 21 25 23 51 30 36 31 26 37 -21 39 44 46 40 47 -27 -28 45 -30 -31 -32 -33 -34 -35 -36 -37 -38 53 -40 -41 48 -43 -44 55 -46 -47 -48 -49 -50 -51 -52 -53 -54 -55 -56 -57 -58 -59 -60 -61 -62 -63
leaf_value=-0.061787307316021958 -0.0073804980191025174 0.027885733742047759 -0.038700386483198519 0.054135909417401186 -0.028662448118512446 0.016283214681527831 -0.049601346984022132 0.076841055788099771 0.054473643451929094 -0.0046252355976193621 0.066464255537305561 0.01849553196145029 0.030844770758240311 0.049586479862531029 0.073921553097148929 -0.02829826264863923 0.082887366143139934 0.088209926883379627 0.040034295949671006 0.015653990463666431 -0.014149194428741577 0.081437577570185937 0.047262665697119455 0.042773110494017608 0.0040527665283704222 0.035905433938868588 0.12354018860393101 -0.044016172910878761 -0.054713734017302666 0.069135824460831899 0.090350529193878176 0.070721665200065162 0.0096716041102938889 0.11134602705637614 -0.026290132135004547 0.051798930560072814 -0.014294387150353702 0.044626849097541617 0.031309420903844219 -0.0032831804718702071 0.069524375631891441 0.095170390076107447 -0.042912768297367267 -0.020798448502753322 0.096035268439186958 -0.036354382928281893 0.031156493480815447 0.015406076017803012 0.049563272068133726 0.074256409274207222 0.042542035289500894 0.071731546328913778 0.013671455219654099 0.055442786497228294 0.03255210865877177 -0.012665630015733887 0.024978799707143107 -0.031387317533025871 0.061913697195775587 -0.021044963033637034 0.0023416459057313791 0.10139219051315672
leaf_weight=556 84 85 157 92 52 110 339 32 20 171 63 58 81 45 101 126 22 30 153 169 105 68 44 40 129 62 45 167 453 126 75 51 112 45 201 73 129 79 93 155 29 45 222 134 45 229 43 65 26 45 76 31 98 85 38 123 107 148 66 192 84 21
leaf_count=556 84 85 157 92 52 110 339 32 20 171 63 58 81 45 101 126 22 30 153 169 105 68 44 40 129 62 45 167 453 126 75 51 112 45 201 73 129 79 93 155 29 45 222 134 45 229 43 65 26 45 76 31 98 85 38 123 107 148 66 192 84 21
internal_value=0 0.0461542 -0.0347025 0.0667435 -0.0172509 0.0226909 -0.0514529 0.080754 0.0528956 -0.00759806 0.0911645 0.0130229 0.0331931 0.0464615 0.0708984 -0.0267112 0.0679823 0.101308 0.0416261 0.00736187 -0.0137608 0.0798102 0.0271913 0.0426484 0.002009 0.0229518 0.110135 -0.0439053 -0.0586116 0.0628056 0.0809225 0.0804209 0.00235699 0.102092 -0.0316316 0.0595097 -0.0211414 0.0453104 0.0237925 -0.00767138 0.0527976 0.087553 -0.0469545 -0.0188845 0.0872508 -0.0395855 0.0393021 0.00785671 0.0600882 0.0681694 0.0365071 0.0601505 0.018812 0.0502327 0.0240596 -0.0169061 0.0205709 -0.0351517 0.0569162 -0.0239189 -0.00251943 0.0919246
internal_weight=0 2897 3853 1543 1887 1354 1966 767 776 934 373 705 649 544 394 953 232 197 402 449 569 176 397 252 365 256 120 957 1009 218 176 94 280 75 506 138 447 317 310 260 95 77 561 309 113 396 87 194 55 65 157 142 194 164 96 257 217 305 111 318 168 43
internal_count=6750 2897 3853 1543 1887 1354 1966 767 776 934 373 705 649 544 394 953 232 197 402 449 569 176 397 252 365 256 120 957 1009 218 176 94 280 75 506 138 447 317 310 260 95 77 561 309 113 396 87 194 55 65 157 142 194 164 96 257 217 305 111 318 168 43
is_linear=0
shrinkage=0.05


Tree=2
num_leaves=63
num_cat=0
split_feature=0 0 0 2 0 2 0 8 8 0 0 2 8 0 2 5 8 0 0 0 2 2 0 8 2 5 8 0 8 2 2 8 5 2 2 8 2 2 2 8 8 2 0 0 2 0 2 8 5 0 0 0 5 0 8 5 2 8 8 5 0 2
split_gain=3902.86 505.228 406.873 108.544 56.6087 49.63 43.1555 32.9698 23.1628 16.1046 15.5151 14.3559 14.3052 13.7901 11.2955 10.473 9.81021 9.11196 8.82807 8.75459 7.32042 6.88094 6.80518 5.95525 5.78643 5.44894 5.08149 4.95588 4.28715 3.98242 3.94972 3.24894 2.96948 2.90822 2.78128 2.74547 2.63538 2.53127 2.41656 2.40091 2.32313 2.23309 2.15757 2.13525 2.01361 2 1.92193 1.88247 1.82543 1.74039 1.73764 1.56753 1.50976 1.46789 1.45829 1.44142 1.43988 1.42079 1.31322 1.26971 1.2098 1.19892
threshold=17.500000000000004 23.500000000000004 10.500000000000002 105.50000000000001 6.5000000000000009 100.50000000000001 14.500000000000002 44.500000000000007 46.500000000000007 27.500000000000004 26.500000000000004 96.500000000000014 46.500000000000007 20.500000000000004 91.500000000000014 175.30000000000004 48.500000000000007 4.5000000000000009 27.500000000000004 26.500000000000004 111.50000000000001 88.500000000000014 19.500000000000004 44.500000000000007 98.500000000000014 168.70000000000002 52.500000000000007 21.500000000000004 42.500000000000007 104.50000000000001 110.50000000000001 45.500000000000007 195.10000000000002 112.50000000000001 90.500000000000014 59.500000000000007 101.50000000000001 111.50000000000001 93.500000000000014 46.500000000000007 56.500000000000007 95.500000000000014 2.5000000000000004 8.5000000000000018 96.500000000000014 12.500000000000002 96.500000000000014 62.500000000000007 170.90000000000003 25.500000000000004 25.500000000000004 16.500000000000004 190.70000000000002 12.500000000000002 66.500000000000014 166.45000000000002 107.50000000000001 38.500000000000007 26.500000000000004 168.70000000000002 28.500000000000004 86.500000000000014
decision_type=2 2 2 2 2 2 2 2 2 2 2 2 2 2 2 2 2 2 2 2 2 2 2 2 2 2 2 2 2 2 2 2 2 2 2 2 2 2 2 2 2 2 2 2 2 2 2 2 2 2 2 2 2 2 2 2 2 2 2 2 2 2
left_child=2 5 4 8 17 12 14 9 18 30 25 26 22 31 35 37 29 42 24 36 58 39 38 45 -3 -9 34 44 -13 -15 50 -7 56 54 -8 53 -10 60 -2 -6 -21 -24 -1 -23 -14 -16 -25 -27 -38 -26 -5 -30 -22 -4 -17 -42 -18 -45 -11 -33 -12 -19
right_child=1 3 6 7 21 13 11 10 19 20 15 28 27 16 23 33 32 61 -20 40 52 43 41 46 49 47 -28 -29 51 -31 -32 59 -34 -35 -36 -37 48 -39 -40 -41 55 -43 -44 57 -46 -47 -48 -49 -50 -51 -52 -53 -54 -55 -56 -57 -58 -59 -60 -61 -62 -63
leaf_value=-0.060377040043427956 -0.0094078590043400433 0.021131440158933402 -0.032620722824527375 0.047671518876002385 -0.044954132128098831 0.01706849739963847 -0.021988951396651385 0.064276485512783005 0.046072644300949879 0.063005177247322214 0.07384919926177623 -0.0016716234963566352 0.012042118365588111 0.025218295312176148 -0.024845253532895677 0.096485128174436857 0.040764860723699843 -0.050760388188064103 0.053513625595304704 0.0617777975069152 0.083103153961045409 -0.037796363646154248 0.00518202818937808 -0.014198722393672553 0.035470255561746086 0.076179324537515636 -0.0016125309186660359 0.034110162383125676 0.0062821080154390075 0.037475440822340347 0.067205766053266933 0.024115884138478174 0.061789182731599529 0.12111677068930407 -0.011137736924389881 -0.019334352847475273 0.052601001453849508 0.093641851870518822 0.003269134750557165 -0.037592813028739049 0.068781068563461306 0.015411658694332872 -0.055047108926592536 -0.034356187273924414 0.02232281346212734 -0.017316516538338707 -0.0047190692337685603 0.09244960695505143 0.066960635232297991 0.043838766605413262 0.057766442825185498 0.01756756258569658 0.098388859487715224 -0.025509629899463732 0.11184998621111331 0.08459651137099547 0.05518476626147395 -0.02741624563932419 0.072281148146699989 0.034487612977623941 0.086181302972742027 -0.045744636359642141
leaf_weight=329 51 52 186 78 283 133 82 77 78 59 43 156 84 120 156 47 70 272 99 36 70 181 76 124 130 40 111 62 80 148 71 72 33 26 211 78 53 53 143 182 25 179 449 148 110 203 94 32 38 119 94 50 21 119 23 34 23 147 108 50 37 212
leaf_count=329 51 52 186 78 283 133 82 77 78 59 43 156 84 120 156 47 70 272 99 36 70 181 76 124 130 40 111 62 80 148 71 72 33 26 211 78 53 53 143 182 25 179 449 148 110 203 94 32 38 119 94 50 21 119 23 34 23 147 108 50 37 212
internal_value=0 0.0438465 -0.0329674 0.0634064 -0.047029 0.0215564 -0.014193 0.0749324 0.0481483 0.0665211 0.0860806 -0.00465503 0.0123718 0.0315335 -0.0210485 0.0942517 0.0373969 -0.05395 0.0405616 0.0596433 0.0752211 -0.037747 0.00699378 -0.0166297 0.0363016 0.0735225 -0.0107231 0.0218042 0.00391669 0.0319872 0.0572841 0.0224739 0.0489034 0.106837 -0.0141746 -0.0277054 0.0528167 0.0851672 -6.3477e-05 -0.0420729 0.0717875 0.0123628 -0.057301 -0.0335211 0.0178714 -0.0205881 -0.0101112 0.0834106 0.0585973 0.0394697 0.0531885 0.0106227 0.0866306 -0.0298462 0.101534 0.0778951 0.0443311 -0.030898 0.069004 0.0283666 0.0795528 -0.0485634
internal_weight=0 2897 3853 1543 2203 1354 1650 879 664 501 378 690 705 649 960 229 394 1262 400 264 258 941 449 577 301 149 404 256 286 268 243 255 126 96 293 383 169 133 194 465 95 255 778 476 194 359 218 72 91 249 172 130 91 305 70 59 93 295 167 122 80 484
internal_count=6750 2897 3853 1543 2203 1354 1650 879 664 501 378 690 705 649 960 229 394 1262 400 264 258 941 449 577 301 149 404 256 286 268 243 255 126 96 293 383 169 133 194 465 95 255 778 476 194 359 218 72 91 249 172 130 91 305 70 59 93 295 167 122 80 484
is_linear=0
shrinkage=0.05


Tree=3
num_leaves=63
num_cat=0
split_feature=0 0 0 2 0 2 0 8 8 2 7 8 0 0 0 8 2 0 0 0 8 2 2 0 0 8 0 0 2 7 2 8 7 2 2 7 8 8 8 2 2 2 2 5 8 8 0 2 0 7 2 2 2 7 8 0 2 8 8 0 8 0
split_gain=3522.33 455.968 367.624 98.1933 56.3806 44.7911 34.6165 25.8759 24.7468 18.1308 17.0856 12.9691 12.5855 12.4456 11.8169 8.88504 8.57908 7.84387 7.66935 7.05282 6.07246 5.8488 5.13311 5.13047 4.69246 4.66254 4.30127 4.09869 3.61294 3.5441 3.48556 3.46409 3.3451 3.33293 3.22123 3.17471 2.97355 2.88502 2.65339 2.63408 2.40428 2.39412 2.37536 2.01815 1.90568 1.86749 1.83325 1.76864 1.74247 1.71434 1.4783 1.42704 1.40823 1.38084 1.3622 1.35813 1.35566 1.32693 1.3252 1.31472 1.2793 1.27855
threshold=17.500000000000004 23.500000000000004 9.5000000000000018 106.50000000000001 13.500000000000002 100.50000000000001 5.5000000000000009 46.500000000000007 52.500000000000007 96.500000000000014 1.0000000180025095e-35 51.500000000000007 27.500000000000004 20.500000000000004 25.500000000000004 45.500000000000007 94.500000000000014 26.500000000000004 27.500000000000004 20.500000000000004 52.500000000000007 111.50000000000001 103.50000000000001 26.500000000000004 19.500000000000004 38.500000000000007 7.5000000000000009 3.5000000000000004 103.50000000000001 1.0000000180025095e-35 97.500000000000014 48.500000000000007 1.0000000180025095e-35 100.50000000000001 90.500000000000014 1.0000000180025095e-35 37.500000000000007 64.500000000000014 34.500000000000007 111.50000000000001 105.50000000000001 84.500000000000014 88.500000000000014 170.90000000000003 40.500000000000007 49.500000000000007 15.500000000000002 99.500000000000014 25.500000000000004 1.0000000180025095e-35 95.500000000000014 103.50000000000001 112.50000000000001 1.0000000180025095e-35 52.500000000000007 11.500000000000002 91.500000000000014 26.500000000000004 25.500000000000004 16.500000000000004 45.500000000000007 28.500000000000004
decision_type=2 2 2 2 2 2 2 2 2 2 2 2 2 2 2 2 2 2 2 2 2 2 2 2 2 2 2 2 2 2 2 2 2 2 2 2 2 2 2 2 2 2 2 2 2 2 2 2 2 2 2 2 2 2 2 2 2 2 2 2 2 2
left_child=2 5 6 8 16 11 27 12 14 20 18 19 39 36 33 28 31 35 37 30 34 57 38 -12 -13 51 60 -1 -15 -19 58 42 40 -3 -6 47 -7 -9 -16 48 -17 -28 -4 -27 61 -18 -36 -10 -5 -26 -21 -11 -25 -38 -43 -33 -22 -14 -2 -45 -8 -24
right_child=1 3 4 7 9 13 26 10 17 25 23 24 21 15 22 32 45 29 -20 50 56 -23 44 52 49 43 41 -29 -30 -31 -32 55 -34 -35 46 -37 53 -39 -40 -41 -42 54 -44 59 -46 -47 -48 -49 -50 -51 -52 -53 -54 -55 -56 -57 -58 -59 -60 -61 -62 -63
leaf_value=-0.055787893057727127 -0.0087059711476749919 0.024868096502088918 -0.035297141458307001 0.04725228399038315 -0.022295400306461304 0.014791124444274072 -0.045119802164031081 0.076942620252041113 0.049446330517530446 -0.0064211723744787667 0.060304294989026834 0.014516607058620214 0.060020808875560765 0.021601129854205012 0.036382501487879408 0.044838069899137634 -0.019835563248770251 0.083081634308016572 0.10724032062131006 0.0078411386782371913 -0.0094340218903286571 0.082680959006150578 0.048507962195496815 0.074332742712327413 0.035663268182958875 0.001919093334049165 -0.042743188652906335 -0.049380936619988075 0.034219891326559108 0.063593618834719937 0.0092360358116537582 -0.025647452197247941 0.037363878615638793 0.037648346821467088 -0.016222843741769532 0.046624906381515611 0.030818200080345078 0.09533815842408401 0.049155519391809198 0.06526247223218283 0.062780378894372421 -0.036524666155256874 -0.027375393758897915 0.0078236151022792917 0.064217495918273929 -0.011398343150843478 -0.0083122844555333381 0.067316379017300074 0.058006083059914504 0.022925510324537754 0.017579611229344407 0.0050230674993465936 0.087007967134316772 0.021273706564679744 -0.030097595902700582 -0.017678628314999827 0.00021879765501415187 0.070102163272745474 0.00089367553897857404 0.01976747444520394 -0.039826817308601582 0.060665358922311244
leaf_weight=556 49 82 140 72 123 103 286 47 20 137 58 99 48 87 97 43 207 43 74 54 62 96 95 56 56 94 111 453 163 51 122 124 68 135 163 73 72 39 70 60 33 246 292 64 37 96 133 45 79 50 140 34 36 80 124 94 88 102 135 36 190 28
leaf_count=556 49 82 140 72 123 103 286 47 20 137 58 99 48 87 97 43 207 43 74 54 62 96 95 56 56 94 111 453 163 51 122 124 68 135 163 73 72 39 70 60 33 246 292 64 37 96 133 45 79 50 140 34 36 80 124 94 88 102 135 36 190 28
internal_value=0 0.0416542 -0.031319 0.0602361 -0.0155546 0.0204785 -0.04645 0.0729231 0.0476961 -0.00682444 0.0840737 0.0117532 0.0653593 0.0299568 0.0418651 0.0355271 -0.0241107 0.0613688 0.0954392 0.00741083 -0.0124039 0.0730439 0.0478683 0.0719505 0.0223442 0.00187348 -0.0396374 -0.0529114 0.0298286 0.0725083 0.00268252 -0.0273497 0.0454204 0.0328189 -0.0154945 0.053781 0.0213502 0.0852848 0.0417365 0.0564 0.0526288 -0.0363028 -0.0299426 0.00717905 0.0542683 -0.0171624 -0.0126684 0.0618179 0.0528784 0.0296549 0.0148689 -0.00414571 0.0792926 0.0257948 -0.0343707 -0.0222114 -0.00377103 0.0668761 -0.00166275 0.0121234 -0.0430071 0.0512755
internal_weight=0 2897 3853 1543 1887 1354 1966 767 776 934 310 705 457 649 544 394 953 232 160 500 569 246 327 150 205 365 957 1009 250 94 306 650 144 217 419 138 255 86 167 211 76 481 432 194 160 303 296 65 151 106 194 171 92 152 370 218 150 150 184 100 476 123
internal_count=6750 2897 3853 1543 1887 1354 1966 767 776 934 310 705 457 649 544 394 953 232 160 500 569 246 327 150 205 365 957 1009 250 94 306 650 144 217 419 138 255 86 167 211 76 481 432 194 160 303 296 65 151 106 194 171 92 152 370 218 150 150 184 100 476 123
is_linear=0
shrinkage=0.05


Tree=4
num_leaves=63
num_cat=0
split_feature=0 0 0 2 2 0 0 8 8 0 8 7 2 2 0 2 8 0 0 0 0 2 7 8 2 7 8 8 8 8 0 8 7 2 2 2 2 0 2 8 0 0 7 2 8 7 2 0 2 2 0 2 7 2 7 7 8 2 0 8 0 2
split_gain=3178.91 411.908 332.387 68.6519 63.1692 46.0736 35.4761 26.8646 19.0624 16.5859 15.8976 12.3312 11.8353 10.327 9.50819 9.31865 8.94784 8.63497 8.54787 7.45747 5.84978 5.73387 4.94753 4.70294 4.41196 4.31272 3.77888 3.72832 3.6252 3.56291 3.1112 3.02456 2.88785 2.87836 2.80152 2.56859 2.3169 2.2244 2.16854 1.998 1.82729 1.81782 1.81657 1.72969 1.70448 1.68493 1.66218 1.66028 1.651 1.62779 1.43527 1.39276 1.38768 1.35434 1.30535 1.2389 1.22803 1.22509 1.21926 1.2037 1.16662 1.10689
threshold=17.500000000000004 24.500000000000004 10.500000000000002 108.50000000000001 102.50000000000001 6.5000000000000009 14.500000000000002 41.500000000000007 46.500000000000007 21.500000000000004 46.500000000000007 1.0000000180025095e-35 95.500000000000014 103.50000000000001 20.500000000000004 93.500000000000014 44.500000000000007 21.500000000000004 26.500000000000004 4.5000000000000009 27.500000000000004 88.500000000000014 1.0000000180025095e-35 42.500000000000007 97.500000000000014 1.0000000180025095e-35 43.500000000000007 48.500000000000007 66.500000000000014 37.500000000000007 27.500000000000004 45.500000000000007 1.0000000180025095e-35 112.50000000000001 97.500000000000014 111.50000000000001 97.500000000000014 27.500000000000004 99.500000000000014 46.500000000000007 2.5000000000000004 20.500000000000004 1.0000000180025095e-35 87.500000000000014 63.500000000000007 1.0000000180025095e-35 104.50000000000001 8.5000000000000018 104.50000000000001 107.50000000000001 12.500000000000002 100.50000000000001 1.0000000180025095e-35 102.50000000000001 1.0000000180025095e-35 1.0000000180025095e-35 33.500000000000007 100.50000000000001 16.500000000000004 38.500000000000007 11.500000000000002 89.500000000000014
decision_type=2 2 2 2 2 2 2 2 2 2 2 2 2 2 2 2 2 2 2 2 2 2 2 2 2 2 2 2 2 2 2 2 2 2 2 2 2 2 2 2 2 2 2 2 2 2 2 2 2 2 2 2 2 2 2 2 2 2 2 2 2 2
left_child=2 4 5 7 8 19 15 13 14 29 20 35 26 38 24 31 49 34 32 40 -5 39 28 51 52 48 45 50 46 -6 -15 43 53 -22 -10 -12 55 -13 -3 -7 -1 -31 58 -4 -36 61 -20 -23 -18 -11 -17 -14 -2 -9 -19 -16 -38 -29 -25 -49 -33 -8
right_child=1 3 6 10 9 21 12 18 17 16 11 37 23 30 36 27 25 54 22 -21 33 47 -24 42 -26 -27 -28 57 -30 41 -32 60 -34 -35 44 -37 56 -39 -40 -41 -42 -43 -44 -45 -46 -47 -48 59 -50 -51 -52 -53 -54 -55 -56 -57 -58 -59 -60 -61 -62 -63
leaf_value=-0.054568787956310261 -0.0068732803590094028 0.025730217874727471 -0.032335676694964316 0.058664477597112241 0.019231128740387085 -0.040665971095486163 -0.028182653824870403 0.052430502281469463 0.012297030007387074 0.032234351004545504 0.090263421301330846 0.065310547749201461 -0.0059118638954047745 0.044395973871080137 0.0030637476527585819 -0.021017967038337262 0.048532358489253302 0.038688755346767939 0.05973277258872986 -0.043833332810520147 0.067953397319695671 -0.034000964331034139 0.06054347949285134 0.0092145441261557298 0.0092538171572182689 0.042677282797756483 -0.0043993211495259475 -0.0093415547020655743 0.091090280434180951 0.02660304547140473 0.055337224485444238 -0.024437709833527433 0.046520042971653103 0.080938094014852829 0.017578657738108568 0.10593886703861005 0.015902779825652639 0.080169186277209592 0.037587534699791168 -0.033950678373758612 -0.049663748859297197 0.037897580365339918 0.0030264211611714786 -0.024221376897925039 0.029050883186645195 -0.010120883918146499 0.075750066016031348 -0.031101094709860312 0.064781913547604181 0.041736015331917918 -0.013969717905829751 0.0029231119600885459 0.0022151643643848642 0.065784328621487295 0.028663461507549361 0.014336130530215228 0.024541068842841518 0.0024464655616881189 0.021647383227492822 -0.024713299910024723 -0.015920116942560743 -0.016360167822385408
leaf_weight=329 84 55 91 115 117 283 26 34 117 130 56 48 120 139 39 124 22 67 25 484 107 181 102 49 161 67 146 120 29 95 122 58 85 71 69 49 96 53 129 182 449 57 65 236 61 97 46 148 54 69 173 71 84 43 63 65 72 27 33 147 131 83
leaf_count=329 84 55 91 115 117 283 26 34 117 130 56 48 120 139 39 124 22 67 25 484 107 181 102 49 161 67 146 120 29 95 122 58 85 71 69 49 96 53 129 182 449 57 65 236 61 97 46 148 54 69 173 71 84 43 63 65 72 27 33 147 131 83
internal_value=0 0.0395715 -0.0297531 0.0603519 0.0224659 -0.0424625 -0.012784 0.0513555 0.0145862 0.0350787 0.0749372 0.0855807 -0.00413617 0.0431149 0.00905747 -0.0189996 0.0423847 0.0233998 0.0614298 -0.0487064 0.067454 -0.0340887 0.0682915 0.00254648 0.00333916 0.0519253 -0.010553 -0.013689 0.0761944 0.0257899 0.0495103 -0.0235692 0.0528739 0.0731327 0.0179101 0.0975786 0.0159741 0.0731077 0.0340432 -0.0380376 -0.051738 0.0308385 0.00926934 -0.0264795 0.0229618 -0.0149144 0.0701102 -0.0302311 0.0600781 0.0355289 -0.0169124 -0.00262766 -0.00232906 0.0598878 0.0338303 0.010109 0.0196049 -0.00717641 0.014218 -0.027918 -0.018534 -0.0191802
internal_weight=0 2897 3853 1308 1589 2203 1650 809 978 611 499 206 690 445 601 960 342 377 364 1262 293 941 202 338 329 143 352 444 100 269 261 516 162 178 247 105 272 101 184 465 778 152 147 327 130 206 71 476 76 199 297 191 168 77 130 104 168 147 82 295 189 109
internal_count=6750 2897 3853 1308 1589 2203 1650 809 978 611 499 206 690 445 601 960 342 377 364 1262 293 941 202 338 329 143 352 444 100 269 261 516 162 178 247 105 272 101 184 465 778 152 147 327 130 206 71 476 76 199 297 191 168 77 130 104 168 147 82 295 189 109
is_linear=0
shrinkage=0.05


Tree=5
num_leaves=63
num_cat=0
split_feature=0 0 0 2 0 2 0 8 8 8 2 2 7 8 2 0 0 5 0 0 2 8 0 8 8 7 0 2 0 0 0 0 8 2 5 2 5 0 2 0 8 7 7 7 0 2 8 2 8 2 7 8 5 8 5 2 2 2 8 0 2 2
split_gain=2870.25 377.128 295.811 61.9583 57.8566 44.4341 37.371 24.4605 17.421 14.4694 13.0177 11.4288 10.1393 9.08804 8.71942 7.97619 6.73037 6.54803 6.10119 5.97778 5.07306 4.6845 4.5214 4.23822 4.07572 3.93069 3.72335 3.66082 3.33803 3.22478 3.15214 3.08022 2.81588 2.68868 2.67748 2.67018 2.58388 2.56663 2.55887 2.20532 2.00612 1.74238 1.72355 1.66814 1.64913 1.61257 1.58711 1.57786 1.55385 1.49676 1.41803 1.27289 1.2363 1.21341 1.18834 1.18338 1.1799 1.15292 1.1205 1.12007 1.07219 1.03381
threshold=18.500000000000004 11.500000000000002 24.500000000000004 108.50000000000001 6.5000000000000009 103.50000000000001 15.500000000000002 49.500000000000007 42.500000000000007 41.500000000000007 96.500000000000014 103.50000000000001 1.0000000180025095e-35 39.500000000000007 96.500000000000014 8.5000000000000018 4.5000000000000009 184.10000000000002 21.500000000000004 21.500000000000004 97.500000000000014 50.500000000000007 26.500000000000004 50.500000000000007 35.500000000000007 1.0000000180025095e-35 27.500000000000004 86.500000000000014 27.500000000000004 26.500000000000004 21.500000000000004 26.500000000000004 45.500000000000007 89.500000000000014 188.50000000000003 113.50000000000001 197.30000000000004 21.500000000000004 99.500000000000014 27.500000000000004 58.500000000000007 1.0000000180025095e-35 1.0000000180025095e-35 1.0000000180025095e-35 2.5000000000000004 102.50000000000001 51.500000000000007 96.500000000000014 32.500000000000007 88.500000000000014 1.0000000180025095e-35 31.500000000000004 184.10000000000002 31.500000000000004 170.90000000000003 94.500000000000014 103.50000000000001 91.500000000000014 63.500000000000007 21.500000000000004 83.500000000000014 106.50000000000001
decision_type=2 2 2 2 2 2 2 2 2 2 2 2 2 2 2 2 2 2 2 2 2 2 2 2 2 2 2 2 2 2 2 2 2 2 2 2 2 2 2 2 2 2 2 2 2 2 2 2 2 2 2 2 2 2 2 2 2 2 2 2 2 2
left_child=1 4 5 7 16 8 14 11 20 22 24 38 29 37 21 49 44 28 34 52 42 33 -5 45 50 46 51 -17 56 -11 -22 -19 -16 -3 47 -24 -31 -7 -4 -14 55 -20 -2 -25 -1 -12 -21 -10 -28 -6 -8 -13 -15 -40 -34 -29 -9 -26 -36 -44 -18 -39
right_child=2 6 3 9 15 13 10 17 18 12 23 26 39 19 32 27 60 31 41 25 30 -23 35 43 57 -27 48 40 -30 36 -32 -33 54 -35 58 -37 -38 61 53 -41 -42 -43 59 -45 -46 -47 -48 -49 -50 -51 -52 -53 -54 -55 -56 -57 -58 -59 -60 -61 -62 -63
leaf_value=-0.051840349859742042 -0.0015300355272763091 -0.026044417444125629 0.025350623042322697 0.052118410568841748 -0.038091623967455836 0.022274776052956177 -0.016097832473298147 0.043966899977789992 0.0079900448210537441 0.077900028228759771 0.0010334098869758958 0.039086241339459836 0.061857093786293608 0.028975409691532457 -0.010794357716662401 -0.034161555342659168 -0.045006203688915419 0.061447454690933226 0.037444527110173591 0.047788453314985546 0.010948869224097726 -0.010876328932011167 0.063024479686282581 0.020093159811341601 -0.0075061951601958794 0.040974353064953443 0.049838265453476506 -0.028768823259663814 0.06439989746520014 0.088562142407452624 0.021263195585059236 0.079902830605323494 -0.0053747806705108942 -0.017625282511870961 0.022157301650558778 0.076197325858202852 0.10649227760732174 0.029072293559710184 0.032691857493237449 0.075506720258228813 -0.020069625689251018 0.027376953969624914 0.0043397535981057446 0.0084392450099705536 -0.04718056198350571 0.010540134709088073 0.062710967234202802 0.019257524210427489 0.06003285444834653 -0.032300916585803689 -0.0066223557493872683 0.047923330453837794 0.041406724154949191 0.041362963062386182 0.0050344991039869809 -0.022624719582852865 0.054403773300787987 0.0017041274185220783 0.035044196536464081 0.014925112956907691 -0.039995630731949443 0.037320046629998598
leaf_weight=329 73 129 62 71 291 82 86 45 43 39 159 81 53 60 164 158 159 40 84 28 191 207 128 73 46 71 83 309 66 54 121 52 58 358 37 55 32 75 76 67 129 88 64 53 449 62 49 112 68 181 73 82 30 86 52 105 68 130 31 41 325 77
leaf_count=329 73 129 62 71 291 82 86 45 43 39 159 81 53 60 164 158 159 40 84 28 191 207 128 73 46 71 83 309 66 54 121 52 58 358 37 55 32 75 76 67 129 88 64 53 449 62 49 112 68 181 73 82 30 86 52 105 68 130 31 41 325 77
internal_value=0 -0.0263348 0.0403669 0.0573343 -0.0388406 0.0240122 -0.00787934 0.0487877 0.0174047 0.0711903 0.00108547 0.0426172 0.0798595 0.0364013 -0.0141955 -0.0308464 -0.0462711 0.0610377 0.025218 0.0432808 0.0111062 -0.0171772 0.0628283 0.00787286 -0.00594506 0.0494601 0.0487723 -0.0274632 0.0554657 0.0898257 0.014949 0.0718788 -0.00664313 -0.0198554 0.0197606 0.0669835 0.0952338 0.0294043 0.033989 0.0694781 -0.0255141 0.0322937 0.00437068 0.0151911 -0.0491511 0.00370045 0.0572846 0.0161317 0.0544292 -0.035871 -0.0117475 0.0435319 0.0331192 0.037295 -0.00045403 -0.0272105 0.0502475 -0.000703116 0.0280322 0.00847308 -0.0416417 0.0332504
internal_weight=0 4085 2665 1308 2435 1357 1650 809 885 499 682 538 245 472 968 1173 1262 271 395 238 490 694 254 347 335 148 314 701 179 125 312 92 274 487 223 183 86 234 224 120 543 172 178 126 778 221 77 155 151 472 159 163 90 162 110 414 113 176 68 105 484 152
internal_count=6750 4085 2665 1308 2435 1357 1650 809 885 499 682 538 245 472 968 1173 1262 271 395 238 490 694 254 347 335 148 314 701 179 125 312 92 274 487 223 183 86 234 224 120 543 172 178 126 778 221 77 155 151 472 159 163 90 162 110 414 113 176 68 105 484 152
is_linear=0
shrinkage=0.05


Tree=6
num_leaves=63
num_cat=0
split_feature=2 1 2 1 2 2 1 1 8 1 8 8 2 8 5 2 1 1 2 7 1 8 1 7 1 1 8 8 1 1 8 1 2 8 8 1 1 8 3 8 2 8 8 1 2 2 1 8 7 5 1 8 5 1 8 2 8 2 7 2 7 2
split_gain=2347.31 366.915 252.603 74.7502 59.3405 42.5781 40.963 28.9829 18.3173 17.4734 17.055 14.9115 10.584 9.46086 9.22895 9.20646 8.81403 8.37445 7.7751 7.17194 6.66984 5.98647 4.55234 4.28011 4.27222 3.56281 3.4592 3.42484 3.29784 3.13068 2.93014 2.73334 2.56869 2.50829 2.47874 2.44821 2.43298 2.37134 2.22877 2.05535 1.97739 1.89985 1.83589 1.78571 1.77942 1.7678 1.6934 1.62034 1.57212 1.40324 1.39591 1.30166 1.29605 1.28348 1.2723 1.2721 1.26899 1.25566 1.33189 1.24029 1.23773 1.23357
threshold=98.500000000000014 103.7 105.50000000000001 104.80000000000003 93.500000000000014 109.50000000000001 102.65000000000002 104.80000000000003 53.500000000000007 104.30000000000003 43.500000000000007 31.500000000000004 89.500000000000014 54.500000000000007 170.90000000000003 87.500000000000014 105.2 105.2 101.50000000000001 1.0000000180025095e-35 104.30000000000003 42.500000000000007 104.45000000000002 1.0000000180025095e-35 101.60000000000001 105.00000000000001 44.500000000000007 60.500000000000007 103.2 105.35000000000001 55.500000000000007 105.00000000000001 114.50000000000001 49.500000000000007 64.500000000000014 105.2 104.60000000000001 62.500000000000007 5.5000000000000009 33.500000000000007 102.50000000000001 72.500000000000014 34.500000000000007 103.7 112.50000000000001 101.50000000000001 105.2 56.500000000000007 1.0000000180025095e-35 197.30000000000004 105.2 63.500000000000007 142.20000000000002 105.50000000000001 44.500000000000007 102.50000000000001 23.500000000000004 102.50000000000001 1.0000000180025095e-35 87.500000000000014 1.0000000180025095e-35 112.50000000000001
decision_type=2 2 2 2 2 2 2 2 2 2 2 2 2 2 2 2 2 2 2 2 2 2 2 2 2 2 2 2 2 2 2 2 2 2 2 2 2 2 2 2 2 2 2 2 2 2 2 2 2 2 2 2 2 2 2 2 2 2 2 2 2 2
left_child=1 6 3 9 12 8 24 20 16 27 18 32 33 40 35 54 36 38 31 25 34 50 42 37 -1 -10 52 43 -17 -20 44 -5 56 48 -6 -13 -4 -19 55 60 -11 -27 -14 -2 -16 -25 -21 -30 -3 -32 -9 -23 -22 -39 -8 -12 -7 58 -15 -26 -24 -37
right_child=2 4 5 10 7 11 15 21 19 13 17 14 22 57 30 28 -18 23 29 46 26 51 39 45 59 41 -28 -29 47 -31 49 -33 -34 -35 -36 61 -38 53 -40 -41 -42 -43 -44 -45 -46 -47 -48 -49 -50 -51 -52 -53 -54 -55 -56 -57 -58 -59 -60 -61 -62 -63
leaf_value=-0.047759027948566513 -0.015569351396212974 -0.029786659464897482 0.022141270077025349 0.0081162350993527442 -0.013346710596625093 0.043438497857720249 -0.038339293246035994 0.0038849780156628277 0.050761750814589592 0.007239836551762773 0.022503815776861971 0.054333745598793032 -0.020566575098066378 0.028898637486799134 0.067680332744899013 -0.031579775870217326 0.04648862210109489 0.046125620083203395 0.026315949822438289 0.040857874249157156 0.00065713762511115741 0.017166758019163314 -0.018022833805045355 0.031935937824444129 -0.042964955628196771 0.068845805363221602 0.0051806154239180313 0.0099834593135471415 -0.025931547485124263 0.036126483709481703 0.081320151686668396 0.021537527673007435 0.065193948601231441 -0.017827660652386734 1.6018261894492842e-05 0.062009651479074515 0.035472970215192481 0.053403405189514169 0.039566582560222205 -0.0023415162096489073 0.016250416259844226 0.086841292083263411 -0.012759741514858753 -0.0034800117186802836 0.082099829912185673 0.04342532479699622 0.054688453533739412 -0.018440259443199696 -0.02147977181213756 0.095908078551292422 0.01229033007970955 0.02725546870152561 -0.0078074895945826062 0.070170747382300239 -0.033014454814807449 0.033323748612945729 0.05366126330693563 0.035059837691294844 0.013712103046815506 -0.037916759121067387 -0.0066028116855352207 0.07179258062805928
leaf_weight=510 42 136 44 49 226 51 276 122 22 184 71 50 130 42 46 241 262 63 182 38 68 92 46 52 428 55 143 38 311 147 34 168 33 139 41 59 154 25 47 123 91 20 179 112 40 94 53 94 98 32 83 49 135 21 189 44 75 39 22 170 49 71
leaf_count=510 42 136 44 49 226 51 276 122 22 184 71 50 130 42 46 241 262 63 182 38 68 92 46 52 428 55 143 38 311 147 34 168 33 139 41 59 154 25 47 123 91 20 179 112 40 94 53 94 98 32 83 49 135 21 189 44 75 39 22 170 49 71
internal_value=0 -0.023867 0.0364258 0.0231744 -0.00748121 0.0542611 -0.0375945 0.00117281 0.0458461 0.00882343 0.0316687 0.0653668 -0.0167025 0.0150626 0.0713969 -0.0308103 0.0404719 0.0392827 0.0258537 0.0589957 -0.00535758 0.0127426 -0.0121409 0.0449303 -0.0443971 0.0684547 -0.000776005 -0.00345991 -0.0269486 0.0306994 0.0804686 0.0185069 0.0527758 -0.0231476 -0.0112948 0.0637363 0.0325104 0.0524274 0.0303929 -0.00660823 0.0102215 0.0736446 -0.0160442 -0.0067771 0.0743871 0.0393332 0.048913 -0.0241928 -0.0263077 0.0883931 0.00728812 0.0206728 -0.00497205 0.0610581 -0.036175 0.0266436 0.0495235 0.0279878 0.0236783 -0.0415298 -0.0121325 0.0673526
internal_weight=0 4078 2672 1533 1859 1139 2219 959 648 570 963 491 900 378 332 1111 460 417 546 188 613 346 527 255 1108 97 346 192 646 329 152 217 159 373 267 180 198 109 162 218 275 75 309 154 86 146 91 405 234 66 205 141 203 46 465 115 126 103 64 598 95 130
internal_count=6750 4078 2672 1533 1859 1139 2219 959 648 570 963 491 900 378 332 1111 460 417 546 188 613 346 527 255 1108 97 346 192 646 329 152 217 159 373 267 180 198 109 162 218 275 75 309 154 86 146 91 405 234 66 205 141 203 46 465 115 126 103 64 598 95 130
is_linear=0
shrinkage=0.05


Tree=7
num_leaves=63
num_cat=0
split_feature=0 0 0 2 0 2 0 8 8 8 2 7 8 2 2 0 0 0 0 0 0 5 8 0 8 7 2 8 0 2 7 5 8 2 2 8 2 0 8 2 0 7 2 8 0 7 8 5 2 2 8 2 2 5 8 7 7 8 0 0 8 2
split_gain=2354.73 306.74 247.213 49.4732 46.8015 34.5209 30.6497 20.3286 14.3072 12.0258 10.1978 9.34992 7.51992 7.45158 6.76017 6.51424 6.41744 5.48869 5.33914 5.02831 4.70501 4.53129 4.52537 4.03643 3.5901 3.0605 2.91125 2.8765 2.5406 2.31772 2.25314 2.23984 2.20311 2.1425 2.11761 1.83982 1.78647 1.76581 1.73948 1.73152 1.71747 1.67867 1.62972 1.61265 1.46122 1.45343 1.35407 1.26797 1.21952 1.21941 1.2177 1.21621 1.19333 1.07067 0.96915 0.957795 0.933312 0.931276 0.92726 0.890565 0.887081 0.876614
threshold=18.500000000000004 11.500000000000002 24.500000000000004 108.50000000000001 6.5000000000000009 103.50000000000001 15.500000000000002 40.500000000000007 42.500000000000007 46.500000000000007 94.500000000000014 1.0000000180025095e-35 36.500000000000007 103.50000000000001 95.500000000000014 26.500000000000004 8.5000000000000018 3.5000000000000004 21.500000000000004 21.500000000000004 27.500000000000004 184.10000000000002 48.500000000000007 21.500000000000004 50.500000000000007 1.0000000180025095e-35 86.500000000000014 45.500000000000007 27.500000000000004 98.500000000000014 1.0000000180025095e-35 188.50000000000003 40.500000000000007 111.50000000000001 113.50000000000001 51.500000000000007 99.500000000000014 21.500000000000004 35.500000000000007 89.500000000000014 27.500000000000004 1.0000000180025095e-35 97.500000000000014 57.500000000000007 27.500000000000004 1.0000000180025095e-35 53.500000000000007 170.90000000000003 83.500000000000014 96.500000000000014 61.500000000000007 97.500000000000014 88.500000000000014 184.10000000000002 63.500000000000007 1.0000000180025095e-35 1.0000000180025095e-35 66.500000000000014 13.500000000000002 27.500000000000004 27.500000000000004 102.50000000000001
decision_type=2 2 2 2 2 2 2 2 2 2 2 2 2 2 2 2 2 2 2 2 2 2 2 2 2 2 2 2 2 2 2 2 2 2 2 2 2 2 2 2 2 2 2 2 2 2 2 2 2 2 2 2 2 2 2 2 2 2 2 2 2 2
left_child=1 4 5 7 17 8 14 13 23 20 32 33 37 44 24 30 52 -1 53 31 -5 43 36 29 39 35 -18 -16 -15 56 50 49 55 59 60 -20 -12 -7 -28 -3 -13 57 -25 -17 51 -21 -23 -29 -19 -10 -9 -4 -6 -14 -33 -8 -2 -24 -26 -11 -22 -32
right_child=2 6 3 9 16 12 10 15 19 11 22 40 18 28 27 21 26 48 25 45 34 46 41 42 58 -27 38 47 -30 -31 61 54 -34 -35 -36 -37 -38 -39 -40 -41 -42 -43 -44 -45 -46 -47 -48 -49 -50 -51 -52 -53 -54 -55 -56 -57 -58 -59 -60 -61 -62 -63
leaf_value=-0.045530046142048114 -0.003182481542795098 -0.023382207861011344 0.015197634170763195 0.050063951248707987 -0.034431144205974963 0.019133975522669211 -0.016105426658295851 0.047023047736057866 0.0074372698065586565 0.071608721216519677 -0.0022729698808689135 0.055999911390244961 0.02515858725859569 0.037779516323849009 -0.010930930243107664 0.048633697785829245 -0.030880063517561441 -0.041686008187879132 0.041948320716619497 0.033996034041047098 0.053958793903918979 0.05962920921544234 0.01248396120996016 0.0096130465023366828 -0.013549437049776318 0.036291169733196113 -0.026469862354190455 -0.0061735175603202415 0.047800601530475779 0.01062991555381871 0.033657664849477652 0.020015460595085816 -0.0023125385679192661 0.09179504124485717 0.071088994187968116 0.05640021276717283 0.0057375225624872565 0.028799221130894195 -0.020742652939555174 -0.016478801519892113 0.069056108818863926 0.0062222874301742434 0.01928715271844475 0.059274245509460789 0.037355259824089888 0.024801055043512446 0.074335508810149303 0.0036040550757509972 -0.037344664908372439 0.017342572220202006 0.059956212128911703 0.02855671041361664 -0.029260601589034277 0.036108695715665821 0.032000467758024891 -0.0073042082287429373 0.005111905708800742 0.02291076605518659 -0.0065121014749324373 0.084251705041298502 0.062719758550326035 0.043943900713380779
leaf_weight=556 56 129 20 115 291 73 69 52 43 30 154 48 65 135 211 76 158 251 40 84 47 24 61 68 100 77 230 70 119 159 34 37 104 49 56 49 127 134 313 307 53 78 121 67 41 88 45 63 455 112 28 115 181 34 31 56 86 33 88 26 75 53
leaf_count=556 56 129 20 115 291 73 69 52 43 30 154 48 65 135 211 76 158 251 40 84 47 24 61 68 100 77 230 70 119 159 34 37 104 49 56 49 127 134 313 307 53 78 121 67 41 88 45 63 455 112 28 115 181 34 31 56 86 33 88 26 75 53
internal_value=0 -0.0238529 0.0365625 0.0520736 -0.0351314 0.0216115 -0.00720854 0.0444365 0.0157875 0.0644551 0.00091016 0.0737123 0.0325314 0.0369955 -0.0129285 0.0528789 -0.0279413 -0.0418144 0.0381093 0.0228681 0.0579467 0.0586969 0.00525727 0.0100796 -0.0160309 0.0435901 -0.0249067 -0.00730092 0.0424744 0.00648359 0.0454932 0.0179137 -0.00768914 0.0841596 0.0630395 0.049905 0.00134743 0.0253907 -0.0231685 -0.0185213 0.0628512 0.0116449 0.0158065 0.0536191 0.0290883 0.0292916 0.0692203 -0.00154204 -0.0388881 0.0145946 0.0515497 0.0265776 -0.0324484 0.0289192 0.0254792 -0.0121625 0.00184088 0.0161444 -0.0102554 0.0774787 0.0593446 0.039924
internal_weight=0 4085 2665 1308 2435 1357 1650 809 885 499 682 206 472 430 968 379 1173 1262 265 395 293 212 453 490 624 166 701 344 254 301 167 223 229 105 178 89 281 207 543 436 101 172 189 143 176 172 69 133 706 155 80 135 472 99 68 125 142 94 188 56 122 87
internal_count=6750 4085 2665 1308 2435 1357 1650 809 885 499 682 206 472 430 968 379 1173 1262 265 395 293 212 453 490 624 166 701 344 254 301 167 223 229 105 178 89 281 207 543 436 101 172 189 143 176 172 69 133 706 155 80 135 472 99 68 125 142 94 188 56 122 87
is_linear=0
shrinkage=0.05


Tree=8
num_leaves=63
num_cat=0
split_feature=0 0 0 0 0 0 0 8 8 8 7 7 8 8 0 0 0 8 8 8 7 0 0 8 8 7 8 8 0 0 8 8 8 8 7 0 0 0 5 5 5 7 5 8 5 0 7 5 0 7 8 0 7 8 8 7 7 0 8 5 5 0
split_gain=2125.43 280.927 220.593 47.2005 30.1836 24.1282 23.407 21.2832 15.1359 9.98777 8.16333 7.86559 7.68021 5.96954 5.7229 5.43058 5.10291 3.32058 3.03345 2.9095 2.85653 2.61765 2.44713 2.32536 2.19504 2.17744 2.03506 1.93016 1.76064 1.71484 1.61137 1.54864 1.52342 1.51523 1.50217 1.47781 1.44029 1.34449 1.32338 1.29329 1.13095 1.07616 1.07153 1.04292 1.00793 0.999932 0.986478 0.963066 0.918863 0.851538 0.830507 0.820452 0.80911 0.782217 0.781705 0.781007 0.774913 0.746446 0.715931 0.687618 0.638161 0.616753
threshold=17.500000000000004 23.500000000000004 10.500000000000002 27.500000000000004 5.5000000000000009 14.500000000000002 20.500000000000004 51.500000000000007 41.500000000000007 51.500000000000007 1.0000000180025095e-35 1.0000000180025095e-35 48.500000000000007 39.500000000000007 8.5000000000000018 25.500000000000004 12.500000000000002 64.500000000000014 29.500000000000004 45.500000000000007 1.0000000180025095e-35 28.500000000000004 2.5000000000000004 56.500000000000007 34.500000000000007 1.0000000180025095e-35 42.500000000000007 66.500000000000014 24.500000000000004 18.500000000000004 54.500000000000007 44.500000000000007 63.500000000000007 31.500000000000004 1.0000000180025095e-35 15.500000000000002 16.500000000000004 26.500000000000004 188.50000000000003 184.10000000000002 203.90000000000003 1.0000000180025095e-35 195.10000000000002 29.500000000000004 184.10000000000002 18.500000000000004 1.0000000180025095e-35 197.30000000000004 22.500000000000004 1.0000000180025095e-35 42.500000000000007 19.500000000000004 1.0000000180025095e-35 27.500000000000004 25.500000000000004 1.0000000180025095e-35 1.0000000180025095e-35 29.500000000000004 37.500000000000007 186.30000000000004 188.50000000000003 24.500000000000004
decision_type=2 2 2 2 2 2 2 2 2 2 2 2 2 2 2 2 2 2 2 2 2 2 2 2 2 2 2 2 2 2 2 2 2 2 2 2 2 2 2 2 2 2 2 2 2 2 2 2 2 2 2 2 2 2 2 2 2 2 2 2 2 2
left_child=2 6 4 7 22 16 12 15 21 24 17 23 29 36 31 33 26 -9 -17 56 32 53 -1 -10 52 45 41 35 -12 -2 55 46 -11 61 -29 -15 49 -19 -23 48 -21 -4 -35 -40 -20 -14 -6 -25 -26 54 -24 -27 59 -5 -7 -16 -18 -13 -31 -8 -37 -3
right_child=1 3 5 8 14 13 9 10 11 20 28 57 25 27 30 18 19 37 44 40 -22 38 50 47 39 51 -28 34 -30 58 -32 -33 -34 42 -36 60 -38 -39 43 -41 -42 -43 -44 -45 -46 -47 -48 -49 -50 -51 -52 -53 -54 -55 -56 -57 -58 -59 -60 -61 -62 -63
leaf_value=-0.044589019129703839 0.00071133708391230921 0.022885251798751682 -0.025165743146623884 0.041160787690070366 -0.036576620871154826 -0.017352859593100019 0.0094309003507701827 0.051730968183781728 0.067718974861406517 0.03159511904133127 0.033745860911550976 0.055951485553613081 0.015420733732456456 -0.0064319235436549344 -0.029365335285295675 0.033231311291456227 -0.017327628126022992 0.062209670489484614 0.04124428700708168 -0.0089557108023083348 0.025786685681605078 0.051840402369315808 -0.040912083657582601 0.075703086810452611 0.017060477059567349 0.0090778364479451226 -0.015494077765265839 0.013290061308961251 0.045721269686493961 0.0058430844488508464 -0.020436060646154587 -0.029351530229019013 0.044073526239862632 0.031414036623394218 -4.9862707965075972e-05 -0.0001907457860442428 -0.0030902210750972923 0.077348179370164874 0.055424660547026272 0.028571277917897115 0.00087336397861961183 -0.018909078593607302 0.041494999284094031 0.070266192257404325 0.049691693453078577 0.024604851285616559 -0.031741478273997439 0.087022936519454516 0.025533148657996208 -0.0067003682899873102 -0.037398660280665415 0.017839540796060312 0.018353943259858375 0.04868488777906467 -0.0096421489144198694 -0.024513739058200052 -0.012277285135481377 0.064139997723855466 0.01119032720171878 0.016572654240119916 0.0065163477358291854 0.02926384093177118
leaf_weight=329 139 66 140 62 201 54 70 83 62 47 42 104 49 81 162 122 162 55 142 140 91 130 375 42 96 90 203 51 114 211 137 302 51 131 36 122 106 20 29 61 37 135 33 20 47 75 222 34 48 106 305 38 134 78 84 170 143 38 89 65 50 89
leaf_count=329 139 66 140 62 201 54 70 83 62 47 42 104 49 81 162 122 162 55 142 140 91 130 375 42 96 90 203 51 114 211 137 302 51 131 36 122 106 20 29 61 37 135 33 20 47 75 222 34 48 106 305 38 134 78 84 170 143 38 89 65 50 89
internal_value=0 0.0323569 -0.0243286 0.0469424 -0.0346824 -0.0105047 0.0157356 0.0399763 0.0579206 0.022447 0.0506106 0.0664041 0.00929608 -0.00337281 -0.0293023 0.034676 -0.0156307 0.0586213 0.0393776 -0.0120004 0.0321657 0.0504742 -0.041049 0.074905 0.0185719 0.0162535 -0.0192913 0.00134576 0.0424971 0.00530229 -0.0249984 -0.0320864 0.038089 0.0300924 0.00777009 -0.000863397 -0.00795656 0.0662466 0.0544798 0.0224695 -0.00690105 -0.0220943 0.0334425 0.0614824 0.043345 0.0209756 -0.034039 0.0807672 0.0198847 -0.0100706 -0.0393362 0.011679 0.0156015 0.0453528 -0.0126594 -0.0268811 -0.0149598 0.0581428 0.00742943 0.0128695 0.00175899 0.0265478
internal_weight=0 2897 3853 1543 2203 1650 1354 944 599 663 314 280 691 690 1194 630 960 158 311 482 189 319 1009 138 474 252 478 340 156 439 469 725 98 319 87 253 350 75 179 205 177 275 164 49 189 124 423 76 144 244 680 128 269 140 138 332 305 142 300 135 172 155
internal_count=6750 2897 3853 1543 2203 1650 1354 944 599 663 314 280 691 690 1194 630 960 158 311 482 189 319 1009 138 474 252 478 340 156 439 469 725 98 319 87 253 350 75 179 205 177 275 164 49 189 124 423 76 144 244 680 128 269 140 138 332 305 142 300 135 172 155
is_linear=0
shrinkage=0.05


Tree=9
num_leaves=63
num_cat=0
split_feature=0 0 0 2 0 2 0 8 8 7 0 2 2 2 8 8 0 2 0 0 2 8 0 0 8 8 0 0 8 2 8 0 2 0 7 8 8 7 8 8 7 2 2 2 2 2 2 0 2 2 2 8 2 7 8 8 2 7 2 7 5 8
split_gain=1918.2 253.537 199.085 57.4448 27.3679 25.1382 21.7757 17.1043 11.7219 9.36341 8.98249 8.0889 7.40497 6.04286 5.90501 5.69923 5.31346 5.28527 4.6216 3.75933 3.55944 3.54692 3.51135 3.2137 3.14381 3.12741 3.08696 3.03476 2.61167 2.58158 2.42955 2.41317 2.07622 2.044 1.98604 1.81643 1.55734 1.52614 1.45189 1.40309 1.37632 1.28116 1.21902 1.19128 1.14912 1.14743 1.12254 1.11622 1.11257 1.08483 1.07199 1.06923 1.06707 1.01074 0.990721 0.975667 0.931891 0.908687 0.90447 0.902712 0.898885 0.877318
threshold=17.500000000000004 23.500000000000004 10.500000000000002 105.50000000000001 6.5000000000000009 99.500000000000014 14.500000000000002 41.500000000000007 52.500000000000007 1.0000000180025095e-35 20.500000000000004 110.50000000000001 98.500000000000014 91.500000000000014 49.500000000000007 51.500000000000007 27.500000000000004 100.50000000000001 4.5000000000000009 27.500000000000004 88.500000000000014 55.500000000000007 19.500000000000004 26.500000000000004 44.500000000000007 62.500000000000007 26.500000000000004 28.500000000000004 53.500000000000007 105.50000000000001 56.500000000000007 28.500000000000004 91.500000000000014 19.500000000000004 1.0000000180025095e-35 38.500000000000007 35.500000000000007 1.0000000180025095e-35 48.500000000000007 28.500000000000004 1.0000000180025095e-35 112.50000000000001 97.500000000000014 105.50000000000001 93.500000000000014 93.500000000000014 97.500000000000014 2.5000000000000004 110.50000000000001 109.50000000000001 100.50000000000001 47.500000000000007 111.50000000000001 1.0000000180025095e-35 27.500000000000004 29.500000000000004 99.500000000000014 1.0000000180025095e-35 103.50000000000001 1.0000000180025095e-35 190.70000000000002 53.500000000000007
decision_type=2 2 2 2 2 2 2 2 2 2 2 2 2 2 2 2 2 2 2 2 2 2 2 2 2 2 2 2 2 2 2 2 2 2 2 2 2 2 2 2 2 2 2 2 2 2 2 2 2 2 2 2 2 2 2 2 2 2 2 2 2 2
left_child=2 5 4 8 18 15 13 11 17 16 28 26 21 36 29 22 25 42 47 48 38 32 44 40 46 -9 -5 39 -7 54 52 -13 -8 -17 43 -14 53 -25 59 -19 56 -21 -3 -16 -2 -24 -15 -1 -11 -27 -26 -22 -18 -4 -12 -34 -10 -23 -37 -6 -33 -20
right_child=1 3 6 7 20 10 12 9 23 19 14 31 35 24 34 33 30 27 61 41 51 57 45 37 50 49 -28 -29 -30 -31 -32 60 55 -35 -36 58 -38 -39 -40 -41 -42 -43 -44 -45 -46 -47 -48 -49 -50 -51 -52 -53 -54 -55 -56 -57 -58 -59 -60 -61 -62 -63
leaf_value=-0.042359566996525128 -0.0071273195303677185 0.014733888501211127 -0.026978891501935682 0.035006974310409736 -0.03430290744663813 0.011725313340312194 -0.01430307473402378 0.053187977403834241 0.035886241421103478 0.041478168099157275 0.012591868926558579 0.049574610059804257 -0.00014585290704608749 -0.016290813288468077 0.034892685434152915 0.0093822232157912203 0.061825119356314344 0.026225551921460366 -0.035323399437602453 0.055049052645289712 -0.025294755444382179 0.0056424360755564914 4.7180814343798712e-05 0.059561117206301008 -0.0083085435405585231 0.063241420487562816 0.045615120683946922 0.044298010009030504 0.021562745959575601 0.027518778801465235 0.083225499093532565 0.058000459439224675 -0.010118265194809156 0.020316988037599404 0.027922982805305058 0.0070790146132383288 -0.016899818117015585 0.045179196504446184 -0.025802816624290372 0.033505113431584764 0.033882594537554371 0.066873127387629613 0.024497096983553925 0.048145054174321043 0.0015130426901855461 0.0095030881419271521 -0.010144622897108397 -0.038525907472937576 0.052094266036661667 0.077859169244766241 0.0017304999137958213 -0.020402549798262185 0.076735045313835154 -0.019208628976646859 0.020526292351052518 -0.0037526991702741225 0.049347335431310868 -0.0031443155061776544 0.018666815119130271 -0.028832628577947619 0.070191653001876117 -0.030685339908893796
leaf_weight=329 56 49 89 123 156 227 121 69 20 62 57 101 95 254 43 84 30 108 338 63 297 56 38 35 187 30 155 48 96 119 52 54 101 87 63 85 215 39 163 171 66 36 92 28 123 206 105 449 41 22 31 179 20 79 127 149 36 62 21 146 21 146
leaf_count=329 56 49 89 123 156 227 121 69 20 62 57 101 95 254 43 84 30 108 338 63 297 56 38 35 187 30 155 48 96 119 52 54 101 87 63 85 215 39 163 171 66 36 92 28 123 206 105 449 41 22 31 179 20 79 127 149 36 62 21 146 21 146
internal_value=0 0.0307391 -0.0231122 0.0445952 -0.0329483 0.0149488 -0.00997942 0.0529802 0.0334952 0.060189 0.0209718 0.0462319 -0.00320417 -0.0148491 0.0256451 0.00724257 0.0672524 0.029196 -0.0377605 0.0523913 -0.0264944 -0.00652503 0.00412861 0.0437608 -0.0116172 0.0601662 0.0409216 0.0326851 0.0146491 0.0217799 0.0756586 0.0546198 -0.0089266 0.0149455 0.034385 0.00487494 -0.0197182 0.0519815 -0.0296058 0.0306872 0.0387744 0.0593487 0.0211042 0.040119 -0.00119009 0.00803045 -0.0144932 -0.0401471 0.045704 0.0694259 -0.00688097 -0.023455 0.0677891 -0.023325 0.0180683 -0.00632439 0.0445398 0.00102567 0.00937471 -0.0316583 0.061414 -0.0339243
internal_weight=0 2897 3853 1543 2203 1354 1650 879 664 425 760 454 690 960 437 594 223 468 1262 202 941 489 423 196 577 121 278 327 323 303 102 176 371 171 134 201 383 74 465 279 122 99 141 71 179 244 359 778 103 52 218 476 50 168 184 250 56 118 106 302 75 484
internal_count=6750 2897 3853 1543 2203 1354 1650 879 664 425 760 454 690 960 437 594 223 468 1262 202 941 489 423 196 577 121 278 327 323 303 102 176 371 171 134 201 383 74 465 279 122 99 141 71 179 244 359 778 103 52 218 476 50 168 184 250 56 118 106 302 75 484
is_linear=0
shrinkage=0.05


Tree=10
num_leaves=63
num_cat=0
split_feature=0 0 0 2 0 2 0 8 8 2 2 8 8 7 2 7 2 0 0 0 8 2 2 8 0 0 5 0 8 8 8 0 5 8 8 0 2 0 7 0 8 5 0 0 2 2 7 7 7 0 2 2 5 8 2 7 7 2 5 8 5 8
split_gain=1732.19 226.334 182.882 39.4989 34.3588 27.3935 22.5501 17.3294 10.7914 9.38124 8.17468 7.21996 5.60767 5.5655 5.47287 5.03457 4.95597 4.171 3.89084 3.64645 3.3606 3.20052 3.10905 2.99467 2.79203 2.5255 2.3595 2.21807 2.19658 2.14337 2.0778 1.98422 1.80439 1.66712 1.5344 1.5332 1.47625 1.43211 1.36888 1.35938 1.34394 1.29358 1.28386 1.16039 1.15585 1.15496 1.12411 1.12192 1.0171 1.00739 0.990637 0.96935 0.946169 0.924611 0.904355 0.843805 0.810964 0.804855 0.795433 0.774865 0.768113 0.760846
threshold=18.500000000000004 11.500000000000002 24.500000000000004 109.50000000000001 6.5000000000000009 103.50000000000001 15.500000000000002 56.500000000000007 42.500000000000007 103.50000000000001 94.500000000000014 39.500000000000007 36.500000000000007 1.0000000180025095e-35 93.500000000000014 1.0000000180025095e-35 88.500000000000014 4.5000000000000009 21.500000000000004 21.500000000000004 49.500000000000007 95.500000000000014 102.50000000000001 45.500000000000007 28.500000000000004 28.500000000000004 195.10000000000002 21.500000000000004 34.500000000000007 35.500000000000007 37.500000000000007 9.5000000000000018 188.50000000000003 40.500000000000007 46.500000000000007 28.500000000000004 100.50000000000001 26.500000000000004 1.0000000180025095e-35 28.500000000000004 56.500000000000007 170.90000000000003 21.500000000000004 27.500000000000004 96.500000000000014 99.500000000000014 1.0000000180025095e-35 1.0000000180025095e-35 1.0000000180025095e-35 2.5000000000000004 95.500000000000014 86.500000000000014 190.70000000000002 58.500000000000007 100.50000000000001 1.0000000180025095e-35 1.0000000180025095e-35 86.500000000000014 184.10000000000002 63.500000000000007 197.30000000000004 65.500000000000014
decision_type=2 2 2 2 2 2 2 2 2 2 2 2 2 2 2 2 2 2 2 2 2 2 2 2 2 2 2 2 2 2 2 2 2 2 2 2 2 2 2 2 2 2 2 2 2 2 2 2 2 2 2 2 2 2 2 2 2 2 2 2 2 2
left_child=1 4 5 7 17 8 14 9 21 29 33 25 42 37 28 22 34 49 58 32 36 48 -9 54 30 -5 -20 -23 47 45 -11 -18 50 55 46 -17 -12 -13 -22 -24 -39 -25 -7 -15 -21 -4 -6 -3 -2 -1 -10 -30 -27 -33 -16 -8 -32 -19 -14 -34 -46 -43
right_child=2 6 3 11 16 12 10 15 19 24 20 13 18 43 23 35 31 57 26 44 38 27 39 41 -26 52 -28 -29 51 -31 56 53 59 -35 -36 -37 -38 40 -40 -41 -42 61 -44 -45 60 -47 -48 -49 -50 -51 -52 -53 -54 -55 -56 -57 -58 -59 -60 -61 -62 -63
leaf_value=-0.040241590450237591 -0.0052471480321227802 -0.022577689385529863 0.01663090698623463 0.046040111627334207 -0.032562306254024967 0.016725882369552882 -0.014488402081221558 0.046101005335111883 0.0049954946076064119 0.034156116922792877 -0.0012226579217484313 0.062958076397577931 0.021957306781640422 0.04961755996526674 -0.011621106438824044 0.039661421899388483 -0.023879703966159266 -0.034028170613900705 0.034031993051369988 0.016357927671924701 0.014479661669459319 0.0074112531519802656 0.059331365336071362 -0.0061838797894053664 0.047029097842913807 0.05432362965608048 0.047350782739079521 0.015215711511892119 -0.018147350274599516 0.032463684237194722 0.046895186575976286 -0.019766398088865548 0.017146876922531709 -0.0022191339190332933 -0.024208720522751741 0.052871667246023817 0.0062861887248818506 0.06891755842500262 0.0053563025753634672 0.073592913150787351 0.08231456463153547 -0.0017081402339592423 0.024967268631974265 0.060271754482435803 0.024956643208861352 0.026250487051366535 -0.026679796739569252 -0.015044074874175223 0.0046216237676360286 -0.036599611970523416 0.014461535426686293 -0.010543225132709335 0.06668206964220319 -0.013503082801607537 -0.0047667273529410619 -0.0062275015191127232 0.038674458996816118 -0.02991857576482701 0.031395598194178413 0.027863443522684037 0.033982526014248532 0.0080265013199737854
leaf_weight=329 42 103 46 117 166 73 69 37 36 206 186 30 65 43 261 82 309 272 120 32 91 227 55 99 93 59 46 152 52 109 55 251 37 104 211 30 101 36 75 24 39 49 134 63 110 97 159 95 69 449 119 216 21 77 59 56 66 212 34 31 30 34
leaf_count=329 42 103 46 117 166 73 69 37 36 206 186 30 65 43 261 82 309 272 120 32 91 227 55 99 93 59 46 152 52 109 55 251 37 104 211 30 101 36 75 24 39 49 134 63 110 97 159 95 69 449 119 216 21 77 59 56 66 212 34 31 30 34
internal_value=0 -0.0204582 0.0313591 0.0447002 -0.0301464 0.0184997 -0.00616085 0.0388501 0.0133116 0.0348087 0.000802981 0.057605 0.0282272 0.0640318 -0.0110672 0.0507613 -0.0239859 -0.0358725 0.033044 0.0194611 0.00469506 0.0083544 0.058062 -0.00744492 0.0393848 0.0507214 0.0377227 0.0105413 -0.0149693 0.027182 0.0372107 -0.0210046 0.015242 -0.0068962 -0.0275289 0.0431999 0.00141983 0.0721909 0.0103577 0.063664 0.075884 -0.00232419 0.0220609 0.0559498 0.0249312 0.0231561 -0.0296844 -0.0189631 0.000887494 -0.0381397 0.012263 -0.0120187 0.0575677 -0.018296 -0.0103573 -0.0107875 0.0424112 -0.0322281 0.0251987 0.0220324 0.0268908 0.00227954
internal_weight=0 4085 2665 1308 2435 1357 1650 900 885 672 682 408 472 211 968 228 1173 1262 265 395 453 490 116 502 420 197 166 379 466 252 327 637 223 229 536 112 287 105 166 79 75 182 207 106 172 143 325 198 111 778 155 268 80 328 320 125 121 484 99 68 140 83
internal_count=6750 4085 2665 1308 2435 1357 1650 900 885 672 682 408 472 211 968 228 1173 1262 265 395 453 490 116 502 420 197 166 379 466 252 327 637 223 229 536 112 287 105 166 79 75 182 207 106 172 143 325 198 111 778 155 268 80 328 320 125 121 484 99 68 140 83
is_linear=0
shrinkage=0.05


Tree=11
num_leaves=63
num_cat=0
split_feature=0 0 0 2 0 2 0 8 8 2 2 0 0 8 5 8 0 2 0 8 0 0 2 0 8 8 2 0 2 0 2 8 0 5 2 0 2 5 2 8 2 6 5 8 2 2 2 5 0 8 8 8 8 8 2 2 2 5 2 2 8 5
split_gain=1563.31 206.818 162.904 47.4258 26.1749 20.7699 15.1885 12.2593 11.5755 8.29611 7.7839 7.33037 5.79859 4.94032 4.87477 4.68523 4.48539 4.16397 3.18934 3.13168 2.8654 2.74404 2.49017 2.40222 2.31932 2.21045 2.20637 2.1179 2.11549 1.8538 1.74352 1.70775 1.70252 1.52794 1.45538 1.43552 1.43549 1.40954 1.37477 1.31986 1.26401 1.21807 1.17016 1.04669 0.958131 0.958045 0.953421 0.9279 0.902906 0.892967 0.866988 0.853703 0.84387 0.806898 0.781179 0.724598 0.718134 0.70417 0.689559 0.685422 0.681575 0.787144
threshold=17.500000000000004 23.500000000000004 9.5000000000000018 106.50000000000001 13.500000000000002 99.500000000000014 5.5000000000000009 54.500000000000007 49.500000000000007 96.500000000000014 110.50000000000001 20.500000000000004 26.500000000000004 49.500000000000007 184.10000000000002 51.500000000000007 26.500000000000004 90.500000000000014 28.500000000000004 55.500000000000007 19.500000000000004 27.500000000000004 84.500000000000014 26.500000000000004 38.500000000000007 37.500000000000007 100.50000000000001 26.500000000000004 105.50000000000001 3.5000000000000004 90.500000000000014 55.500000000000007 21.500000000000004 190.70000000000002 99.500000000000014 7.5000000000000009 101.50000000000001 195.10000000000002 115.50000000000001 42.500000000000007 103.50000000000001 1.0000000180025095e-35 190.70000000000002 29.500000000000004 93.500000000000014 97.500000000000014 93.500000000000014 168.70000000000002 16.500000000000004 29.500000000000004 28.500000000000004 63.500000000000007 31.500000000000004 52.500000000000007 103.50000000000001 91.500000000000014 110.50000000000001 179.70000000000002 107.50000000000001 104.50000000000001 31.500000000000004 148.80000000000004
decision_type=2 2 2 2 2 2 2 2 2 2 2 2 2 2 2 2 2 2 2 2 2 2 2 2 2 2 2 2 2 2 2 2 2 2 2 2 2 2 2 2 2 2 2 2 2 2 2 2 2 2 2 2 2 2 2 2 2 2 2 2 2 2
left_child=2 5 6 8 17 15 29 10 12 19 23 25 26 28 21 20 36 39 41 30 44 -9 -8 -5 54 -7 -3 -16 52 -1 -6 45 47 -18 -14 -24 -10 58 -20 -4 -26 -12 -38 -36 -2 -19 -22 -17 -32 -25 -28 59 -13 -37 -11 -21 -29 -51 -15 -27 61 -48
right_child=1 3 4 7 9 11 22 14 16 24 18 13 34 37 27 32 33 31 38 55 46 -23 35 49 40 51 50 56 -30 -31 48 -33 -34 -35 43 53 42 -39 -40 -41 -42 -43 -44 -45 -46 -47 60 -49 -50 57 -52 -53 -54 -55 -56 -57 -58 -59 -60 -61 -62 -63
leaf_value=-0.03715171667633297 -0.006565451910137199 0.016316863788961199 -0.023014464596422708 0.034343586885553647 -0.014958427101373673 0.008432248954399469 -0.030524736603770808 0.046309668959026606 0.029174735986474739 -0.004467684748327299 0.043189615077442595 0.012386217848044126 0.021229481612416834 0.025947508559777191 0.0588184646823827 0.0070751256548489128 0.044289090947524923 -0.016408111476101675 0.055442992211824443 -0.0056429105536902656 -9.1771408551721844e-05 0.060311187825341152 -0.027290343639906497 0.038749895516842131 0.0035803181164574525 0.012267387946767192 0.021316443582375846 0.069462644833105588 0.024844835911478319 -0.032842878434831739 -0.0094648231064856231 -0.0087852128141196473 0.022496836205828003 0.05782933265998446 0.030612573817551853 -0.024374874626717918 0.035527058553538826 0.039640334082974328 0.070046261548995972 -0.017036462268844758 0.0152405408659467 0.052634285200725911 0.047997351646423346 0.038110098622317588 0.0013242822274025265 -0.010930601268829335 0.010269045502775246 0.015581246647551389 -0.0028117906212855818 0.043384254149028238 0.028137095466377288 0.021710477123657864 0.019227043865692049 -0.019428331489043854 0.0039995917350204441 0.0021694846071293053 0.081485619752303423 0.052070267541067944 0.036354048401117327 0.02065495184876702 0.011214509503492578 0.001196246469101193
leaf_weight=556 56 96 205 127 132 137 267 71 67 137 90 79 22 78 34 75 74 333 83 51 38 69 320 63 167 93 75 27 119 453 251 142 40 29 83 246 76 36 20 168 27 55 25 106 123 105 45 56 64 70 123 60 105 124 34 71 23 35 20 33 110 51
leaf_count=556 56 96 205 127 132 137 267 71 67 137 90 79 22 78 34 75 74 333 83 51 38 69 320 63 167 93 75 27 119 453 251 142 40 29 83 246 76 36 20 168 27 55 25 106 123 105 45 56 64 70 123 60 105 124 34 71 23 35 20 33 110 51
internal_value=0 0.0277502 -0.0208649 0.0402648 -0.0103708 0.0134887 -0.0309372 0.0490819 0.0315499 -0.00442245 0.0450219 0.0189635 0.0270764 0.0231852 0.0589239 0.00648401 0.0398861 -0.0162006 0.051551 -0.00819665 0.00366063 0.0532104 -0.0264246 0.039533 0.00146115 0.0132518 0.0225375 0.0684463 0.0196498 -0.0352172 -0.0101345 -0.0135502 0.0134682 0.0481014 0.0334008 -0.024838 0.0348494 0.0311794 0.0582786 -0.020322 0.00520313 0.0467721 0.0386138 0.0348175 -0.00114401 -0.015095 0.00718535 0.0107113 -0.0081131 0.043456 0.0255535 0.0168017 0.01629 -0.0227171 -0.00278413 -0.00109635 0.0749932 0.0462796 0.0280713 0.0144641 0.00852773 0.00544912
internal_weight=0 2897 3853 1543 1887 1354 1966 767 776 934 543 760 505 437 224 594 271 953 248 569 423 140 957 295 365 323 294 84 303 1009 447 580 171 103 211 690 168 134 103 373 194 145 101 189 179 438 244 131 315 168 198 186 184 370 171 122 50 105 98 126 206 96
internal_count=6750 2897 3853 1543 1887 1354 1966 767 776 934 543 760 505 437 224 594 271 953 248 569 423 140 957 295 365 323 294 84 303 1009 447 580 171 103 211 690 168 134 103 373 194 145 101 189 179 438 244 131 315 168 198 186 184 370 171 122 50 105 98 126 206 96
is_linear=0
shrinkage=0.05


Tree=12
num_leaves=63
num_cat=0
split_feature=0 0 0 2 0 2 0 8 8 8 2 0 2 5 2 2 8 2 0 8 0 5 0 8 5 0 8 8 0 2 8 2 0 0 8 8 8 0 2 8 2 0 2 5 0 2 2 2 5 8 8 2 8 5 2 8 8 5 0 0 8 8
split_gain=1411.91 184.929 149.456 32.5937 27.883 22.5589 18.4038 12.6678 7.90102 7.65971 6.70945 5.46567 4.93626 4.52734 4.4785 4.44314 4.24437 4.07127 3.41233 2.93474 2.87376 2.83227 2.42754 2.4038 2.27813 2.22419 1.92576 1.89129 1.78467 1.70281 1.58613 1.56742 1.56716 1.51162 1.39749 1.32236 1.30005 1.24299 1.23617 1.20274 1.08899 1.05351 0.998523 0.912547 0.854047 0.841813 0.832938 0.819968 0.813872 0.793477 0.790085 0.781528 0.772284 0.771449 0.761201 0.745745 0.743163 0.717687 0.708246 0.706444 0.687821 0.68197
threshold=18.500000000000004 11.500000000000002 24.500000000000004 108.50000000000001 6.5000000000000009 102.50000000000001 15.500000000000002 40.500000000000007 42.500000000000007 46.500000000000007 94.500000000000014 21.500000000000004 103.50000000000001 184.10000000000002 95.500000000000014 104.50000000000001 40.500000000000007 88.500000000000014 4.5000000000000009 31.500000000000004 27.500000000000004 184.10000000000002 21.500000000000004 34.500000000000007 190.70000000000002 21.500000000000004 35.500000000000007 67.500000000000014 27.500000000000004 114.50000000000001 60.500000000000007 102.50000000000001 28.500000000000004 9.5000000000000018 40.500000000000007 64.500000000000014 51.500000000000007 28.500000000000004 96.500000000000014 63.500000000000007 86.500000000000014 28.500000000000004 97.500000000000014 173.10000000000002 2.5000000000000004 96.500000000000014 94.500000000000014 100.50000000000001 166.45000000000002 42.500000000000007 37.500000000000007 107.50000000000001 31.500000000000004 142.20000000000002 88.500000000000014 54.500000000000007 57.500000000000007 170.90000000000003 13.500000000000002 26.500000000000004 26.500000000000004 29.500000000000004
decision_type=2 2 2 2 2 2 2 2 2 2 2 2 2 2 2 2 2 2 2 2 2 2 2 2 2 2 2 2 2 2 2 2 2 2 2 2 2 2 2 2 2 2 2 2 2 2 2 2 2 2 2 2 2 2 2 2 2 2 2 2 2 2
left_child=1 4 5 7 18 8 14 12 25 20 34 30 42 28 23 27 51 36 44 -12 -5 41 35 53 -18 38 -16 47 -11 52 -7 39 60 -19 54 -10 -6 -15 -2 -21 -25 -17 -4 -29 -1 -24 -27 -9 -37 -20 -35 -13 -22 -3 -8 -26 -23 -28 -42 -44 -14 -48
right_child=2 6 3 9 17 11 10 15 22 13 19 16 32 37 26 21 24 33 49 31 29 56 45 40 55 46 57 43 -30 -31 -32 -33 -34 50 -36 48 -38 -39 -40 -41 58 -43 59 -45 -46 -47 61 -49 -50 -51 -52 -53 -54 -55 -56 -57 -58 -59 -60 -61 -62 -63
leaf_value=-0.036371922846260771 -0.00090810730135176116 -0.011930944246274455 0.012386132423610738 0.039067340208136521 -0.026589090719860122 0.016151519262653815 -0.018010288541731628 0.0261263595289878 0.010291464113845275 0.046234851594894162 -0.0019720069171915082 0.020399248639219686 0.027376538018385573 0.063481147111730377 -0.0093178940793533418 0.039243778304049848 0.029878264048078043 -0.021485263145375022 -0.031024064259095624 0.0031984546217837563 0.043405651243833394 0.049050080478191378 0.014532121819502209 -0.016445625064751276 0.035705579941471416 0.0030033030403921242 -0.0047809982144220468 0.03683695833791386 0.057735090884002485 0.058920711941189245 0.026549139165359999 0.0138636754010804 0.040317408685330992 -0.019172771583507015 -0.0019485748416627757 0.012920439946314984 -0.021322178569315488 0.077666518221730776 0.0063034058827222995 0.011242862420679513 -0.010935803783388856 0.04973326064646244 0.020374322331207263 0.050935027251640952 -0.033018566873795736 0.023692317268457906 0.0092211995644389949 0.034782358407974244 0.023903437482344136 -0.026970905762214167 -0.014260347611788246 0.027374344968026681 0.05081645748578012 -0.017749453304956357 -0.0079407223319981762 0.047445366555644623 0.059847051957074342 0.0015474705135039542 -0.0060642508345910909 0.027251487405914251 0.03329111575025373 0.016080684194693697
leaf_weight=329 88 81 24 115 363 181 23 37 130 62 133 114 87 47 164 95 111 309 253 195 78 30 32 52 24 26 96 22 74 36 46 64 54 157 104 31 173 23 183 61 156 32 86 24 449 116 71 105 37 231 171 62 64 192 102 31 34 84 143 66 113 74
leaf_count=329 88 81 24 115 363 181 23 37 130 62 133 114 87 47 164 95 111 309 253 195 78 30 32 52 24 26 96 22 74 36 46 64 54 157 104 31 173 23 183 61 156 32 86 24 449 116 71 105 37 231 171 62 64 192 102 31 34 84 143 66 113 74
internal_value=0 -0.0184703 0.0283119 0.0403724 -0.0272276 0.016687 -0.00554673 0.0341736 0.0112088 0.0504222 0.000744383 0.0242735 0.0282997 0.0578102 -0.0099791 0.040838 0.0282659 -0.0216779 -0.0323859 0.00427044 0.0452279 0.046209 0.0168676 -0.0125042 0.0340014 0.00677912 -0.00539861 0.0353813 0.0524923 0.0492081 0.0182585 0.00686496 0.032759 -0.0189758 -0.00623075 0.0132467 -0.0248891 0.0681421 0.00396166 0.00511529 -0.00976737 0.0418868 0.021864 0.0441925 -0.0344366 0.0217117 0.0112442 0.0325269 0.0188965 -0.0290896 -0.0166117 0.0228564 0.0467457 -0.0160231 -0.00979352 0.0423226 0.054786 -0.00182771 -0.00860593 0.0233605 0.0307183 0.0127219
internal_weight=0 4085 2665 1308 2435 1357 1650 809 788 499 682 569 430 206 968 379 342 1173 1262 453 293 191 346 624 166 442 344 188 136 178 227 320 254 637 229 198 536 70 271 256 351 127 176 46 778 148 171 142 68 484 328 176 142 273 125 55 64 180 299 152 200 145
internal_count=6750 4085 2665 1308 2435 1357 1650 809 788 499 682 569 430 206 968 379 342 1173 1262 453 293 191 346 624 166 442 344 188 136 178 227 320 254 637 229 198 536 70 271 256 351 127 176 46 778 148 171 142 68 484 328 176 142 273 125 55 64 180 299 152 200 145
is_linear=0
shrinkage=0.05


Tree=13
num_leaves=63
num_cat=0
split_feature=2 1 2 1 2 2 1 1 8 8 8 1 2 7 2 1 1 7 8 1 2 8 8 2 2 8 1 1 8 2 1 8 3 7 8 2 8 1 2 7 8 8 1 8 2 8 8 1 7 8 8 2 2 7 2 1 1 8 5 5 8 1
split_gain=1166.21 175.111 128.295 34.3834 29.9185 22.6078 19.8769 13.1662 11.2858 9.31918 8.40182 7.18919 5.69393 5.6012 5.04849 4.77304 4.09383 3.9775 3.29713 3.19388 2.93675 2.8106 2.79489 2.69549 2.67507 2.48417 2.10894 1.96923 1.7593 1.64485 1.5772 1.57215 1.56637 1.55519 1.49335 1.4738 1.43562 1.38343 1.25908 1.24338 1.04933 1.02304 1.01164 0.992919 0.961682 0.95784 0.925127 0.923455 0.901675 0.893838 0.872109 0.86496 0.855116 0.838817 0.835804 0.828746 0.803283 0.770261 0.753065 0.74307 0.732911 0.721821
threshold=98.500000000000014 103.7 105.50000000000001 104.60000000000001 93.500000000000014 109.50000000000001 102.65000000000002 104.80000000000003 58.500000000000007 53.500000000000007 31.500000000000004 105.2 89.500000000000014 1.0000000180025095e-35 87.500000000000014 104.10000000000001 105.2 1.0000000180025095e-35 36.500000000000007 105.2 115.50000000000001 42.500000000000007 53.500000000000007 101.50000000000001 101.50000000000001 61.500000000000007 101.60000000000001 104.45000000000002 72.500000000000014 114.50000000000001 104.10000000000001 59.500000000000007 5.5000000000000009 1.0000000180025095e-35 45.500000000000007 115.50000000000001 29.500000000000004 104.30000000000003 92.500000000000014 1.0000000180025095e-35 33.500000000000007 72.500000000000014 104.60000000000001 35.500000000000007 101.50000000000001 33.500000000000007 29.500000000000004 105.35000000000001 1.0000000180025095e-35 40.500000000000007 21.500000000000004 82.500000000000014 102.50000000000001 1.0000000180025095e-35 81.500000000000014 105.35000000000001 105.2 50.500000000000007 179.70000000000002 173.10000000000002 23.500000000000004 103.2
decision_type=2 2 2 2 2 2 2 2 2 2 2 2 2 2 2 2 2 2 2 2 2 2 2 2 2 2 2 2 2 2 2 2 2 2 2 2 2 2 2 2 2 2 2 2 2 2 2 2 2 2 2 2 2 2 2 2 2 2 2 2 2 2
left_child=1 6 3 15 12 9 26 18 11 16 29 24 34 20 54 57 42 28 37 32 25 48 50 49 45 -12 -1 43 47 60 -20 38 -10 44 39 -15 -25 -6 61 -3 53 -32 -4 -14 -21 -5 -26 -11 -9 -13 -17 -28 58 -29 -8 -38 -19 -2 -24 -23 -7 -16
right_child=2 4 5 8 7 10 14 21 19 17 13 23 27 35 31 22 -18 56 30 33 -22 59 52 36 46 -27 51 40 -30 -31 41 -33 -34 -35 -36 -37 55 -39 -40 -41 -42 -43 -44 -45 -46 -47 -48 -49 -50 -51 -52 -53 -54 -55 -56 -57 -58 -59 -60 -61 -62 -63
leaf_value=-0.033407073161181286 -0.0069497133107800984 -0.022720915287733082 0.016308385073418984 0.0041775708946968533 -0.011782556863980108 0.029800040084941717 -0.029736644719776356 0.00072256185158039445 0.020345214236720761 0.040250884369015694 0.05072111563327221 0.015091361746108006 -0.01434583616652854 0.042179891745101165 -0.024974920564010496 -0.0058251412678509955 0.0325210947614476 0.028576642745419552 -0.006326306133996696 0.033689777896954466 0.075372954308986662 0.010004229801989189 0.0063803926293709975 0.020319208740991981 0.012822641534835436 0.06478257967366112 -0.031795701229323944 -0.013862354879308007 0.060421215246121089 0.046964231359236171 0.00026028995177925521 -0.01371000722265019 0.032625502406766538 0.030160638238444473 -0.013107641206639847 0.054611604069841328 0.023044967162804526 -0.0046288479291057838 -0.016993063390603132 -0.014988247414637524 -0.0020174327031974265 0.0095795912805068158 0.02490502619607882 -0.0086585661706592744 0.046169278260908636 0.011636644975547722 0.019351475033239068 0.051743368444771599 0.0074653497123070957 0.022545194307652616 0.0051686277312198757 -0.027722788536049467 0.021827717857628035 -0.0044610447179031917 -0.024479062833093309 0.030117871843336166 0.038102304176339565 0.0023144622581700485 0.018020609711917737 0.017278539564305296 0.037569042861461642 -0.020015205706105287
leaf_weight=510 89 125 44 72 123 51 95 84 82 44 104 122 142 134 122 20 262 38 86 26 20 66 33 95 89 45 192 46 24 33 220 126 38 66 159 29 61 150 214 89 123 34 154 167 38 107 139 29 121 60 184 406 29 49 370 129 53 30 24 75 75 184
leaf_count=510 89 125 44 72 123 51 95 84 82 44 104 122 142 134 122 20 262 38 86 26 20 66 33 95 89 45 192 46 24 33 220 126 38 66 159 29 61 150 214 89 123 34 154 167 38 107 139 29 121 60 184 406 29 49 370 129 53 30 24 75 75 184
internal_value=0 -0.0168229 0.0256751 0.0162313 -0.00550305 0.0383857 -0.0263063 0.000641812 0.0207484 0.0322539 0.0464782 0.0180688 -0.0120508 0.0510046 -0.0215805 0.00381781 0.0284206 0.0416332 -0.00375966 0.0301162 0.0573827 0.0084398 0.00727785 0.0223022 0.0132112 0.0549679 -0.031045 -0.00870492 0.0486774 0.037027 -0.000473801 -0.0187209 0.024234 0.0355459 -0.016778 0.0443917 0.0253378 -0.00785195 -0.0199351 -0.019505 -0.00506607 0.00150776 0.0229947 -0.0112721 0.0410995 0.00863635 0.0168029 0.0448164 0.00470245 0.0175487 0.00409081 -0.0290305 0.0148378 -0.00901326 -0.0255532 0.0278471 0.0341246 -0.00461421 0.0112815 0.0138735 0.0344244 -0.0219926
internal_weight=0 4078 2672 1533 1859 1139 2219 959 1124 648 491 874 900 332 1111 409 460 188 613 250 169 346 290 467 407 149 1108 527 97 159 340 646 120 130 373 163 285 273 520 214 218 254 198 309 64 179 228 73 205 182 204 598 86 95 465 190 91 119 57 141 126 306
internal_count=6750 4078 2672 1533 1859 1139 2219 959 1124 648 491 874 900 332 1111 409 460 188 613 250 169 346 290 467 407 149 1108 527 97 159 340 646 120 130 373 163 285 273 520 214 218 254 198 309 64 179 228 73 205 182 204 598 86 95 465 190 91 119 57 141 126 306
is_linear=0
shrinkage=0.05


Tree=14
num_leaves=63
num_cat=0
split_feature=0 0 0 2 0 2 0 8 8 8 2 2 8 7 8 0 0 2 0 0 5 0 7 0 5 8 8 2 8 2 7 5 0 8 0 2 8 5 0 2 2 0 0 5 8 7 8 7 2 8 2 0 7 2 8 8 0 2 8 8 7 2
split_gain=1158.61 150.468 124.921 26.0982 22.4943 17.5444 15.1935 9.33796 8.18072 7.33566 5.92999 5.20802 3.9214 3.67977 3.39452 3.36838 3.20709 3.13002 2.80312 2.79162 2.71644 2.56578 2.28138 2.11883 2.05876 1.83321 1.65521 1.60537 1.60257 1.56693 1.55789 1.41938 1.39608 1.3075 1.29163 1.24748 1.24475 1.20701 1.20606 1.19471 1.1233 1.04284 0.950156 0.924535 0.923924 0.918684 0.893835 0.876248 0.845726 0.790683 0.789294 0.759411 0.733494 0.722807 0.721015 0.718329 0.711769 0.701531 0.688175 0.645513 0.642266 0.593243
threshold=18.500000000000004 11.500000000000002 24.500000000000004 106.50000000000001 6.5000000000000009 103.50000000000001 16.500000000000004 58.500000000000007 44.500000000000007 40.500000000000007 113.50000000000001 97.500000000000014 36.500000000000007 1.0000000180025095e-35 36.500000000000007 8.5000000000000018 28.500000000000004 95.500000000000014 27.500000000000004 4.5000000000000009 184.10000000000002 21.500000000000004 1.0000000180025095e-35 21.500000000000004 188.50000000000003 65.500000000000014 50.500000000000007 92.500000000000014 28.500000000000004 101.50000000000001 1.0000000180025095e-35 188.50000000000003 14.500000000000002 34.500000000000007 26.500000000000004 97.500000000000014 47.500000000000007 184.10000000000002 21.500000000000004 108.50000000000001 101.50000000000001 28.500000000000004 22.500000000000004 192.90000000000003 64.500000000000014 1.0000000180025095e-35 38.500000000000007 1.0000000180025095e-35 88.500000000000014 28.500000000000004 97.500000000000014 26.500000000000004 1.0000000180025095e-35 102.50000000000001 53.500000000000007 43.500000000000007 2.5000000000000004 95.500000000000014 60.500000000000007 66.500000000000014 1.0000000180025095e-35 86.500000000000014
decision_type=2 2 2 2 2 2 2 2 2 2 2 2 2 2 2 2 2 2 2 2 2 2 2 2 2 2 2 2 2 2 2 2 2 2 2 2 2 2 2 2 2 2 2 2 2 2 2 2 2 2 2 2 2 2 2 2 2 2 2 2 2 2
left_child=1 4 5 8 19 9 11 10 18 23 16 14 42 34 30 55 28 49 29 56 38 31 25 35 51 40 -19 36 -5 -4 48 57 61 -13 -9 -2 45 -30 -14 44 -10 53 -7 -28 -22 -17 -18 58 -3 -8 60 -12 -35 -24 -21 -6 -1 -11 -23 -34 -25 -16
right_child=2 6 3 7 15 12 17 13 22 21 24 33 20 -15 32 27 46 26 -20 54 39 47 41 50 -26 -27 43 -29 37 -31 -32 -33 59 52 -36 -37 -38 -39 -40 -41 -42 -43 -44 -45 -46 -47 -48 -49 -50 -51 -52 -53 -54 -55 -56 -57 -58 -59 -60 -61 -62 -63
leaf_value=-0.032885681196911362 -0.00066448593511312997 -0.022101454055971571 0.016266958575303619 0.028994179905756663 -0.024613360510166014 0.01464677527627169 -0.0083717803082739312 0.051998263278177803 0.028022365331649781 0.0040584035642961857 0.037494437545537954 -0.0062958765986712842 0.017461493175763353 0.04561815151613053 -0.014926830836032568 -0.024082547415503495 0.040818768448945955 0.0029572833768134188 0.030644959943885566 -0.027550953939645254 0.026799733216984797 0.020263178992484296 0.023959814161062243 5.9230526909232134e-05 0.060893731936812405 0.050033563604721658 0.0076085514170101736 -0.013921368222818521 0.03468833353269745 0.024484359968028613 -0.0099690552038289078 0.018129738193884908 -0.0052171714725129555 0.003487512107764545 0.065038755788641461 0.0062784530373755842 -0.015979756836385764 0.043607737912851219 0.026319424601945474 0.042342845063943133 0.040841662883758546 0.039945240267391866 0.021471779212191868 0.01749290374240705 0.039012036153248386 -0.018412716625904553 0.049526758427205296 0.016697911544632849 -0.014450415528170724 -0.00060007744348695275 0.013250144906423726 0.048636003320033733 -0.0028784722057429869 0.032580767379653069 -0.023346302199037109 -0.020675863183158286 -0.029824364314764276 0.011559555120407962 0.02936573787169023 0.0017308872953678172 0.010275308644631879 -0.0082106210452649511
leaf_weight=329 101 45 95 92 268 116 45 28 25 41 20 127 65 73 38 139 82 177 119 338 59 56 40 25 32 39 73 221 148 149 207 72 130 91 59 180 194 51 94 26 54 29 91 35 21 147 46 93 183 120 114 65 90 62 146 204 449 130 33 45 40 244
leaf_count=329 101 45 95 92 268 116 45 28 25 41 20 127 65 73 38 139 82 177 119 338 59 56 40 25 32 39 73 221 148 149 207 72 130 91 59 180 194 51 94 26 54 29 91 35 21 147 46 93 183 120 114 65 90 62 146 204 449 130 33 45 40 244
internal_value=0 -0.0167317 0.0256468 0.036673 -0.024631 0.0150188 -0.00507421 0.0432958 0.0291412 0.0108669 0.0401316 -0.00801235 0.0228037 0.053896 -0.00994791 -0.0196463 0.0373525 0.00276083 0.0243534 -0.0292641 0.0268316 0.0156028 0.036121 0.00649134 0.050084 0.0411637 0.00593374 -0.0174477 0.0344513 0.021285 -0.0131094 0.0122406 -0.00693863 -0.00240674 0.0608418 0.00378295 -0.0190713 0.0369742 0.0226983 0.0330316 0.0367849 0.0315787 0.0176471 0.0108118 0.0300055 -0.0211683 0.0439482 0.0200918 -0.0159605 -0.00271963 0.0107431 0.0460145 0.000322106 0.0292 -0.0262826 -0.0229116 -0.0311189 0.00976103 0.0236383 -0.00343053 0.00634605 -0.00911564
internal_weight=0 4085 2665 1308 2435 1357 1650 696 612 885 536 1200 472 160 892 1173 419 450 363 1262 265 425 249 460 117 118 285 701 291 244 435 243 457 308 87 281 480 199 159 106 79 131 207 108 80 286 128 182 228 165 179 85 181 102 484 472 778 171 89 175 65 282
internal_count=6750 4085 2665 1308 2435 1357 1650 696 612 885 536 1200 472 160 892 1173 419 450 363 1262 265 425 249 460 117 118 285 701 291 244 435 243 457 308 87 281 480 199 159 106 79 131 207 108 80 286 128 182 228 165 179 85 181 102 484 472 778 171 89 175 65 282
is_linear=0
shrinkage=0.05


Tree=15
num_leaves=63
num_cat=0
split_feature=0 0 0 2 0 2 0 8 8 8 0 7 2 0 8 0 8 2 0 2 7 2 5 2 8 8 8 8 8 2 2 7 2 0 0 2 2 2 2 5 2 7 2 8 0 5 2 5 2 5 5 2 7 0 7 5 8 7 0 8 2 5
split_gain=1045.64 135.798 113.057 24.0793 20.3583 18.2251 13.823 7.30423 6.44499 6.35122 6.01519 5.00492 4.72609 4.10778 3.96378 3.7289 3.33607 2.35817 2.29664 2.17348 2.10427 2.09084 2.08162 1.99188 1.70059 1.64559 1.54432 1.53555 1.39126 1.29579 1.23912 1.22384 1.19962 1.18111 1.13868 1.09937 1.01722 1.00341 0.98967 0.975392 0.904797 0.897271 0.843354 0.831276 0.830445 0.804295 0.761386 0.752123 0.70216 0.667165 0.665541 0.657085 0.65521 0.647639 0.631047 0.621462 0.618414 0.615063 0.57524 0.555621 0.543967 0.536217
threshold=18.500000000000004 11.500000000000002 25.500000000000004 103.50000000000001 7.5000000000000009 107.50000000000001 15.500000000000002 37.500000000000007 41.500000000000007 45.500000000000007 22.500000000000004 1.0000000180025095e-35 96.500000000000014 4.5000000000000009 44.500000000000007 21.500000000000004 50.500000000000007 85.500000000000014 22.500000000000004 113.50000000000001 1.0000000180025095e-35 91.500000000000014 190.70000000000002 102.50000000000001 64.500000000000014 35.500000000000007 59.500000000000007 64.500000000000014 34.500000000000007 96.500000000000014 97.500000000000014 1.0000000180025095e-35 98.500000000000014 28.500000000000004 28.500000000000004 111.50000000000001 86.500000000000014 111.50000000000001 100.50000000000001 197.30000000000004 114.50000000000001 1.0000000180025095e-35 100.50000000000001 62.500000000000007 28.500000000000004 170.90000000000003 102.50000000000001 166.45000000000002 96.500000000000014 148.80000000000004 199.50000000000003 91.500000000000014 1.0000000180025095e-35 1.5000000000000002 1.0000000180025095e-35 140.00000000000003 28.500000000000004 1.0000000180025095e-35 28.500000000000004 31.500000000000004 103.50000000000001 175.30000000000004
decision_type=2 2 2 2 2 2 2 2 2 2 2 2 2 2 2 2 2 2 2 2 2 2 2 2 2 2 2 2 2 2 2 2 2 2 2 2 2 2 2 2 2 2 2 2 2 2 2 2 2 2 2 2 2 2 2 2 2 2 2 2 2 2
left_child=1 4 3 7 13 8 16 18 23 19 26 35 25 53 37 27 21 -6 30 33 43 54 34 57 38 41 -5 48 52 -17 49 -28 50 56 60 -11 -15 -12 -14 -31 58 -8 59 -16 -25 -21 -24 -29 -9 -2 -18 -30 -19 -1 -3 -20 -7 -4 -13 -23 -10 -26
right_child=2 6 5 10 17 9 12 15 22 11 14 40 24 36 20 29 32 28 55 45 -22 42 46 44 61 -27 31 47 51 39 -32 -33 -34 -35 -36 -37 -38 -39 -40 -41 -42 -43 -44 -45 -46 -47 -48 -49 -50 -51 -52 -53 -54 -55 -56 -57 -58 -59 -60 -61 -62 -63
leaf_value=-0.033136919988404727 0.0041857670289167067 -0.017082971198705294 0.016117687482386827 0.015590761307322856 -0.022317241838840252 0.029762306947399071 -0.010751894619965624 0.0042373385625736164 0.028139006760385301 0.053684096552174668 0.021778938688790602 0.037798792396982514 0.00048512399726961222 -0.026128159219124283 0.034930368900299075 0.01162894675301181 -0.007151846526447978 -0.021394582170372212 0.017417695011411393 0.042478193472261019 0.027701269891113045 -0.011277378706983402 0.036086529344320294 0.026757463460711586 0.007863017179382344 -0.00027358149676398504 0.032936165424493645 0.011641863468244222 -0.016197800278545373 0.019210226131145827 0.0062987975428238016 0.01833175860811025 0.002407592246097259 0.041320164953724724 0.040568325621016484 0.064034700911978021 -0.022332652859236839 0.032283267092246277 0.0062603152038516576 0.027504207789897917 0.051754059710285884 -0.0032145275405850516 -0.0033816222937849277 0.04506383292815265 0.034168810587303311 0.05311057094869942 0.047772119032300039 0.021839247075840833 0.010655918019060696 -0.0036595253049995337 -0.00081539906644842268 -0.01226759872439763 -0.016724629441549062 -0.028980684968655419 -0.011754316762089731 0.0096961602538951919 0.036544746629307782 0.023848508509262553 0.047250588915564801 -0.007446532557998391 0.034500901628699565 0.01822715447499202
leaf_weight=109 47 118 50 196 213 54 86 60 63 58 181 60 153 366 50 45 190 144 35 46 80 209 20 146 24 176 26 33 252 167 192 32 55 89 47 46 341 26 144 45 22 73 65 34 51 29 46 40 147 64 53 184 157 669 105 102 89 53 22 173 72 26
leaf_count=109 47 118 50 196 213 54 86 60 63 58 181 60 153 366 50 45 190 144 35 46 80 209 20 146 24 176 26 33 252 167 192 32 55 89 47 46 341 26 144 45 22 73 65 34 51 29 46 40 147 64 53 184 157 669 105 102 89 53 22 173 72 26
internal_value=0 -0.0158951 0.0243645 0.0159756 -0.0233994 0.037007 -0.0048205 0.0110727 0.0306603 0.0437605 0.0236398 0.0505063 0.000631751 -0.0270561 0.0276985 0.0149861 -0.00866185 -0.0176834 0.00629663 0.03919 0.0335048 -0.0106194 0.0366241 0.0257302 0.00472141 -0.0036044 0.0177116 0.0109943 -0.0163442 0.019335 0.00386763 0.0248786 -0.00426057 0.036798 0.0338656 0.0582622 -0.0242975 0.0230983 0.00328522 0.0209707 0.0427503 -0.00729134 -0.00864659 0.039032 0.0286761 0.0465894 0.044231 0.0172295 0.00879546 -0.000337645 -0.00576982 -0.0145392 -0.0189588 -0.029563 -0.014574 0.0116688 0.0339835 0.0200957 0.0403346 -0.00954247 0.031532 0.0132524
internal_weight=0 4085 2665 1602 2435 1063 1650 977 548 515 625 208 682 1485 371 537 968 950 440 307 164 670 248 300 347 335 254 280 737 257 303 58 298 232 182 104 707 207 297 212 104 159 447 84 197 75 66 73 207 111 243 436 301 778 223 137 143 103 82 382 135 50
internal_count=6750 4085 2665 1602 2435 1063 1650 977 548 515 625 208 682 1485 371 537 968 950 440 307 164 670 248 300 347 335 254 280 737 257 303 58 298 232 182 104 707 207 297 212 104 159 447 84 197 75 66 73 207 111 243 436 301 778 223 137 143 103 82 382 135 50
is_linear=0
shrinkage=0.05


Tree=16
num_leaves=63
num_cat=0
split_feature=0 0 0 2 0 2 0 0 2 2 0 0 5 2 5 0 5 2 2 2 2 0 0 5 0 2 2 5 0 2 2 2 5 0 2 2 2 0 5 5 6 0 5 0 5 2 2 5 5 6 2 0 0 5 7 2 0 2 2 1 7 0
split_gain=943.702 127.302 97.9033 28.5661 13.2171 12.1959 11.2761 10.1815 5.74171 4.82533 4.6235 3.82773 2.85841 2.70444 2.67259 2.6596 2.60412 2.11008 2.09608 2.02762 1.82987 1.7396 1.57114 1.25369 1.13321 1.0826 1.05505 1.03455 1.00369 0.980173 0.912723 0.886522 0.852283 0.850047 0.727618 0.713495 0.597623 0.589593 0.583193 0.568221 0.555856 0.552127 0.540089 0.596075 0.493282 0.476311 0.446101 0.42393 0.420446 0.417316 0.403026 0.402361 0.37967 0.378478 0.377541 0.485359 0.376555 0.345263 0.320913 0.320107 0.316689 0.302046
threshold=17.500000000000004 23.500000000000004 10.500000000000002 104.50000000000001 5.5000000000000009 99.500000000000014 13.500000000000002 26.500000000000004 111.50000000000001 98.500000000000014 20.500000000000004 27.500000000000004 188.50000000000003 93.500000000000014 188.50000000000003 8.5000000000000018 192.90000000000003 97.500000000000014 107.50000000000001 91.500000000000014 94.500000000000014 21.500000000000004 28.500000000000004 199.50000000000003 3.5000000000000004 114.50000000000001 108.50000000000001 214.95000000000002 16.500000000000004 91.500000000000014 86.500000000000014 84.500000000000014 190.70000000000002 16.500000000000004 89.500000000000014 109.50000000000001 82.500000000000014 25.500000000000004 195.10000000000002 192.90000000000003 1.0000000180025095e-35 22.500000000000004 214.95000000000002 19.500000000000004 179.70000000000002 86.500000000000014 81.500000000000014 199.50000000000003 190.70000000000002 1.0000000180025095e-35 103.50000000000001 25.500000000000004 1.5000000000000002 217.20000000000002 1.0000000180025095e-35 115.50000000000001 19.500000000000004 96.500000000000014 110.50000000000001 105.50000000000001 1.0000000180025095e-35 28.500000000000004
decision_type=2 2 2 2 2 2 2 2 2 2 2 2 2 2 2 2 2 2 2 2 2 2 2 2 2 2 2 2 2 2 2 2 2 2 2 2 2 2 2 2 2 2 2 2 2 2 2 2 2 2 2 2 2 2 2 2 2 2 2 2 2 2
left_child=2 5 4 11 24 13 20 16 12 19 32 17 22 34 54 29 26 -3 23 45 30 42 -9 41 52 -16 51 37 50 36 -4 -17 56 -21 -2 -18 -6 -19 -30 -13 -14 -12 43 -15 58 -8 -26 -22 -23 -28 -11 -5 -1 60 59 -56 -7 -33 -20 -10 -32 -42
right_child=1 3 6 7 15 10 9 8 14 28 18 39 40 21 25 31 35 27 44 33 47 48 -24 -25 46 -27 49 -29 38 -31 53 57 -34 -35 -36 -37 -38 -39 -40 -41 61 -43 -44 -45 -46 -47 -48 -49 -50 -51 -52 -53 -54 -55 55 -57 -58 -59 -60 -61 -62 -63
leaf_value=-0.031480074776422 -0.010352082247845829 0.011263840436767482 -0.017958466157627605 0.023191695226929512 -0.025240804541994025 0.0072144008081070857 -0.013665283770830023 0.031666146785668703 0.052340060898235868 -0.00098608318575546701 0.013009818757216083 0.028345453343109079 0.037513638922461762 0.0022171523014202694 0.0515079056063006 -0.022184204310178757 0.033571775052054179 0.018759924339698281 0.018486417729306866 -0.0048163747974900896 -0.0091906743600800936 0.010354377888143064 0.039001587809117375 0.02245615515857935 -0.028049756537695404 0.066428766250610352 0.029625452271441824 0.031826386126604954 0.0044026656020772258 -0.017567791899007961 -0.014543962633956365 -0.016304849628255024 0.014869515813926471 0.00035800170546139871 7.7969278636908927e-05 0.042252072393894197 -0.021454463949675637 0.022960369734229238 0.013766969568298563 0.037104237533133959 0.043072258392158821 0.017771127774983974 0.011163036219940912 0.0065929165536312969 0.028403422041308315 -0.0081879700586074897 -0.024512702595791427 -0.0034098542940400136 0.0178183791268131 0.036554807424545289 0.0048477814287731522 0.028230479313060643 -0.028188955777176811 -0.006537854225374758 0.040009095444195515 0.047626974880695346 0.011238332330198079 -0.011829750631384705 0.02622510563759577 0.043609891193253654 -0.011468449140783777 0.048927884325385099
leaf_weight=109 20 61 96 104 135 161 51 184 21 134 184 95 27 168 31 62 58 187 37 346 222 105 121 62 122 20 97 22 60 133 158 358 71 103 102 40 457 151 23 23 49 91 31 145 42 179 331 37 23 28 38 64 447 25 69 30 91 49 21 21 178 40
leaf_count=109 20 61 96 104 135 161 51 184 21 134 184 95 27 168 31 62 58 187 37 346 222 105 121 62 122 20 97 22 60 133 158 358 71 103 102 40 457 151 23 23 49 91 31 145 42 179 331 37 23 28 38 64 447 25 69 30 91 49 21 21 178 40
internal_value=0 0.0215606 -0.016211 0.031379 -0.0231087 0.0103717 -0.00700156 0.0363637 0.040385 -0.00338253 0.0145669 0.0220939 0.0371171 0.00500413 0.0475506 -0.0195485 0.0300592 0.0198632 0.0179197 -0.00558493 -0.0117225 0.00671937 0.0345763 0.0160334 -0.0273217 0.0573592 0.0276993 0.0213203 0.00248189 -0.0214465 -0.0136254 -0.0166145 0.0100308 -0.00362938 -0.00163188 0.0371148 -0.0223179 0.0206365 0.00699759 0.0300527 0.0437976 0.0145854 0.00486776 0.00424426 0.0242767 -0.0094025 -0.0254653 -0.00836484 0.0116956 0.0311776 0.000302794 0.0251112 -0.0288342 -0.0124731 0.0440027 0.0423175 0.00866749 -0.0157661 0.0212884 0.047975 -0.0129147 0.045704
internal_weight=0 2897 3853 1543 2203 1354 1650 1004 613 934 760 539 421 594 192 1194 391 421 437 679 716 472 305 337 1009 51 293 360 255 725 457 469 323 449 122 98 592 338 83 118 116 275 344 313 100 230 453 259 128 125 172 168 556 361 141 99 252 407 58 42 336 89
internal_count=6750 2897 3853 1543 2203 1354 1650 1004 613 934 760 539 421 594 192 1194 391 421 437 679 716 472 305 337 1009 51 293 360 255 725 457 469 323 449 122 98 592 338 83 118 116 275 344 313 100 230 453 259 128 125 172 168 556 361 141 99 252 407 58 42 336 89
is_linear=0
shrinkage=0.05


Tree=17
num_leaves=63
num_cat=0
split_feature=0 0 0 0 0 8 0 8 8 7 0 8 8 8 0 0 7 7 0 0 0 8 8 7 8 7 0 8 8 7 5 8 5 8 0 8 5 8 7 7 8 5 0 5 8 5 5 5 8 0 7 0 0 0 7 0 0 0 7 8 8 7
split_gain=852.028 110.716 92.2163 17.9011 16.6422 11.9412 11.2887 6.07607 6.03 5.29091 4.16315 3.60322 3.07968 2.99189 2.65026 2.49629 2.46905 2.32741 2.07229 1.97875 1.48389 1.41255 1.32089 1.31533 1.30511 1.28453 1.2748 1.1539 1.04368 1.03544 0.971918 0.942146 0.932374 0.858222 0.771549 0.761576 0.753349 0.706967 0.683303 0.669181 0.887702 0.663084 0.653869 0.628998 0.619984 0.619558 0.607858 0.593752 0.590293 0.582362 0.574763 0.511244 0.510657 0.500872 0.49799 0.497707 0.495751 0.491504 0.42798 0.400339 0.396625 0.396206
threshold=18.500000000000004 11.500000000000002 25.500000000000004 22.500000000000004 6.5000000000000009 41.500000000000007 15.500000000000002 55.500000000000007 51.500000000000007 1.0000000180025095e-35 28.500000000000004 31.500000000000004 64.500000000000014 50.500000000000007 27.500000000000004 9.5000000000000018 1.0000000180025095e-35 1.0000000180025095e-35 3.5000000000000004 20.500000000000004 27.500000000000004 63.500000000000007 27.500000000000004 1.0000000180025095e-35 34.500000000000007 1.0000000180025095e-35 12.500000000000002 47.500000000000007 69.500000000000014 1.0000000180025095e-35 199.50000000000003 67.500000000000014 190.70000000000002 43.500000000000007 12.500000000000002 27.500000000000004 190.70000000000002 32.500000000000007 1.0000000180025095e-35 1.0000000180025095e-35 30.500000000000004 201.70000000000002 20.500000000000004 190.70000000000002 64.500000000000014 214.95000000000002 137.80000000000004 203.90000000000003 65.500000000000014 28.500000000000004 1.0000000180025095e-35 16.500000000000004 19.500000000000004 28.500000000000004 1.0000000180025095e-35 29.500000000000004 27.500000000000004 27.500000000000004 1.0000000180025095e-35 24.500000000000004 73.500000000000014 1.0000000180025095e-35
decision_type=2 2 2 2 2 2 2 2 2 2 2 2 2 2 2 2 2 2 2 2 2 2 2 2 2 2 2 2 2 2 2 2 2 2 2 2 2 2 2 2 2 2 2 2 2 2 2 2 2 2 2 2 2 2 2 2 2 2 2 2 2 2
left_child=1 4 3 7 18 10 13 19 24 12 22 23 14 26 -7 27 42 28 -1 37 -11 41 56 -8 46 -23 -3 38 -10 34 57 59 -26 58 -15 50 -12 54 -6 40 -28 51 -9 -37 -44 53 -5 -48 -36 60 -21 -13 -18 -16 -2 -22 -4 -24 -20 61 -14 -17
right_child=2 6 5 8 15 9 11 16 17 20 36 21 49 29 45 31 52 -19 33 35 55 25 30 -25 32 -27 39 -29 -30 -31 -32 -33 -34 -35 48 43 -38 -39 -40 -41 -42 -43 44 -45 -46 -47 47 -49 -50 -51 -52 -53 -54 -55 -56 -57 -58 -59 -60 -61 -62 -63
